<?xml version="1.0"?>
<opencv_storage>
<cascade>
  <stageType>BOOST</stageType>
  <featureType>HAAR</featureType>
  <height>20</height>
  <width>20</width>
  <stageParams>
    <boostType>GAB</boostType>
    <minHitRate>9.9500000476837158e-01</minHitRate>
    <maxFalseAlarm>5.0000000000000000e-01</maxFalseAlarm>
    <weightTrimRate>9.4999999999999996e-01</weightTrimRate>
    <maxDepth>1</maxDepth>
    <maxWeakCount>100</maxWeakCount></stageParams>
  <featureParams>
    <maxCatCount>0</maxCatCount>
    <featSize>1</featSize>
    <mode>BASIC</mode></featureParams>
  <stageNum>10</stageNum>
  <stages>
    <!-- stage 0 -->
    <_>
      <maxWeakCount>7</maxWeakCount>
      <stageThreshold>-1.7742817401885986e+00</stageThreshold>
      <weakClassifiers>
        <_>
          <internalNodes>
            0 -1 76 1.3400339521467686e-02</internalNodes>
          <leafValues>
            -6.2821948528289795e-01 7.7777779102325439e-01</leafValues></_>
        <_>
          <internalNodes>
            0 -1 30 -2.3215435445308685e-02</internalNodes>
          <leafValues>
            6.1942952871322632e-01 -4.9346926808357239e-01</leafValues></_>
        <_>
          <internalNodes>
            0 -1 120 -6.7239929921925068e-04</internalNodes>
          <leafValues>
            5.5585306882858276e-01 -3.0004039406776428e-01</leafValues></_>
        <_>
          <internalNodes>
            0 -1 3 -1.2986860238015652e-02</internalNodes>
          <leafValues>
            4.0614330768585205e-01 -4.0132051706314087e-01</leafValues></_>
        <_>
          <internalNodes>
            0 -1 72 -6.7759193480014801e-03</internalNodes>
          <leafValues>
            -8.3685028553009033e-01 1.9437082111835480e-01</leafValues></_>
        <_>
          <internalNodes>
            0 -1 118 -7.9173687845468521e-04</internalNodes>
          <leafValues>
            2.6247122883796692e-01 -5.5226600170135498e-01</leafValues></_>
        <_>
          <internalNodes>
            0 -1 33 9.2938600573688745e-04</internalNodes>
          <leafValues>
            -4.4923037290573120e-01 3.7829044461250305e-01</leafValues></_></weakClassifiers></_>
    <!-- stage 1 -->
    <_>
      <maxWeakCount>9</maxWeakCount>
      <stageThreshold>-1.2533688545227051e+00</stageThreshold>
      <weakClassifiers>
        <_>
          <internalNodes>
            0 -1 28 3.3278711140155792e-02</internalNodes>
          <leafValues>
            -4.2289498448371887e-01 7.8750896453857422e-01</leafValues></_>
        <_>
          <internalNodes>
            0 -1 14 1.5302321873605251e-02</internalNodes>
          <leafValues>
            -4.4567131996154785e-01 4.8239675164222717e-01</leafValues></_>
        <_>
          <internalNodes>
            0 -1 103 -7.2763278149068356e-03</internalNodes>
          <leafValues>
            3.5220766067504883e-01 -4.9594646692276001e-01</leafValues></_>
        <_>
          <internalNodes>
            0 -1 34 3.5176575183868408e-03</internalNodes>
          <leafValues>
            -3.4221437573432922e-01 5.0173169374465942e-01</leafValues></_>
        <_>
          <internalNodes>
            0 -1 121 7.7097560279071331e-04</internalNodes>
          <leafValues>
            -3.6929851770401001e-01 4.0852198004722595e-01</leafValues></_>
        <_>
          <internalNodes>
            0 -1 138 -2.5053741410374641e-04</internalNodes>
          <leafValues>
            3.3812937140464783e-01 -3.9153015613555908e-01</leafValues></_>
        <_>
          <internalNodes>
            0 -1 119 -2.3490404710173607e-03</internalNodes>
          <leafValues>
            -9.8902601003646851e-01 1.3270679116249084e-01</leafValues></_>
        <_>
          <internalNodes>
            0 -1 80 -3.5655755549669266e-02</internalNodes>
          <leafValues>
            -8.3748108148574829e-01 1.2511855363845825e-01</leafValues></_>
        <_>
          <internalNodes>
            0 -1 116 -8.2821473479270935e-03</internalNodes>
          <leafValues>
            1.7854116857051849e-01 -5.6715238094329834e-01</leafValues></_></weakClassifiers></_>
    <!-- stage 2 -->
    <_>
      <maxWeakCount>12</maxWeakCount>
      <stageThreshold>-1.2141788005828857e+00</stageThreshold>
      <weakClassifiers>
        <_>
          <internalNodes>
            0 -1 76 2.7543511241674423e-02</internalNodes>
          <leafValues>
            -3.2307693362236023e-01 6.9929075241088867e-01</leafValues></_>
        <_>
          <internalNodes>
            0 -1 31 3.0356720089912415e-02</internalNodes>
          <leafValues>
            -1.9635932147502899e-01 6.9852614402770996e-01</leafValues></_>
        <_>
          <internalNodes>
            0 -1 139 -2.5514065055176616e-04</internalNodes>
          <leafValues>
            3.7893739342689514e-01 -3.5381290316581726e-01</leafValues></_>
        <_>
          <internalNodes>
            0 -1 15 -1.6078185290098190e-02</internalNodes>
          <leafValues>
            2.4709942936897278e-01 -5.8091443777084351e-01</leafValues></_>
        <_>
          <internalNodes>
            0 -1 91 3.1329072080552578e-03</internalNodes>
          <leafValues>
            8.5478387773036957e-02 -7.7999615669250488e-01</leafValues></_>
        <_>
          <internalNodes>
            0 -1 94 -3.4162702504545450e-03</internalNodes>
          <leafValues>
            2.1220576763153076e-01 -5.1884919404983521e-01</leafValues></_>
        <_>
          <internalNodes>
            0 -1 89 -4.0418105199933052e-03</internalNodes>
          <leafValues>
            -6.5705025196075439e-01 1.7660760879516602e-01</leafValues></_>
        <_>
          <internalNodes>
            0 -1 61 1.8106045899912715e-03</internalNodes>
          <leafValues>
            -3.2925781607627869e-01 3.6958253383636475e-01</leafValues></_>
        <_>
          <internalNodes>
            0 -1 55 7.7311983332037926e-03</internalNodes>
          <leafValues>
            -2.5963237881660461e-01 3.5209128260612488e-01</leafValues></_>
        <_>
          <internalNodes>
            0 -1 43 9.9445856176316738e-04</internalNodes>
          <leafValues>
            -2.2644633054733276e-01 3.9892575144767761e-01</leafValues></_>
        <_>
          <internalNodes>
            0 -1 69 -2.9045902192592621e-04</internalNodes>
          <leafValues>
            3.1631502509117126e-01 -2.9735928773880005e-01</leafValues></_>
        <_>
          <internalNodes>
            0 -1 74 -2.1082410588860512e-02</internalNodes>
          <leafValues>
            -7.2517925500869751e-01 1.3395860791206360e-01</leafValues></_></weakClassifiers></_>
    <!-- stage 3 -->
    <_>
      <maxWeakCount>13</maxWeakCount>
      <stageThreshold>-1.0536142587661743e+00</stageThreshold>
      <weakClassifiers>
        <_>
          <internalNodes>
            0 -1 21 4.7458685934543610e-02</internalNodes>
          <leafValues>
            -2.6647001504898071e-01 6.4270758628845215e-01</leafValues></_>
        <_>
          <internalNodes>
            0 -1 85 -3.2184082083404064e-03</internalNodes>
          <leafValues>
            3.1485056877136230e-01 -4.8180440068244934e-01</leafValues></_>
        <_>
          <internalNodes>
            0 -1 17 3.4804120659828186e-03</internalNodes>
          <leafValues>
            -3.2519853115081787e-01 3.9416357874870300e-01</leafValues></_>
        <_>
          <internalNodes>
            0 -1 90 1.9806218333542347e-03</internalNodes>
          <leafValues>
            1.2520976364612579e-01 -8.7126797437667847e-01</leafValues></_>
        <_>
          <internalNodes>
            0 -1 90 -1.7298909369856119e-03</internalNodes>
          <leafValues>
            -8.6137413978576660e-01 1.0631319135427475e-01</leafValues></_>
        <_>
          <internalNodes>
            0 -1 123 -4.3583265505731106e-04</internalNodes>
          <leafValues>
            2.5176289677619934e-01 -4.1899284720420837e-01</leafValues></_>
        <_>
          <internalNodes>
            0 -1 106 -1.7829779535531998e-03</internalNodes>
          <leafValues>
            3.1617254018783569e-01 -3.3552223443984985e-01</leafValues></_>
        <_>
          <internalNodes>
            0 -1 95 5.6231315247714520e-03</internalNodes>
          <leafValues>
            -3.3006069064140320e-01 3.6048874258995056e-01</leafValues></_>
        <_>
          <internalNodes>
            0 -1 77 -9.2270985245704651e-02</internalNodes>
          <leafValues>
            -7.6982575654983521e-01 1.4798617362976074e-01</leafValues></_>
        <_>
          <internalNodes>
            0 -1 115 1.9653944764286280e-03</internalNodes>
          <leafValues>
            1.2599362432956696e-01 -8.0530238151550293e-01</leafValues></_>
        <_>
          <internalNodes>
            0 -1 144 -2.2243941202759743e-03</internalNodes>
          <leafValues>
            3.7193301320075989e-01 -2.6338136196136475e-01</leafValues></_>
        <_>
          <internalNodes>
            0 -1 68 5.6513156741857529e-03</internalNodes>
          <leafValues>
            1.3835401833057404e-01 -8.0536442995071411e-01</leafValues></_>
        <_>
          <internalNodes>
            0 -1 7 -1.0557151399552822e-03</internalNodes>
          <leafValues>
            3.9164197444915771e-01 -2.6381605863571167e-01</leafValues></_></weakClassifiers></_>
    <!-- stage 4 -->
    <_>
      <maxWeakCount>14</maxWeakCount>
      <stageThreshold>-1.0931466817855835e+00</stageThreshold>
      <weakClassifiers>
        <_>
          <internalNodes>
            0 -1 29 -3.3114846795797348e-02</internalNodes>
          <leafValues>
            6.3756418228149414e-01 -2.0147193968296051e-01</leafValues></_>
        <_>
          <internalNodes>
            0 -1 113 6.0448783915489912e-04</internalNodes>
          <leafValues>
            -4.2825806140899658e-01 3.3312577009201050e-01</leafValues></_>
        <_>
          <internalNodes>
            0 -1 111 -1.5606421045958996e-02</internalNodes>
          <leafValues>
            5.3985643386840820e-01 -2.1812130510807037e-01</leafValues></_>
        <_>
          <internalNodes>
            0 -1 26 1.6420170664787292e-02</internalNodes>
          <leafValues>
            -3.7491950392723083e-01 2.7606013417243958e-01</leafValues></_>
        <_>
          <internalNodes>
            0 -1 54 -5.5930949747562408e-03</internalNodes>
          <leafValues>
            -7.0460963249206543e-01 1.0046639293432236e-01</leafValues></_>
        <_>
          <internalNodes>
            0 -1 45 9.8184142261743546e-03</internalNodes>
          <leafValues>
            1.3432481884956360e-01 -7.5789326429367065e-01</leafValues></_>
        <_>
          <internalNodes>
            0 -1 57 2.2079469636082649e-03</internalNodes>
          <leafValues>
            8.7816268205642700e-02 -8.1113249063491821e-01</leafValues></_>
        <_>
          <internalNodes>
            0 -1 56 2.8711112099699676e-04</internalNodes>
          <leafValues>
            -2.8977483510971069e-01 3.3717125654220581e-01</leafValues></_>
        <_>
          <internalNodes>
            0 -1 70 2.7149592060595751e-03</internalNodes>
          <leafValues>
            8.6143538355827332e-02 -9.4643944501876831e-01</leafValues></_>
        <_>
          <internalNodes>
            0 -1 83 1.5303464897442609e-04</internalNodes>
          <leafValues>
            -4.1563552618026733e-01 2.2414743900299072e-01</leafValues></_>
        <_>
          <internalNodes>
            0 -1 35 2.6291892863810062e-03</internalNodes>
          <leafValues>
            -3.3236834406852722e-01 2.6550519466400146e-01</leafValues></_>
        <_>
          <internalNodes>
            0 -1 141 -7.5657060369849205e-04</internalNodes>
          <leafValues>
            3.3051434159278870e-01 -2.7372574806213379e-01</leafValues></_>
        <_>
          <internalNodes>
            0 -1 48 -2.0473897457122803e-03</internalNodes>
          <leafValues>
            3.0508005619049072e-01 -3.0012556910514832e-01</leafValues></_>
        <_>
          <internalNodes>
            0 -1 25 1.0347012430429459e-02</internalNodes>
          <leafValues>
            -2.3731489479541779e-01 4.3485301733016968e-01</leafValues></_></weakClassifiers></_>
    <!-- stage 5 -->
    <_>
      <maxWeakCount>17</maxWeakCount>
      <stageThreshold>-1.2132366895675659e+00</stageThreshold>
      <weakClassifiers>
        <_>
          <internalNodes>
            0 -1 127 1.7243355512619019e-02</internalNodes>
          <leafValues>
            -8.2239113748073578e-02 7.6669991016387939e-01</leafValues></_>
        <_>
          <internalNodes>
            0 -1 63 5.3955108160153031e-04</internalNodes>
          <leafValues>
            -3.9171698689460754e-01 3.3313539624214172e-01</leafValues></_>
        <_>
          <internalNodes>
            0 -1 140 -3.5628740442916751e-04</internalNodes>
          <leafValues>
            3.0986884236335754e-01 -3.5548406839370728e-01</leafValues></_>
        <_>
          <internalNodes>
            0 -1 88 2.4221390485763550e-03</internalNodes>
          <leafValues>
            1.5403731167316437e-01 -7.1508020162582397e-01</leafValues></_>
        <_>
          <internalNodes>
            0 -1 36 2.1844580769538879e-03</internalNodes>
          <leafValues>
            -3.4694415330886841e-01 2.9322788119316101e-01</leafValues></_>
        <_>
          <internalNodes>
            0 -1 59 5.1643769256770611e-03</internalNodes>
          <leafValues>
            -2.4424205720424652e-01 4.2210802435874939e-01</leafValues></_>
        <_>
          <internalNodes>
            0 -1 87 7.4055133154615760e-04</internalNodes>
          <leafValues>
            -2.4506753683090210e-01 3.6593446135520935e-01</leafValues></_>
        <_>
          <internalNodes>
            0 -1 97 1.1886244465131313e-04</internalNodes>
          <leafValues>
            -3.9495840668678284e-01 2.2179405391216278e-01</leafValues></_>
        <_>
          <internalNodes>
            0 -1 109 -2.2260015830397606e-03</internalNodes>
          <leafValues>
            -8.1802773475646973e-01 1.1154113709926605e-01</leafValues></_>
        <_>
          <internalNodes>
            0 -1 146 -6.3525832956656814e-04</internalNodes>
          <leafValues>
            3.2220557332038879e-01 -2.6539027690887451e-01</leafValues></_>
        <_>
          <internalNodes>
            0 -1 16 -1.1364482343196869e-03</internalNodes>
          <leafValues>
            3.1050145626068115e-01 -2.9871129989624023e-01</leafValues></_>
        <_>
          <internalNodes>
            0 -1 128 -3.2508507138118148e-04</internalNodes>
          <leafValues>
            2.3062847554683685e-01 -3.5108473896980286e-01</leafValues></_>
        <_>
          <internalNodes>
            0 -1 98 4.8518786206841469e-03</internalNodes>
          <leafValues>
            1.2515091896057129e-01 -6.1688518524169922e-01</leafValues></_>
        <_>
          <internalNodes>
            0 -1 9 1.9532314036041498e-03</internalNodes>
          <leafValues>
            -2.4360050261020660e-01 3.0852085351943970e-01</leafValues></_>
        <_>
          <internalNodes>
            0 -1 114 -1.0134974727407098e-03</internalNodes>
          <leafValues>
            1.3977599143981934e-01 -6.1102867126464844e-01</leafValues></_>
        <_>
          <internalNodes>
            0 -1 75 -2.9955148696899414e-02</internalNodes>
          <leafValues>
            -6.2560003995895386e-01 1.3149613142013550e-01</leafValues></_>
        <_>
          <internalNodes>
            0 -1 39 1.1397473514080048e-02</internalNodes>
          <leafValues>
            -4.0972974896430969e-01 1.8158942461013794e-01</leafValues></_></weakClassifiers></_>
    <!-- stage 6 -->
    <_>
      <maxWeakCount>23</maxWeakCount>
      <stageThreshold>-9.8063904047012329e-01</stageThreshold>
      <weakClassifiers>
        <_>
          <internalNodes>
            0 -1 20 -2.5911761447787285e-02</internalNodes>
          <leafValues>
            5.3009706735610962e-01 -1.8674033880233765e-01</leafValues></_>
        <_>
          <internalNodes>
            0 -1 134 2.7133491821587086e-03</internalNodes>
          <leafValues>
            -2.6659309864044189e-01 3.9135572314262390e-01</leafValues></_>
        <_>
          <internalNodes>
            0 -1 120 -6.7601678892970085e-04</internalNodes>
          <leafValues>
            3.1474190950393677e-01 -3.0106142163276672e-01</leafValues></_>
        <_>
          <internalNodes>
            0 -1 53 7.0225973613560200e-03</internalNodes>
          <leafValues>
            1.2037971615791321e-01 -7.7108043432235718e-01</leafValues></_>
        <_>
          <internalNodes>
            0 -1 110 9.3144562561064959e-04</internalNodes>
          <leafValues>
            -3.1776455044746399e-01 2.5032940506935120e-01</leafValues></_>
        <_>
          <internalNodes>
            0 -1 109 -1.5697504859417677e-03</internalNodes>
          <leafValues>
            -7.1490174531936646e-01 9.2180334031581879e-02</leafValues></_>
        <_>
          <internalNodes>
            0 -1 108 8.9931022375822067e-04</internalNodes>
          <leafValues>
            4.4662162661552429e-02 -7.6818466186523438e-01</leafValues></_>
        <_>
          <internalNodes>
            0 -1 97 -9.0747416834346950e-05</internalNodes>
          <leafValues>
            -4.6865859627723694e-01 1.4561179280281067e-01</leafValues></_>
        <_>
          <internalNodes>
            0 -1 19 -5.0589547026902437e-04</internalNodes>
          <leafValues>
            2.6562312245368958e-01 -2.5318917632102966e-01</leafValues></_>
        <_>
          <internalNodes>
            0 -1 6 -6.9075571373105049e-03</internalNodes>
          <leafValues>
            3.4362754225730896e-01 -2.0573177933692932e-01</leafValues></_>
        <_>
          <internalNodes>
            0 -1 49 2.7233669534325600e-03</internalNodes>
          <leafValues>
            -2.1166202425956726e-01 3.1497400999069214e-01</leafValues></_>
        <_>
          <internalNodes>
            0 -1 38 1.8213770817965269e-03</internalNodes>
          <leafValues>
            -2.1129785478115082e-01 3.6147716641426086e-01</leafValues></_>
        <_>
          <internalNodes>
            0 -1 130 2.6487326249480247e-03</internalNodes>
          <leafValues>
            9.4535633921623230e-02 -8.0469143390655518e-01</leafValues></_>
        <_>
          <internalNodes>
            0 -1 100 6.2425239011645317e-03</internalNodes>
          <leafValues>
            9.7546987235546112e-02 -5.9275275468826294e-01</leafValues></_>
        <_>
          <internalNodes>
            0 -1 47 -4.5311469584703445e-03</internalNodes>
          <leafValues>
            2.8197667002677917e-01 -2.5516778230667114e-01</leafValues></_>
        <_>
          <internalNodes>
            0 -1 142 -5.9022959321737289e-03</internalNodes>
          <leafValues>
            4.2271760106086731e-01 -1.5698459744453430e-01</leafValues></_>
        <_>
          <internalNodes>
            0 -1 92 1.8769439309835434e-02</internalNodes>
          <leafValues>
            -1.0340974479913712e-01 6.7241054773330688e-01</leafValues></_>
        <_>
          <internalNodes>
            0 -1 81 3.1729456968605518e-03</internalNodes>
          <leafValues>
            -2.9796528816223145e-01 2.8554832935333252e-01</leafValues></_>
        <_>
          <internalNodes>
            0 -1 99 -4.9268221482634544e-03</internalNodes>
          <leafValues>
            -8.5118085145950317e-01 6.6769652068614960e-02</leafValues></_>
        <_>
          <internalNodes>
            0 -1 78 9.4152218662202358e-04</internalNodes>
          <leafValues>
            -2.9854953289031982e-01 2.4869637191295624e-01</leafValues></_>
        <_>
          <internalNodes>
            0 -1 101 -6.7527770996093750e-02</internalNodes>
          <leafValues>
            -8.6160618066787720e-01 7.3914632201194763e-02</leafValues></_>
        <_>
          <internalNodes>
            0 -1 42 2.3872880265116692e-03</internalNodes>
          <leafValues>
            5.9024717658758163e-02 -9.0309363603591919e-01</leafValues></_>
        <_>
          <internalNodes>
            0 -1 141 -4.7336431453004479e-04</internalNodes>
          <leafValues>
            2.3191630840301514e-01 -3.0184170603752136e-01</leafValues></_></weakClassifiers></_>
    <!-- stage 7 -->
    <_>
      <maxWeakCount>22</maxWeakCount>
      <stageThreshold>-1.0061461925506592e+00</stageThreshold>
      <weakClassifiers>
        <_>
          <internalNodes>
            0 -1 21 7.9939447343349457e-02</internalNodes>
          <leafValues>
            -1.6329197213053703e-02 7.3449403047561646e-01</leafValues></_>
        <_>
          <internalNodes>
            0 -1 105 -1.1482496745884418e-02</internalNodes>
          <leafValues>
            4.5437791943550110e-01 -1.8771664798259735e-01</leafValues></_>
        <_>
          <internalNodes>
            0 -1 52 3.0593678820878267e-04</internalNodes>
          <leafValues>
            -2.4652856588363647e-01 2.8773403167724609e-01</leafValues></_>
        <_>
          <internalNodes>
            0 -1 65 -6.0815573669970036e-03</internalNodes>
          <leafValues>
            -8.5868471860885620e-01 4.3476462364196777e-02</leafValues></_>
        <_>
          <internalNodes>
            0 -1 46 1.6800068551674485e-03</internalNodes>
          <leafValues>
            -2.2344897687435150e-01 3.0478212237358093e-01</leafValues></_>
        <_>
          <internalNodes>
            0 -1 104 -7.4471337720751762e-03</internalNodes>
          <leafValues>
            1.8613061308860779e-01 -3.8238352537155151e-01</leafValues></_>
        <_>
          <internalNodes>
            0 -1 131 4.5141270384192467e-03</internalNodes>
          <leafValues>
            7.3111169040203094e-02 -8.1877666711807251e-01</leafValues></_>
        <_>
          <internalNodes>
            0 -1 73 -5.5757500231266022e-03</internalNodes>
          <leafValues>
            -8.3558756113052368e-01 6.5120063722133636e-02</leafValues></_>
        <_>
          <internalNodes>
            0 -1 2 2.0326312631368637e-02</internalNodes>
          <leafValues>
            -1.7763245105743408e-01 3.9800271391868591e-01</leafValues></_>
        <_>
          <internalNodes>
            0 -1 148 5.0444984808564186e-03</internalNodes>
          <leafValues>
            -2.6894870400428772e-01 2.6008340716362000e-01</leafValues></_>
        <_>
          <internalNodes>
            0 -1 18 -2.9910162091255188e-02</internalNodes>
          <leafValues>
            -6.3443809747695923e-01 1.1839729547500610e-01</leafValues></_>
        <_>
          <internalNodes>
            0 -1 40 -2.5163546204566956e-02</internalNodes>
          <leafValues>
            -6.3236904144287109e-01 9.7679726779460907e-02</leafValues></_>
        <_>
          <internalNodes>
            0 -1 22 -1.9088931148871779e-03</internalNodes>
          <leafValues>
            3.1228223443031311e-01 -2.2190603613853455e-01</leafValues></_>
        <_>
          <internalNodes>
            0 -1 123 -3.4982230863533914e-04</internalNodes>
          <leafValues>
            2.0604869723320007e-01 -3.6871507763862610e-01</leafValues></_>
        <_>
          <internalNodes>
            0 -1 133 2.0323074422776699e-03</internalNodes>
          <leafValues>
            -1.5935999155044556e-01 3.9469495415687561e-01</leafValues></_>
        <_>
          <internalNodes>
            0 -1 129 -7.4335522949695587e-03</internalNodes>
          <leafValues>
            -6.8155986070632935e-01 1.0618428885936737e-01</leafValues></_>
        <_>
          <internalNodes>
            0 -1 5 -1.6706392168998718e-02</internalNodes>
          <leafValues>
            -5.7629126310348511e-01 9.0718254446983337e-02</leafValues></_>
        <_>
          <internalNodes>
            0 -1 125 -1.9031640142202377e-02</internalNodes>
          <leafValues>
            -7.9435247182846069e-01 6.4732410013675690e-02</leafValues></_>
        <_>
          <internalNodes>
            0 -1 124 -1.0867078090086579e-03</internalNodes>
          <leafValues>
            1.1211515963077545e-01 -4.7028288245201111e-01</leafValues></_>
        <_>
          <internalNodes>
            0 -1 70 -9.8292250186204910e-04</internalNodes>
          <leafValues>
            -5.1987397670745850e-01 1.0350167006254196e-01</leafValues></_>
        <_>
          <internalNodes>
            0 -1 58 1.7623545136302710e-03</internalNodes>
          <leafValues>
            -1.8476451933383942e-01 3.2626509666442871e-01</leafValues></_>
        <_>
          <internalNodes>
            0 -1 8 -1.3086219318211079e-02</internalNodes>
          <leafValues>
            5.0792998075485229e-01 -1.2619724869728088e-01</leafValues></_></weakClassifiers></_>
    <!-- stage 8 -->
    <_>
      <maxWeakCount>20</maxWeakCount>
      <stageThreshold>-9.6970731019973755e-01</stageThreshold>
      <weakClassifiers>
        <_>
          <internalNodes>
            0 -1 84 3.7776192184537649e-03</internalNodes>
          <leafValues>
            -1.5157894790172577e-01 5.2933335304260254e-01</leafValues></_>
        <_>
          <internalNodes>
            0 -1 1 2.3831674829125404e-02</internalNodes>
          <leafValues>
            -2.2170917689800262e-01 4.8813739418983459e-01</leafValues></_>
        <_>
          <internalNodes>
            0 -1 147 -7.8311521792784333e-04</internalNodes>
          <leafValues>
            3.8203069567680359e-01 -2.2692841291427612e-01</leafValues></_>
        <_>
          <internalNodes>
            0 -1 138 -3.2982177799567580e-04</internalNodes>
          <leafValues>
            2.2471836209297180e-01 -3.4541183710098267e-01</leafValues></_>
        <_>
          <internalNodes>
            0 -1 136 -4.8448960296809673e-04</internalNodes>
          <leafValues>
            3.1256929039955139e-01 -2.4650280177593231e-01</leafValues></_>
        <_>
          <internalNodes>
            0 -1 24 1.9295988604426384e-02</internalNodes>
          <leafValues>
            -2.7150189876556396e-01 3.0777025222778320e-01</leafValues></_>
        <_>
          <internalNodes>
            0 -1 132 -5.3350621601566672e-04</internalNodes>
          <leafValues>
            3.5206970572471619e-01 -2.2167155146598816e-01</leafValues></_>
        <_>
          <internalNodes>
            0 -1 73 3.1363475136458874e-03</internalNodes>
          <leafValues>
            7.4516199529170990e-02 -8.2878774404525757e-01</leafValues></_>
        <_>
          <internalNodes>
            0 -1 0 -1.2246960774064064e-02</internalNodes>
          <leafValues>
            1.4790305495262146e-01 -4.8854520916938782e-01</leafValues></_>
        <_>
          <internalNodes>
            0 -1 71 -4.6624634414911270e-03</internalNodes>
          <leafValues>
            -6.4048987627029419e-01 9.1644428670406342e-02</leafValues></_>
        <_>
          <internalNodes>
            0 -1 137 -1.6542281955480576e-02</internalNodes>
          <leafValues>
            4.0239697694778442e-01 -1.6132536530494690e-01</leafValues></_>
        <_>
          <internalNodes>
            0 -1 126 -2.1371195092797279e-02</internalNodes>
          <leafValues>
            4.9300619959831238e-01 -1.2633338570594788e-01</leafValues></_>
        <_>
          <internalNodes>
            0 -1 32 2.1084956824779510e-04</internalNodes>
          <leafValues>
            -2.5466066598892212e-01 2.5784134864807129e-01</leafValues></_>
        <_>
          <internalNodes>
            0 -1 79 7.5873117893934250e-03</internalNodes>
          <leafValues>
            7.4024148285388947e-02 -6.6998112201690674e-01</leafValues></_>
        <_>
          <internalNodes>
            0 -1 67 3.1835699919611216e-03</internalNodes>
          <leafValues>
            9.4590120017528534e-02 -5.5050212144851685e-01</leafValues></_>
        <_>
          <internalNodes>
            0 -1 66 -1.4948329888284206e-02</internalNodes>
          <leafValues>
            3.4545204043388367e-01 -2.2245451807975769e-01</leafValues></_>
        <_>
          <internalNodes>
            0 -1 122 -3.1236365437507629e-02</internalNodes>
          <leafValues>
            -6.1635571718215942e-01 1.1347265541553497e-01</leafValues></_>
        <_>
          <internalNodes>
            0 -1 60 -3.3758408389985561e-03</internalNodes>
          <leafValues>
            2.9880374670028687e-01 -2.0522263646125793e-01</leafValues></_>
        <_>
          <internalNodes>
            0 -1 62 -2.4487221613526344e-02</internalNodes>
          <leafValues>
            1.8463361263275146e-01 -2.9132288694381714e-01</leafValues></_>
        <_>
          <internalNodes>
            0 -1 13 -4.9857296980917454e-03</internalNodes>
          <leafValues>
            3.0292877554893494e-01 -1.8887850642204285e-01</leafValues></_></weakClassifiers></_>
    <!-- stage 9 -->
    <_>
      <maxWeakCount>29</maxWeakCount>
      <stageThreshold>-1.0421839952468872e+00</stageThreshold>
      <weakClassifiers>
        <_>
          <internalNodes>
            0 -1 28 6.8504936993122101e-02</internalNodes>
          <leafValues>
            1.7230376601219177e-02 7.0554924011230469e-01</leafValues></_>
        <_>
          <internalNodes>
            0 -1 146 -4.7869113041087985e-04</internalNodes>
          <leafValues>
            3.5625049471855164e-01 -2.8584027290344238e-01</leafValues></_>
        <_>
          <internalNodes>
            0 -1 86 -6.9220503792166710e-03</internalNodes>
          <leafValues>
            3.7776693701744080e-01 -2.0120169222354889e-01</leafValues></_>
        <_>
          <internalNodes>
            0 -1 145 5.6269336491823196e-03</internalNodes>
          <leafValues>
            -2.1293720602989197e-01 3.5524266958236694e-01</leafValues></_>
        <_>
          <internalNodes>
            0 -1 96 3.0255094170570374e-02</internalNodes>
          <leafValues>
            -5.2716352045536041e-02 7.0336896181106567e-01</leafValues></_>
        <_>
          <internalNodes>
            0 -1 102 1.2636622413992882e-03</internalNodes>
          <leafValues>
            1.0468031466007233e-01 -6.2519145011901855e-01</leafValues></_>
        <_>
          <internalNodes>
            0 -1 44 1.1617093347012997e-02</internalNodes>
          <leafValues>
            1.0202368348836899e-01 -6.7400628328323364e-01</leafValues></_>
        <_>
          <internalNodes>
            0 -1 117 4.3830717913806438e-04</internalNodes>
          <leafValues>
            -3.1360033154487610e-01 1.8863059580326080e-01</leafValues></_>
        <_>
          <internalNodes>
            0 -1 93 1.1520120315253735e-03</internalNodes>
          <leafValues>
            -1.8772970139980316e-01 3.2929307222366333e-01</leafValues></_>
        <_>
          <internalNodes>
            0 -1 37 1.2427897891029716e-03</internalNodes>
          <leafValues>
            -1.9065816700458527e-01 2.8276190161705017e-01</leafValues></_>
        <_>
          <internalNodes>
            0 -1 112 -4.0370720671489835e-04</internalNodes>
          <leafValues>
            2.6751819252967834e-01 -2.1713240444660187e-01</leafValues></_>
        <_>
          <internalNodes>
            0 -1 73 3.1835637055337429e-03</internalNodes>
          <leafValues>
            9.0148791670799255e-02 -7.7656340599060059e-01</leafValues></_>
        <_>
          <internalNodes>
            0 -1 135 7.8089097514748573e-03</internalNodes>
          <leafValues>
            5.3227465599775314e-02 -9.3184667825698853e-01</leafValues></_>
        <_>
          <internalNodes>
            0 -1 27 -1.9593902397900820e-03</internalNodes>
          <leafValues>
            -5.2650356292724609e-01 9.5187343657016754e-02</leafValues></_>
        <_>
          <internalNodes>
            0 -1 51 -2.1164769714232534e-04</internalNodes>
          <leafValues>
            2.6814094185829163e-01 -2.2093006968498230e-01</leafValues></_>
        <_>
          <internalNodes>
            0 -1 50 2.3191742599010468e-02</internalNodes>
          <leafValues>
            1.0445427149534225e-01 -5.5907320976257324e-01</leafValues></_>
        <_>
          <internalNodes>
            0 -1 10 5.0620045512914658e-03</internalNodes>
          <leafValues>
            -1.7475128173828125e-01 3.4155079722404480e-01</leafValues></_>
        <_>
          <internalNodes>
            0 -1 11 -1.9951140508055687e-02</internalNodes>
          <leafValues>
            5.3195822238922119e-01 -1.2312737107276917e-01</leafValues></_>
        <_>
          <internalNodes>
            0 -1 109 -2.3583425208926201e-03</internalNodes>
          <leafValues>
            -8.4420281648635864e-01 8.3078227937221527e-02</leafValues></_>
        <_>
          <internalNodes>
            0 -1 107 -9.0338028967380524e-03</internalNodes>
          <leafValues>
            2.8462859988212585e-01 -1.9385071098804474e-01</leafValues></_>
        <_>
          <internalNodes>
            0 -1 41 -4.7490990255028009e-04</internalNodes>
          <leafValues>
            2.8611302375793457e-01 -1.9071470201015472e-01</leafValues></_>
        <_>
          <internalNodes>
            0 -1 138 -2.0228388893883675e-04</internalNodes>
          <leafValues>
            2.0197337865829468e-01 -2.6319384574890137e-01</leafValues></_>
        <_>
          <internalNodes>
            0 -1 4 2.9161707498133183e-03</internalNodes>
          <leafValues>
            -1.2565287947654724e-01 4.3507352471351624e-01</leafValues></_>
        <_>
          <internalNodes>
            0 -1 12 -3.1815085560083389e-02</internalNodes>
          <leafValues>
            4.0807619690895081e-01 -1.2611748278141022e-01</leafValues></_>
        <_>
          <internalNodes>
            0 -1 23 8.7903346866369247e-04</internalNodes>
          <leafValues>
            -1.4812082052230835e-01 3.5793480277061462e-01</leafValues></_>
        <_>
          <internalNodes>
            0 -1 57 2.7689945418387651e-03</internalNodes>
          <leafValues>
            5.8339096605777740e-02 -8.9304530620574951e-01</leafValues></_>
        <_>
          <internalNodes>
            0 -1 64 5.7285174261778593e-04</internalNodes>
          <leafValues>
            -3.1058871746063232e-01 1.6815201938152313e-01</leafValues></_>
        <_>
          <internalNodes>
            0 -1 82 1.2210903689265251e-02</internalNodes>
          <leafValues>
            -1.5585458278656006e-01 3.6466187238693237e-01</leafValues></_>
        <_>
          <internalNodes>
            0 -1 143 -7.1541923098266125e-03</internalNodes>
          <leafValues>
            -7.6194047927856445e-01 7.1170724928379059e-02</leafValues></_></weakClassifiers></_></stages>
  <features>
    <_>
      <rects>
        <_>
          0 7 12 3 -1.</_>
        <_>
          4 7 4 3 3.</_></rects>
      <tilted>0</tilted></_>
    <_>
      <rects>
        <_>
          0 13 8 4 -1.</_>
        <_>
          4 13 4 4 2.</_></rects>
      <tilted>0</tilted></_>
    <_>
      <rects>
        <_>
          0 15 10 2 -1.</_>
        <_>
          5 15 5 2 2.</_></rects>
      <tilted>0</tilted></_>
    <_>
      <rects>
        <_>
          1 7 9 3 -1.</_>
        <_>
          4 7 3 3 3.</_></rects>
      <tilted>0</tilted></_>
    <_>
      <rects>
        <_>
          1 9 2 2 -1.</_>
        <_>
          2 9 1 2 2.</_></rects>
      <tilted>0</tilted></_>
    <_>
      <rects>
        <_>
          2 8 8 5 -1.</_>
        <_>
          6 8 4 5 2.</_></rects>
      <tilted>0</tilted></_>
    <_>
      <rects>
        <_>
          2 9 3 8 -1.</_>
        <_>
          3 9 1 8 3.</_></rects>
      <tilted>0</tilted></_>
    <_>
      <rects>
        <_>
          2 10 2 1 -1.</_>
        <_>
          3 10 1 1 2.</_></rects>
      <tilted>0</tilted></_>
    <_>
      <rects>
        <_>
          2 11 4 5 -1.</_>
        <_>
          4 11 2 5 2.</_></rects>
      <tilted>0</tilted></_>
    <_>
      <rects>
        <_>
          2 14 4 2 -1.</_>
        <_>
          2 14 2 1 2.</_>
        <_>
          4 15 2 1 2.</_></rects>
      <tilted>0</tilted></_>
    <_>
      <rects>
        <_>
          2 15 6 1 -1.</_>
        <_>
          5 15 3 1 2.</_></rects>
      <tilted>0</tilted></_>
    <_>
      <rects>
        <_>
          2 15 10 2 -1.</_>
        <_>
          7 15 5 2 2.</_></rects>
      <tilted>0</tilted></_>
    <_>
      <rects>
        <_>
          3 1 2 12 -1.</_>
        <_>
          3 7 2 6 2.</_></rects>
      <tilted>0</tilted></_>
    <_>
      <rects>
        <_>
          3 2 2 10 -1.</_>
        <_>
          3 2 1 5 2.</_>
        <_>
          4 7 1 5 2.</_></rects>
      <tilted>0</tilted></_>
    <_>
      <rects>
        <_>
          3 4 8 6 -1.</_>
        <_>
          3 4 4 3 2.</_>
        <_>
          7 7 4 3 2.</_></rects>
      <tilted>0</tilted></_>
    <_>
      <rects>
        <_>
          3 6 10 10 -1.</_>
        <_>
          3 6 5 5 2.</_>
        <_>
          8 11 5 5 2.</_></rects>
      <tilted>0</tilted></_>
    <_>
      <rects>
        <_>
          3 7 2 2 -1.</_>
        <_>
          4 7 1 2 2.</_></rects>
      <tilted>0</tilted></_>
    <_>
      <rects>
        <_>
          3 7 2 10 -1.</_>
        <_>
          3 7 1 5 2.</_>
        <_>
          4 12 1 5 2.</_></rects>
      <tilted>0</tilted></_>
    <_>
      <rects>
        <_>
          3 7 5 8 -1.</_>
        <_>
          3 11 5 4 2.</_></rects>
      <tilted>0</tilted></_>
    <_>
      <rects>
        <_>
          3 8 2 1 -1.</_>
        <_>
          4 8 1 1 2.</_></rects>
      <tilted>0</tilted></_>
    <_>
      <rects>
        <_>
          3 8 8 6 -1.</_>
        <_>
          3 8 4 3 2.</_>
        <_>
          7 11 4 3 2.</_></rects>
      <tilted>0</tilted></_>
    <_>
      <rects>
        <_>
          3 8 15 2 -1.</_>
        <_>
          8 8 5 2 3.</_></rects>
      <tilted>0</tilted></_>
    <_>
      <rects>
        <_>
          3 9 2 2 -1.</_>
        <_>
          4 9 1 2 2.</_></rects>
      <tilted>0</tilted></_>
    <_>
      <rects>
        <_>
          3 12 2 1 -1.</_>
        <_>
          4 12 1 1 2.</_></rects>
      <tilted>0</tilted></_>
    <_>
      <rects>
        <_>
          3 12 10 6 -1.</_>
        <_>
          3 15 10 3 2.</_></rects>
      <tilted>0</tilted></_>
    <_>
      <rects>
        <_>
          3 13 6 6 -1.</_>
        <_>
          3 13 3 3 2.</_>
        <_>
          6 16 3 3 2.</_></rects>
      <tilted>0</tilted></_>
    <_>
      <rects>
        <_>
          4 2 6 10 -1.</_>
        <_>
          4 2 3 5 2.</_>
        <_>
          7 7 3 5 2.</_></rects>
      <tilted>0</tilted></_>
    <_>
      <rects>
        <_>
          4 7 8 7 -1.</_>
        <_>
          8 7 4 7 2.</_></rects>
      <tilted>0</tilted></_>
    <_>
      <rects>
        <_>
          4 8 12 2 -1.</_>
        <_>
          8 8 4 2 3.</_></rects>
      <tilted>0</tilted></_>
    <_>
      <rects>
        <_>
          4 8 8 6 -1.</_>
        <_>
          4 8 4 3 2.</_>
        <_>
          8 11 4 3 2.</_></rects>
      <tilted>0</tilted></_>
    <_>
      <rects>
        <_>
          4 8 8 8 -1.</_>
        <_>
          4 8 4 4 2.</_>
        <_>
          8 12 4 4 2.</_></rects>
      <tilted>0</tilted></_>
    <_>
      <rects>
        <_>
          4 9 12 1 -1.</_>
        <_>
          8 9 4 1 3.</_></rects>
      <tilted>0</tilted></_>
    <_>
      <rects>
        <_>
          4 10 2 1 -1.</_>
        <_>
          5 10 1 1 2.</_></rects>
      <tilted>0</tilted></_>
    <_>
      <rects>
        <_>
          4 10 2 2 -1.</_>
        <_>
          5 10 1 2 2.</_></rects>
      <tilted>0</tilted></_>
    <_>
      <rects>
        <_>
          4 10 1 6 -1.</_>
        <_>
          4 13 1 3 2.</_></rects>
      <tilted>0</tilted></_>
    <_>
      <rects>
        <_>
          4 12 2 4 -1.</_>
        <_>
          4 14 2 2 2.</_></rects>
      <tilted>0</tilted></_>
    <_>
      <rects>
        <_>
          4 13 6 2 -1.</_>
        <_>
          4 14 6 1 2.</_></rects>
      <tilted>0</tilted></_>
    <_>
      <rects>
        <_>
          4 14 2 4 -1.</_>
        <_>
          4 14 1 2 2.</_>
        <_>
          5 16 1 2 2.</_></rects>
      <tilted>0</tilted></_>
    <_>
      <rects>
        <_>
          4 15 4 2 -1.</_>
        <_>
          4 15 2 1 2.</_>
        <_>
          6 16 2 1 2.</_></rects>
      <tilted>0</tilted></_>
    <_>
      <rects>
        <_>
          5 3 6 8 -1.</_>
        <_>
          5 3 3 4 2.</_>
        <_>
          8 7 3 4 2.</_></rects>
      <tilted>0</tilted></_>
    <_>
      <rects>
        <_>
          5 4 7 12 -1.</_>
        <_>
          5 8 7 4 3.</_></rects>
      <tilted>0</tilted></_>
    <_>
      <rects>
        <_>
          5 5 2 1 -1.</_>
        <_>
          6 5 1 1 2.</_></rects>
      <tilted>0</tilted></_>
    <_>
      <rects>
        <_>
          5 14 2 1 -1.</_>
        <_>
          6 14 1 1 2.</_></rects>
      <tilted>0</tilted></_>
    <_>
      <rects>
        <_>
          5 14 1 2 -1.</_>
        <_>
          5 15 1 1 2.</_></rects>
      <tilted>0</tilted></_>
    <_>
      <rects>
        <_>
          5 14 9 2 -1.</_>
        <_>
          8 14 3 2 3.</_></rects>
      <tilted>0</tilted></_>
    <_>
      <rects>
        <_>
          5 14 10 2 -1.</_>
        <_>
          10 14 5 2 2.</_></rects>
      <tilted>0</tilted></_>
    <_>
      <rects>
        <_>
          5 15 2 4 -1.</_>
        <_>
          5 15 1 2 2.</_>
        <_>
          6 17 1 2 2.</_></rects>
      <tilted>0</tilted></_>
    <_>
      <rects>
        <_>
          5 15 6 4 -1.</_>
        <_>
          7 15 2 4 3.</_></rects>
      <tilted>0</tilted></_>
    <_>
      <rects>
        <_>
          5 16 6 2 -1.</_>
        <_>
          7 16 2 2 3.</_></rects>
      <tilted>0</tilted></_>
    <_>
      <rects>
        <_>
          5 17 4 3 -1.</_>
        <_>
          5 18 4 1 3.</_></rects>
      <tilted>0</tilted></_>
    <_>
      <rects>
        <_>
          6 6 8 6 -1.</_>
        <_>
          6 6 4 3 2.</_>
        <_>
          10 9 4 3 2.</_></rects>
      <tilted>0</tilted></_>
    <_>
      <rects>
        <_>
          6 14 1 2 -1.</_>
        <_>
          6 15 1 1 2.</_></rects>
      <tilted>0</tilted></_>
    <_>
      <rects>
        <_>
          6 14 3 1 -1.</_>
        <_>
          7 14 1 1 3.</_></rects>
      <tilted>0</tilted></_>
    <_>
      <rects>
        <_>
          6 14 6 2 -1.</_>
        <_>
          9 14 3 2 2.</_></rects>
      <tilted>0</tilted></_>
    <_>
      <rects>
        <_>
          6 14 8 1 -1.</_>
        <_>
          10 14 4 1 2.</_></rects>
      <tilted>0</tilted></_>
    <_>
      <rects>
        <_>
          6 14 6 6 -1.</_>
        <_>
          6 16 6 2 3.</_></rects>
      <tilted>0</tilted></_>
    <_>
      <rects>
        <_>
          6 15 2 1 -1.</_>
        <_>
          7 15 1 1 2.</_></rects>
      <tilted>0</tilted></_>
    <_>
      <rects>
        <_>
          6 15 3 1 -1.</_>
        <_>
          7 15 1 1 3.</_></rects>
      <tilted>0</tilted></_>
    <_>
      <rects>
        <_>
          6 15 4 2 -1.</_>
        <_>
          6 15 2 1 2.</_>
        <_>
          8 16 2 1 2.</_></rects>
      <tilted>0</tilted></_>
    <_>
      <rects>
        <_>
          6 15 2 4 -1.</_>
        <_>
          6 17 2 2 2.</_></rects>
      <tilted>0</tilted></_>
    <_>
      <rects>
        <_>
          6 17 6 2 -1.</_>
        <_>
          8 17 2 2 3.</_></rects>
      <tilted>0</tilted></_>
    <_>
      <rects>
        <_>
          6 17 3 3 -1.</_>
        <_>
          6 18 3 1 3.</_></rects>
      <tilted>0</tilted></_>
    <_>
      <rects>
        <_>
          7 1 7 9 -1.</_>
        <_>
          7 4 7 3 3.</_></rects>
      <tilted>0</tilted></_>
    <_>
      <rects>
        <_>
          7 8 2 1 -1.</_>
        <_>
          8 8 1 1 2.</_></rects>
      <tilted>0</tilted></_>
    <_>
      <rects>
        <_>
          7 9 2 1 -1.</_>
        <_>
          8 9 1 1 2.</_></rects>
      <tilted>0</tilted></_>
    <_>
      <rects>
        <_>
          7 13 2 4 -1.</_>
        <_>
          8 13 1 4 2.</_></rects>
      <tilted>0</tilted></_>
    <_>
      <rects>
        <_>
          7 13 8 6 -1.</_>
        <_>
          7 13 4 3 2.</_>
        <_>
          11 16 4 3 2.</_></rects>
      <tilted>0</tilted></_>
    <_>
      <rects>
        <_>
          7 14 6 1 -1.</_>
        <_>
          10 14 3 1 2.</_></rects>
      <tilted>0</tilted></_>
    <_>
      <rects>
        <_>
          7 14 6 2 -1.</_>
        <_>
          10 14 3 2 2.</_></rects>
      <tilted>0</tilted></_>
    <_>
      <rects>
        <_>
          7 15 1 2 -1.</_>
        <_>
          7 16 1 1 2.</_></rects>
      <tilted>0</tilted></_>
    <_>
      <rects>
        <_>
          7 15 3 1 -1.</_>
        <_>
          8 15 1 1 3.</_></rects>
      <tilted>0</tilted></_>
    <_>
      <rects>
        <_>
          7 15 4 2 -1.</_>
        <_>
          9 15 2 2 2.</_></rects>
      <tilted>0</tilted></_>
    <_>
      <rects>
        <_>
          7 15 6 2 -1.</_>
        <_>
          9 15 2 2 3.</_></rects>
      <tilted>0</tilted></_>
    <_>
      <rects>
        <_>
          7 15 6 1 -1.</_>
        <_>
          10 15 3 1 2.</_></rects>
      <tilted>0</tilted></_>
    <_>
      <rects>
        <_>
          8 4 1 14 -1.</_>
        <_>
          8 11 1 7 2.</_></rects>
      <tilted>0</tilted></_>
    <_>
      <rects>
        <_>
          8 6 2 12 -1.</_>
        <_>
          8 12 2 6 2.</_></rects>
      <tilted>0</tilted></_>
    <_>
      <rects>
        <_>
          8 6 4 6 -1.</_>
        <_>
          8 8 4 2 3.</_></rects>
      <tilted>0</tilted></_>
    <_>
      <rects>
        <_>
          8 6 5 12 -1.</_>
        <_>
          8 12 5 6 2.</_></rects>
      <tilted>0</tilted></_>
    <_>
      <rects>
        <_>
          8 7 3 2 -1.</_>
        <_>
          9 7 1 2 3.</_></rects>
      <tilted>0</tilted></_>
    <_>
      <rects>
        <_>
          8 7 2 10 -1.</_>
        <_>
          8 12 2 5 2.</_></rects>
      <tilted>0</tilted></_>
    <_>
      <rects>
        <_>
          8 7 2 12 -1.</_>
        <_>
          8 13 2 6 2.</_></rects>
      <tilted>0</tilted></_>
    <_>
      <rects>
        <_>
          8 7 3 2 -1.</_>
        <_>
          8 8 3 1 2.</_></rects>
      <tilted>0</tilted></_>
    <_>
      <rects>
        <_>
          8 7 4 3 -1.</_>
        <_>
          8 8 4 1 3.</_></rects>
      <tilted>0</tilted></_>
    <_>
      <rects>
        <_>
          8 8 3 1 -1.</_>
        <_>
          9 8 1 1 3.</_></rects>
      <tilted>0</tilted></_>
    <_>
      <rects>
        <_>
          8 8 3 3 -1.</_>
        <_>
          8 9 3 1 3.</_></rects>
      <tilted>0</tilted></_>
    <_>
      <rects>
        <_>
          8 9 2 4 -1.</_>
        <_>
          8 11 2 2 2.</_></rects>
      <tilted>0</tilted></_>
    <_>
      <rects>
        <_>
          8 12 5 3 -1.</_>
        <_>
          8 13 5 1 3.</_></rects>
      <tilted>0</tilted></_>
    <_>
      <rects>
        <_>
          8 14 1 3 -1.</_>
        <_>
          8 15 1 1 3.</_></rects>
      <tilted>0</tilted></_>
    <_>
      <rects>
        <_>
          8 14 3 2 -1.</_>
        <_>
          9 14 1 2 3.</_></rects>
      <tilted>0</tilted></_>
    <_>
      <rects>
        <_>
          8 14 4 2 -1.</_>
        <_>
          10 14 2 2 2.</_></rects>
      <tilted>0</tilted></_>
    <_>
      <rects>
        <_>
          8 15 3 1 -1.</_>
        <_>
          9 15 1 1 3.</_></rects>
      <tilted>0</tilted></_>
    <_>
      <rects>
        <_>
          8 15 6 1 -1.</_>
        <_>
          11 15 3 1 2.</_></rects>
      <tilted>0</tilted></_>
    <_>
      <rects>
        <_>
          8 16 12 1 -1.</_>
        <_>
          14 16 6 1 2.</_></rects>
      <tilted>0</tilted></_>
    <_>
      <rects>
        <_>
          8 17 3 1 -1.</_>
        <_>
          9 17 1 1 3.</_></rects>
      <tilted>0</tilted></_>
    <_>
      <rects>
        <_>
          9 1 2 9 -1.</_>
        <_>
          9 4 2 3 3.</_></rects>
      <tilted>0</tilted></_>
    <_>
      <rects>
        <_>
          9 4 8 2 -1.</_>
        <_>
          13 4 4 2 2.</_></rects>
      <tilted>0</tilted></_>
    <_>
      <rects>
        <_>
          9 5 2 6 -1.</_>
        <_>
          9 7 2 2 3.</_></rects>
      <tilted>0</tilted></_>
    <_>
      <rects>
        <_>
          9 8 3 1 -1.</_>
        <_>
          10 8 1 1 3.</_></rects>
      <tilted>0</tilted></_>
    <_>
      <rects>
        <_>
          9 8 3 2 -1.</_>
        <_>
          10 8 1 2 3.</_></rects>
      <tilted>0</tilted></_>
    <_>
      <rects>
        <_>
          9 8 2 3 -1.</_>
        <_>
          10 8 1 3 2.</_></rects>
      <tilted>0</tilted></_>
    <_>
      <rects>
        <_>
          9 8 3 3 -1.</_>
        <_>
          10 8 1 3 3.</_></rects>
      <tilted>0</tilted></_>
    <_>
      <rects>
        <_>
          9 8 4 10 -1.</_>
        <_>
          9 13 4 5 2.</_></rects>
      <tilted>0</tilted></_>
    <_>
      <rects>
        <_>
          9 9 2 6 -1.</_>
        <_>
          9 11 2 2 3.</_></rects>
      <tilted>0</tilted></_>
    <_>
      <rects>
        <_>
          9 9 3 4 -1.</_>
        <_>
          9 11 3 2 2.</_></rects>
      <tilted>0</tilted></_>
    <_>
      <rects>
        <_>
          9 9 4 6 -1.</_>
        <_>
          9 11 4 2 3.</_></rects>
      <tilted>0</tilted></_>
    <_>
      <rects>
        <_>
          9 13 6 4 -1.</_>
        <_>
          9 13 3 2 2.</_>
        <_>
          12 15 3 2 2.</_></rects>
      <tilted>0</tilted></_>
    <_>
      <rects>
        <_>
          9 14 4 4 -1.</_>
        <_>
          9 14 2 2 2.</_>
        <_>
          11 16 2 2 2.</_></rects>
      <tilted>0</tilted></_>
    <_>
      <rects>
        <_>
          9 14 6 4 -1.</_>
        <_>
          9 14 3 2 2.</_>
        <_>
          12 16 3 2 2.</_></rects>
      <tilted>0</tilted></_>
    <_>
      <rects>
        <_>
          9 15 2 1 -1.</_>
        <_>
          10 15 1 1 2.</_></rects>
      <tilted>0</tilted></_>
    <_>
      <rects>
        <_>
          9 15 3 1 -1.</_>
        <_>
          10 15 1 1 3.</_></rects>
      <tilted>0</tilted></_>
    <_>
      <rects>
        <_>
          9 15 6 1 -1.</_>
        <_>
          11 15 2 1 3.</_></rects>
      <tilted>0</tilted></_>
    <_>
      <rects>
        <_>
          9 16 5 4 -1.</_>
        <_>
          9 18 5 2 2.</_></rects>
      <tilted>0</tilted></_>
    <_>
      <rects>
        <_>
          9 17 2 2 -1.</_>
        <_>
          9 17 1 1 2.</_>
        <_>
          10 18 1 1 2.</_></rects>
      <tilted>0</tilted></_>
    <_>
      <rects>
        <_>
          10 7 1 2 -1.</_>
        <_>
          10 8 1 1 2.</_></rects>
      <tilted>0</tilted></_>
    <_>
      <rects>
        <_>
          10 7 1 8 -1.</_>
        <_>
          10 11 1 4 2.</_></rects>
      <tilted>0</tilted></_>
    <_>
      <rects>
        <_>
          10 7 1 10 -1.</_>
        <_>
          10 12 1 5 2.</_></rects>
      <tilted>0</tilted></_>
    <_>
      <rects>
        <_>
          10 7 3 10 -1.</_>
        <_>
          10 12 3 5 2.</_></rects>
      <tilted>0</tilted></_>
    <_>
      <rects>
        <_>
          10 9 3 1 -1.</_>
        <_>
          11 9 1 1 3.</_></rects>
      <tilted>0</tilted></_>
    <_>
      <rects>
        <_>
          10 9 1 4 -1.</_>
        <_>
          10 11 1 2 2.</_></rects>
      <tilted>0</tilted></_>
    <_>
      <rects>
        <_>
          10 15 3 1 -1.</_>
        <_>
          11 15 1 1 3.</_></rects>
      <tilted>0</tilted></_>
    <_>
      <rects>
        <_>
          10 17 1 2 -1.</_>
        <_>
          10 18 1 1 2.</_></rects>
      <tilted>0</tilted></_>
    <_>
      <rects>
        <_>
          11 7 1 2 -1.</_>
        <_>
          11 8 1 1 2.</_></rects>
      <tilted>0</tilted></_>
    <_>
      <rects>
        <_>
          11 7 2 10 -1.</_>
        <_>
          11 12 2 5 2.</_></rects>
      <tilted>0</tilted></_>
    <_>
      <rects>
        <_>
          11 8 2 1 -1.</_>
        <_>
          12 8 1 1 2.</_></rects>
      <tilted>0</tilted></_>
    <_>
      <rects>
        <_>
          11 8 1 8 -1.</_>
        <_>
          11 12 1 4 2.</_></rects>
      <tilted>0</tilted></_>
    <_>
      <rects>
        <_>
          11 8 1 10 -1.</_>
        <_>
          11 13 1 5 2.</_></rects>
      <tilted>0</tilted></_>
    <_>
      <rects>
        <_>
          11 8 4 3 -1.</_>
        <_>
          13 8 2 3 2.</_></rects>
      <tilted>0</tilted></_>
    <_>
      <rects>
        <_>
          11 8 4 6 -1.</_>
        <_>
          11 8 2 3 2.</_>
        <_>
          13 11 2 3 2.</_></rects>
      <tilted>0</tilted></_>
    <_>
      <rects>
        <_>
          11 9 2 1 -1.</_>
        <_>
          12 9 1 1 2.</_></rects>
      <tilted>0</tilted></_>
    <_>
      <rects>
        <_>
          11 13 3 4 -1.</_>
        <_>
          12 13 1 4 3.</_></rects>
      <tilted>0</tilted></_>
    <_>
      <rects>
        <_>
          11 15 3 1 -1.</_>
        <_>
          12 15 1 1 3.</_></rects>
      <tilted>0</tilted></_>
    <_>
      <rects>
        <_>
          11 15 3 2 -1.</_>
        <_>
          12 15 1 2 3.</_></rects>
      <tilted>0</tilted></_>
    <_>
      <rects>
        <_>
          11 16 1 2 -1.</_>
        <_>
          11 17 1 1 2.</_></rects>
      <tilted>0</tilted></_>
    <_>
      <rects>
        <_>
          11 17 4 1 -1.</_>
        <_>
          13 17 2 1 2.</_></rects>
      <tilted>0</tilted></_>
    <_>
      <rects>
        <_>
          12 9 2 4 -1.</_>
        <_>
          12 9 1 2 2.</_>
        <_>
          13 11 1 2 2.</_></rects>
      <tilted>0</tilted></_>
    <_>
      <rects>
        <_>
          12 13 3 2 -1.</_>
        <_>
          13 13 1 2 3.</_></rects>
      <tilted>0</tilted></_>
    <_>
      <rects>
        <_>
          12 14 1 2 -1.</_>
        <_>
          12 15 1 1 2.</_></rects>
      <tilted>0</tilted></_>
    <_>
      <rects>
        <_>
          12 14 8 6 -1.</_>
        <_>
          12 14 4 3 2.</_>
        <_>
          16 17 4 3 2.</_></rects>
      <tilted>0</tilted></_>
    <_>
      <rects>
        <_>
          12 15 2 1 -1.</_>
        <_>
          13 15 1 1 2.</_></rects>
      <tilted>0</tilted></_>
    <_>
      <rects>
        <_>
          12 15 1 2 -1.</_>
        <_>
          12 16 1 1 2.</_></rects>
      <tilted>0</tilted></_>
    <_>
      <rects>
        <_>
          12 15 2 2 -1.</_>
        <_>
          13 15 1 2 2.</_></rects>
      <tilted>0</tilted></_>
    <_>
      <rects>
        <_>
          12 15 2 2 -1.</_>
        <_>
          12 16 2 1 2.</_></rects>
      <tilted>0</tilted></_>
    <_>
      <rects>
        <_>
          12 15 6 1 -1.</_>
        <_>
          15 15 3 1 2.</_></rects>
      <tilted>0</tilted></_>
    <_>
      <rects>
        <_>
          13 13 1 4 -1.</_>
        <_>
          13 15 1 2 2.</_></rects>
      <tilted>0</tilted></_>
    <_>
      <rects>
        <_>
          13 14 4 1 -1.</_>
        <_>
          15 14 2 1 2.</_></rects>
      <tilted>0</tilted></_>
    <_>
      <rects>
        <_>
          13 15 4 3 -1.</_>
        <_>
          15 15 2 3 2.</_></rects>
      <tilted>0</tilted></_>
    <_>
      <rects>
        <_>
          14 14 2 1 -1.</_>
        <_>
          15 14 1 1 2.</_></rects>
      <tilted>0</tilted></_>
    <_>
      <rects>
        <_>
          15 13 2 1 -1.</_>
        <_>
          16 13 1 1 2.</_></rects>
      <tilted>0</tilted></_>
    <_>
      <rects>
        <_>
          16 2 4 12 -1.</_>
        <_>
          16 2 2 6 2.</_>
        <_>
          18 8 2 6 2.</_></rects>
      <tilted>0</tilted></_></features></cascade>
</opencv_storage>
