<?xml version="1.0"?>
<opencv_storage>
<cascade>
  <stageType>BOOST</stageType>
  <featureType>HAAR</featureType>
  <height>25</height>
  <width>25</width>
  <stageParams>
    <boostType>GAB</boostType>
    <minHitRate>9.9500000476837158e-01</minHitRate>
    <maxFalseAlarm>5.0000000000000000e-01</maxFalseAlarm>
    <weightTrimRate>9.4999999999999996e-01</weightTrimRate>
    <maxDepth>1</maxDepth>
    <maxWeakCount>100</maxWeakCount></stageParams>
  <featureParams>
    <maxCatCount>0</maxCatCount>
    <featSize>1</featSize>
    <mode>BASIC</mode></featureParams>
  <stageNum>21</stageNum>
  <stages>
    <!-- stage 0 -->
    <_>
      <maxWeakCount>14</maxWeakCount>
      <stageThreshold>-9.9454343318939209e-01</stageThreshold>
      <weakClassifiers>
        <_>
          <internalNodes>
            0 -1 82 1.6035936772823334e-02</internalNodes>
          <leafValues>
            -2.0966485142707825e-01 7.5761264562606812e-01</leafValues></_>
        <_>
          <internalNodes>
            0 -1 363 2.5748603045940399e-02</internalNodes>
          <leafValues>
            -2.5959390401840210e-01 5.6051689386367798e-01</leafValues></_>
        <_>
          <internalNodes>
            0 -1 727 5.3949458524584770e-03</internalNodes>
          <leafValues>
            -2.7489849925041199e-01 4.7783380746841431e-01</leafValues></_>
        <_>
          <internalNodes>
            0 -1 534 2.0051389932632446e-02</internalNodes>
          <leafValues>
            -1.3254487514495850e-01 7.6248592138290405e-01</leafValues></_>
        <_>
          <internalNodes>
            0 -1 163 -1.2040934525430202e-02</internalNodes>
          <leafValues>
            4.6639651060104370e-01 -2.9553157091140747e-01</leafValues></_>
        <_>
          <internalNodes>
            0 -1 361 7.0238835178315639e-03</internalNodes>
          <leafValues>
            -2.8704351186752319e-01 3.0075013637542725e-01</leafValues></_>
        <_>
          <internalNodes>
            0 -1 552 -1.9977225456386805e-03</internalNodes>
          <leafValues>
            4.2880535125732422e-01 -1.8551598489284515e-01</leafValues></_>
        <_>
          <internalNodes>
            0 -1 205 -1.3299444690346718e-02</internalNodes>
          <leafValues>
            6.2008559703826904e-01 -1.1353150010108948e-01</leafValues></_>
        <_>
          <internalNodes>
            0 -1 250 1.7344858497381210e-02</internalNodes>
          <leafValues>
            -1.3980486989021301e-01 5.7034862041473389e-01</leafValues></_>
        <_>
          <internalNodes>
            0 -1 507 -3.8903402164578438e-03</internalNodes>
          <leafValues>
            -8.0777025222778320e-01 1.0726057738065720e-01</leafValues></_>
        <_>
          <internalNodes>
            0 -1 293 -2.5233775377273560e-02</internalNodes>
          <leafValues>
            5.7238405942916870e-01 -1.2950065732002258e-01</leafValues></_>
        <_>
          <internalNodes>
            0 -1 258 1.4525095000863075e-02</internalNodes>
          <leafValues>
            9.6272483468055725e-02 -7.0210748910903931e-01</leafValues></_>
        <_>
          <internalNodes>
            0 -1 505 -1.2159987352788448e-02</internalNodes>
          <leafValues>
            4.6458470821380615e-01 -1.4788536727428436e-01</leafValues></_>
        <_>
          <internalNodes>
            0 -1 386 -1.4660499291494489e-03</internalNodes>
          <leafValues>
            3.8964542746543884e-01 -1.8276290595531464e-01</leafValues></_></weakClassifiers></_>
    <!-- stage 1 -->
    <_>
      <maxWeakCount>21</maxWeakCount>
      <stageThreshold>-9.6421122550964355e-01</stageThreshold>
      <weakClassifiers>
        <_>
          <internalNodes>
            0 -1 152 -1.9269626587629318e-02</internalNodes>
          <leafValues>
            7.3281949758529663e-01 -1.2134502828121185e-01</leafValues></_>
        <_>
          <internalNodes>
            0 -1 536 -7.7692763879895210e-03</internalNodes>
          <leafValues>
            5.0795692205429077e-01 -2.4673087894916534e-01</leafValues></_>
        <_>
          <internalNodes>
            0 -1 793 1.2063267640769482e-03</internalNodes>
          <leafValues>
            -3.4411764144897461e-01 3.2539993524551392e-01</leafValues></_>
        <_>
          <internalNodes>
            0 -1 261 2.2770585492253304e-03</internalNodes>
          <leafValues>
            -3.0876776576042175e-01 3.3776491880416870e-01</leafValues></_>
        <_>
          <internalNodes>
            0 -1 403 -4.2022271081805229e-03</internalNodes>
          <leafValues>
            4.8088529706001282e-01 -1.8575632572174072e-01</leafValues></_>
        <_>
          <internalNodes>
            0 -1 484 4.8714179545640945e-02</internalNodes>
          <leafValues>
            1.0664200037717819e-01 -7.5121217966079712e-01</leafValues></_>
        <_>
          <internalNodes>
            0 -1 621 -1.5585327055305243e-03</internalNodes>
          <leafValues>
            3.2050234079360962e-01 -2.5162240862846375e-01</leafValues></_>
        <_>
          <internalNodes>
            0 -1 573 1.0972443036735058e-02</internalNodes>
          <leafValues>
            -1.5163655579090118e-01 4.7058829665184021e-01</leafValues></_>
        <_>
          <internalNodes>
            0 -1 555 -4.6125482767820358e-03</internalNodes>
          <leafValues>
            4.8725715279579163e-01 -1.6321268677711487e-01</leafValues></_>
        <_>
          <internalNodes>
            0 -1 352 -3.0506225302815437e-03</internalNodes>
          <leafValues>
            2.8921687602996826e-01 -3.1359156966209412e-01</leafValues></_>
        <_>
          <internalNodes>
            0 -1 860 1.7061321996152401e-03</internalNodes>
          <leafValues>
            -2.1373246610164642e-01 3.4701117873191833e-01</leafValues></_>
        <_>
          <internalNodes>
            0 -1 817 -8.0103650689125061e-03</internalNodes>
          <leafValues>
            4.9683719873428345e-01 -1.5231202542781830e-01</leafValues></_>
        <_>
          <internalNodes>
            0 -1 83 -7.5851050205528736e-03</internalNodes>
          <leafValues>
            3.6011341214179993e-01 -1.8687684834003448e-01</leafValues></_>
        <_>
          <internalNodes>
            0 -1 114 6.2019210308790207e-03</internalNodes>
          <leafValues>
            -1.8424786627292633e-01 3.4689676761627197e-01</leafValues></_>
        <_>
          <internalNodes>
            0 -1 633 -5.2060494199395180e-03</internalNodes>
          <leafValues>
            -6.1808973550796509e-01 1.0720471292734146e-01</leafValues></_>
        <_>
          <internalNodes>
            0 -1 755 5.4292962886393070e-04</internalNodes>
          <leafValues>
            -1.8182177841663361e-01 3.2911041378974915e-01</leafValues></_>
        <_>
          <internalNodes>
            0 -1 382 -9.2286756262183189e-03</internalNodes>
          <leafValues>
            -8.6673629283905029e-01 7.3532953858375549e-02</leafValues></_>
        <_>
          <internalNodes>
            0 -1 97 -2.1507140249013901e-02</internalNodes>
          <leafValues>
            5.3131741285324097e-01 -1.2555156648159027e-01</leafValues></_>
        <_>
          <internalNodes>
            0 -1 178 5.3583912085741758e-04</internalNodes>
          <leafValues>
            -1.3440445065498352e-01 3.9558887481689453e-01</leafValues></_>
        <_>
          <internalNodes>
            0 -1 530 2.0820056088268757e-03</internalNodes>
          <leafValues>
            -1.1363922804594040e-01 4.3818423151969910e-01</leafValues></_>
        <_>
          <internalNodes>
            0 -1 332 -1.1348806321620941e-02</internalNodes>
          <leafValues>
            4.6533116698265076e-01 -1.1382419615983963e-01</leafValues></_></weakClassifiers></_>
    <!-- stage 2 -->
    <_>
      <maxWeakCount>26</maxWeakCount>
      <stageThreshold>-1.0353964567184448e+00</stageThreshold>
      <weakClassifiers>
        <_>
          <internalNodes>
            0 -1 195 1.3170037418603897e-02</internalNodes>
          <leafValues>
            -6.7599065601825714e-02 6.4835166931152344e-01</leafValues></_>
        <_>
          <internalNodes>
            0 -1 587 1.2523887678980827e-02</internalNodes>
          <leafValues>
            -1.3388819992542267e-01 6.6853868961334229e-01</leafValues></_>
        <_>
          <internalNodes>
            0 -1 608 1.4241521246731281e-02</internalNodes>
          <leafValues>
            -2.8618744015693665e-01 3.7406527996063232e-01</leafValues></_>
        <_>
          <internalNodes>
            0 -1 15 1.7548838630318642e-02</internalNodes>
          <leafValues>
            -1.8263016641139984e-01 5.4934233427047729e-01</leafValues></_>
        <_>
          <internalNodes>
            0 -1 494 3.0264548957347870e-02</internalNodes>
          <leafValues>
            -1.1541672050952911e-01 6.3262963294982910e-01</leafValues></_>
        <_>
          <internalNodes>
            0 -1 41 -1.9800278823822737e-03</internalNodes>
          <leafValues>
            2.4826364219188690e-01 -3.1213477253913879e-01</leafValues></_>
        <_>
          <internalNodes>
            0 -1 272 8.7578681996092200e-04</internalNodes>
          <leafValues>
            -2.5537711381912231e-01 2.7738559246063232e-01</leafValues></_>
        <_>
          <internalNodes>
            0 -1 125 2.0474035292863846e-02</internalNodes>
          <leafValues>
            -1.6489438712596893e-01 3.8666027784347534e-01</leafValues></_>
        <_>
          <internalNodes>
            0 -1 548 -5.4420176893472672e-02</internalNodes>
          <leafValues>
            -7.9414510726928711e-01 7.7938862144947052e-02</leafValues></_>
        <_>
          <internalNodes>
            0 -1 628 5.8258743956685066e-03</internalNodes>
          <leafValues>
            5.4864086210727692e-02 -7.4630677700042725e-01</leafValues></_>
        <_>
          <internalNodes>
            0 -1 477 2.4882435798645020e-02</internalNodes>
          <leafValues>
            9.5452345907688141e-02 -5.0472640991210938e-01</leafValues></_>
        <_>
          <internalNodes>
            0 -1 218 3.6719711497426033e-03</internalNodes>
          <leafValues>
            -1.8586024641990662e-01 3.2041531801223755e-01</leafValues></_>
        <_>
          <internalNodes>
            0 -1 800 2.2278330288827419e-03</internalNodes>
          <leafValues>
            -1.5738217532634735e-01 3.4602501988410950e-01</leafValues></_>
        <_>
          <internalNodes>
            0 -1 853 1.2859547277912498e-03</internalNodes>
          <leafValues>
            -2.2347716987133026e-01 2.4008999764919281e-01</leafValues></_>
        <_>
          <internalNodes>
            0 -1 411 8.1483367830514908e-03</internalNodes>
          <leafValues>
            -1.0492771863937378e-01 4.6940049529075623e-01</leafValues></_>
        <_>
          <internalNodes>
            0 -1 653 3.6741700023412704e-04</internalNodes>
          <leafValues>
            -2.2194907069206238e-01 2.2009906172752380e-01</leafValues></_>
        <_>
          <internalNodes>
            0 -1 463 -1.7539154738187790e-02</internalNodes>
          <leafValues>
            5.3570711612701416e-01 -9.7886666655540466e-02</leafValues></_>
        <_>
          <internalNodes>
            0 -1 475 -3.1611174345016479e-03</internalNodes>
          <leafValues>
            3.0494415760040283e-01 -1.6288694739341736e-01</leafValues></_>
        <_>
          <internalNodes>
            0 -1 737 -1.7106391489505768e-02</internalNodes>
          <leafValues>
            2.9871124029159546e-01 -1.6550987958908081e-01</leafValues></_>
        <_>
          <internalNodes>
            0 -1 381 6.6851722076535225e-03</internalNodes>
          <leafValues>
            5.4692305624485016e-02 -8.3739024400711060e-01</leafValues></_>
        <_>
          <internalNodes>
            0 -1 92 1.5314534539356828e-03</internalNodes>
          <leafValues>
            -1.3302147388458252e-01 3.5184744000434875e-01</leafValues></_>
        <_>
          <internalNodes>
            0 -1 855 1.9764946773648262e-03</internalNodes>
          <leafValues>
            -1.8128515779972076e-01 2.4431873857975006e-01</leafValues></_>
        <_>
          <internalNodes>
            0 -1 353 -2.8136312030255795e-03</internalNodes>
          <leafValues>
            3.6147275567054749e-01 -1.3282096385955811e-01</leafValues></_>
        <_>
          <internalNodes>
            0 -1 733 -2.6545904111117125e-03</internalNodes>
          <leafValues>
            -7.4973189830780029e-01 6.5298199653625488e-02</leafValues></_>
        <_>
          <internalNodes>
            0 -1 280 -1.4206598512828350e-02</internalNodes>
          <leafValues>
            5.8308947086334229e-01 -8.6476802825927734e-02</leafValues></_>
        <_>
          <internalNodes>
            0 -1 612 9.1154756955802441e-04</internalNodes>
          <leafValues>
            -1.7053705453872681e-01 2.5724539160728455e-01</leafValues></_></weakClassifiers></_>
    <!-- stage 3 -->
    <_>
      <maxWeakCount>34</maxWeakCount>
      <stageThreshold>-1.0052976608276367e+00</stageThreshold>
      <weakClassifiers>
        <_>
          <internalNodes>
            0 -1 199 -1.6336992383003235e-02</internalNodes>
          <leafValues>
            5.9009009599685669e-01 -6.3533507287502289e-02</leafValues></_>
        <_>
          <internalNodes>
            0 -1 647 -1.6739040613174438e-02</internalNodes>
          <leafValues>
            4.5551735162734985e-01 -1.9155298173427582e-01</leafValues></_>
        <_>
          <internalNodes>
            0 -1 534 1.7787573859095573e-02</internalNodes>
          <leafValues>
            -1.5059152245521545e-01 5.3042113780975342e-01</leafValues></_>
        <_>
          <internalNodes>
            0 -1 62 2.2156143561005592e-02</internalNodes>
          <leafValues>
            -1.5212312340736389e-01 5.4858452081680298e-01</leafValues></_>
        <_>
          <internalNodes>
            0 -1 726 6.0222931206226349e-03</internalNodes>
          <leafValues>
            -1.8175339698791504e-01 3.2204020023345947e-01</leafValues></_>
        <_>
          <internalNodes>
            0 -1 652 1.4481445774435997e-02</internalNodes>
          <leafValues>
            -1.5600273013114929e-01 4.0621000528335571e-01</leafValues></_>
        <_>
          <internalNodes>
            0 -1 343 1.4554334804415703e-02</internalNodes>
          <leafValues>
            -9.3605920672416687e-02 4.9053657054901123e-01</leafValues></_>
        <_>
          <internalNodes>
            0 -1 25 1.2748074717819691e-02</internalNodes>
          <leafValues>
            -1.5400959551334381e-01 3.0365961790084839e-01</leafValues></_>
        <_>
          <internalNodes>
            0 -1 672 2.7490563225001097e-03</internalNodes>
          <leafValues>
            8.0886095762252808e-02 -6.1719787120819092e-01</leafValues></_>
        <_>
          <internalNodes>
            0 -1 347 4.0077708661556244e-02</internalNodes>
          <leafValues>
            7.6205745339393616e-02 -5.6850159168243408e-01</leafValues></_>
        <_>
          <internalNodes>
            0 -1 654 7.6984502375125885e-03</internalNodes>
          <leafValues>
            7.7623270452022552e-02 -6.0552769899368286e-01</leafValues></_>
        <_>
          <internalNodes>
            0 -1 434 -7.9529639333486557e-04</internalNodes>
          <leafValues>
            2.6049318909645081e-01 -1.9151441752910614e-01</leafValues></_>
        <_>
          <internalNodes>
            0 -1 637 3.8519368972629309e-03</internalNodes>
          <leafValues>
            -2.0697703957557678e-01 2.6157748699188232e-01</leafValues></_>
        <_>
          <internalNodes>
            0 -1 887 -4.6161273494362831e-03</internalNodes>
          <leafValues>
            3.7955534458160400e-01 -1.6750892996788025e-01</leafValues></_>
        <_>
          <internalNodes>
            0 -1 340 -7.6127857901155949e-03</internalNodes>
          <leafValues>
            3.3412319421768188e-01 -1.2300781160593033e-01</leafValues></_>
        <_>
          <internalNodes>
            0 -1 508 4.6201692894101143e-03</internalNodes>
          <leafValues>
            7.3966979980468750e-02 -6.3660025596618652e-01</leafValues></_>
        <_>
          <internalNodes>
            0 -1 169 -8.2533270120620728e-02</internalNodes>
          <leafValues>
            -6.1309731006622314e-01 5.9726022183895111e-02</leafValues></_>
        <_>
          <internalNodes>
            0 -1 622 -3.4974459558725357e-03</internalNodes>
          <leafValues>
            2.8074356913566589e-01 -1.5976113080978394e-01</leafValues></_>
        <_>
          <internalNodes>
            0 -1 802 4.3423351598903537e-04</internalNodes>
          <leafValues>
            -1.9034077227115631e-01 2.0873671770095825e-01</leafValues></_>
        <_>
          <internalNodes>
            0 -1 460 -2.8627393767237663e-03</internalNodes>
          <leafValues>
            3.5613384842872620e-01 -1.1491771042346954e-01</leafValues></_>
        <_>
          <internalNodes>
            0 -1 598 8.0962674692273140e-03</internalNodes>
          <leafValues>
            6.2578171491622925e-02 -6.9574654102325439e-01</leafValues></_>
        <_>
          <internalNodes>
            0 -1 324 1.8801225349307060e-02</internalNodes>
          <leafValues>
            4.8396792262792587e-02 -7.1309989690780640e-01</leafValues></_>
        <_>
          <internalNodes>
            0 -1 105 1.0434247087687254e-03</internalNodes>
          <leafValues>
            -1.6977170109748840e-01 2.4151395261287689e-01</leafValues></_>
        <_>
          <internalNodes>
            0 -1 896 -2.0217547193169594e-02</internalNodes>
          <leafValues>
            3.5694712400436401e-01 -1.1304283887147903e-01</leafValues></_>
        <_>
          <internalNodes>
            0 -1 330 2.0154014229774475e-02</internalNodes>
          <leafValues>
            6.3200928270816803e-02 -6.1261737346649170e-01</leafValues></_>
        <_>
          <internalNodes>
            0 -1 691 -1.0744381695985794e-02</internalNodes>
          <leafValues>
            -8.2762748003005981e-01 4.0908738970756531e-02</leafValues></_>
        <_>
          <internalNodes>
            0 -1 718 5.6822272017598152e-03</internalNodes>
          <leafValues>
            -1.0885269194841385e-01 3.9974913001060486e-01</leafValues></_>
        <_>
          <internalNodes>
            0 -1 194 -6.4167743548750877e-03</internalNodes>
          <leafValues>
            2.3514768481254578e-01 -1.7384448647499084e-01</leafValues></_>
        <_>
          <internalNodes>
            0 -1 385 3.4737749956548214e-03</internalNodes>
          <leafValues>
            -1.2245565652847290e-01 3.2373061776161194e-01</leafValues></_>
        <_>
          <internalNodes>
            0 -1 456 -2.5661159306764603e-03</internalNodes>
          <leafValues>
            3.1545636057853699e-01 -1.3443545997142792e-01</leafValues></_>
        <_>
          <internalNodes>
            0 -1 719 7.7997422777116299e-03</internalNodes>
          <leafValues>
            6.7661494016647339e-02 -6.7894858121871948e-01</leafValues></_>
        <_>
          <internalNodes>
            0 -1 785 -9.6712110098451376e-04</internalNodes>
          <leafValues>
            2.5726938247680664e-01 -1.5790113806724548e-01</leafValues></_>
        <_>
          <internalNodes>
            0 -1 675 -1.0997015051543713e-03</internalNodes>
          <leafValues>
            2.7912545204162598e-01 -1.3813662528991699e-01</leafValues></_>
        <_>
          <internalNodes>
            0 -1 116 1.7878860235214233e-02</internalNodes>
          <leafValues>
            -7.7333502471446991e-02 4.6725013852119446e-01</leafValues></_></weakClassifiers></_>
    <!-- stage 4 -->
    <_>
      <maxWeakCount>41</maxWeakCount>
      <stageThreshold>-8.8102144002914429e-01</stageThreshold>
      <weakClassifiers>
        <_>
          <internalNodes>
            0 -1 201 2.7722708880901337e-02</internalNodes>
          <leafValues>
            -3.3856317400932312e-02 5.9276545047760010e-01</leafValues></_>
        <_>
          <internalNodes>
            0 -1 424 2.2647850215435028e-02</internalNodes>
          <leafValues>
            -1.4743605256080627e-01 4.2033767700195312e-01</leafValues></_>
        <_>
          <internalNodes>
            0 -1 495 2.7250092476606369e-02</internalNodes>
          <leafValues>
            -1.3755518198013306e-01 5.5186122655868530e-01</leafValues></_>
        <_>
          <internalNodes>
            0 -1 607 -5.2280565723776817e-03</internalNodes>
          <leafValues>
            2.7398285269737244e-01 -2.2656543552875519e-01</leafValues></_>
        <_>
          <internalNodes>
            0 -1 4 1.5394201502203941e-02</internalNodes>
          <leafValues>
            -1.2546652555465698e-01 3.8919252157211304e-01</leafValues></_>
        <_>
          <internalNodes>
            0 -1 271 2.1821640431880951e-02</internalNodes>
          <leafValues>
            -2.3786054551601410e-01 2.1917010843753815e-01</leafValues></_>
        <_>
          <internalNodes>
            0 -1 33 -7.9288743436336517e-03</internalNodes>
          <leafValues>
            2.3923859000205994e-01 -1.9463935494422913e-01</leafValues></_>
        <_>
          <internalNodes>
            0 -1 303 -5.7653494179248810e-02</internalNodes>
          <leafValues>
            -4.9373009800910950e-01 7.9031392931938171e-02</leafValues></_>
        <_>
          <internalNodes>
            0 -1 861 5.2677886560559273e-03</internalNodes>
          <leafValues>
            5.0083160400390625e-02 -7.7615875005722046e-01</leafValues></_>
        <_>
          <internalNodes>
            0 -1 181 -1.5912719536572695e-03</internalNodes>
          <leafValues>
            1.8406817317008972e-01 -2.3740305006504059e-01</leafValues></_>
        <_>
          <internalNodes>
            0 -1 618 3.8230801001191139e-03</internalNodes>
          <leafValues>
            -1.1336302012205124e-01 3.2289007306098938e-01</leafValues></_>
        <_>
          <internalNodes>
            0 -1 543 -2.5424922350794077e-03</internalNodes>
          <leafValues>
            -5.3863060474395752e-01 7.6641224324703217e-02</leafValues></_>
        <_>
          <internalNodes>
            0 -1 544 6.5929023548960686e-03</internalNodes>
          <leafValues>
            5.6979078799486160e-02 -6.7419964075088501e-01</leafValues></_>
        <_>
          <internalNodes>
            0 -1 578 1.1103342287242413e-02</internalNodes>
          <leafValues>
            -8.9378900825977325e-02 5.2316623926162720e-01</leafValues></_>
        <_>
          <internalNodes>
            0 -1 118 5.1224157214164734e-03</internalNodes>
          <leafValues>
            -1.5245613455772400e-01 2.4461184442043304e-01</leafValues></_>
        <_>
          <internalNodes>
            0 -1 232 -1.9613642245531082e-02</internalNodes>
          <leafValues>
            5.3393185138702393e-01 -7.4551932513713837e-02</leafValues></_>
        <_>
          <internalNodes>
            0 -1 614 4.4840825721621513e-03</internalNodes>
          <leafValues>
            -1.0112548619508743e-01 3.8465785980224609e-01</leafValues></_>
        <_>
          <internalNodes>
            0 -1 516 -5.3346613422036171e-03</internalNodes>
          <leafValues>
            2.9098016023635864e-01 -1.2416252493858337e-01</leafValues></_>
        <_>
          <internalNodes>
            0 -1 157 -1.0195678472518921e-01</internalNodes>
          <leafValues>
            -5.7843941450119019e-01 7.3994122445583344e-02</leafValues></_>
        <_>
          <internalNodes>
            0 -1 897 -1.4476168435066938e-03</internalNodes>
          <leafValues>
            2.4291576445102692e-01 -1.6064679622650146e-01</leafValues></_>
        <_>
          <internalNodes>
            0 -1 678 -1.0015309089794755e-03</internalNodes>
          <leafValues>
            2.6666045188903809e-01 -1.4203308522701263e-01</leafValues></_>
        <_>
          <internalNodes>
            0 -1 634 -9.5569738186895847e-04</internalNodes>
          <leafValues>
            2.5624364614486694e-01 -1.5369430184364319e-01</leafValues></_>
        <_>
          <internalNodes>
            0 -1 600 -7.4970531277358532e-03</internalNodes>
          <leafValues>
            -5.7896310091018677e-01 7.1786858141422272e-02</leafValues></_>
        <_>
          <internalNodes>
            0 -1 283 -1.7023485852405429e-03</internalNodes>
          <leafValues>
            2.5379228591918945e-01 -1.3809424638748169e-01</leafValues></_>
        <_>
          <internalNodes>
            0 -1 420 8.0907270312309265e-02</internalNodes>
          <leafValues>
            4.6550974249839783e-02 -7.7407962083816528e-01</leafValues></_>
        <_>
          <internalNodes>
            0 -1 625 1.7344942316412926e-02</internalNodes>
          <leafValues>
            4.0473829954862595e-02 -7.1605718135833740e-01</leafValues></_>
        <_>
          <internalNodes>
            0 -1 404 1.8166468944400549e-03</internalNodes>
          <leafValues>
            -1.3620012998580933e-01 2.5394320487976074e-01</leafValues></_>
        <_>
          <internalNodes>
            0 -1 174 1.0269014164805412e-02</internalNodes>
          <leafValues>
            3.9177861064672470e-02 -8.8734465837478638e-01</leafValues></_>
        <_>
          <internalNodes>
            0 -1 315 -1.3591097667813301e-03</internalNodes>
          <leafValues>
            2.5775599479675293e-01 -1.3622410595417023e-01</leafValues></_>
        <_>
          <internalNodes>
            0 -1 70 -7.5259663164615631e-02</internalNodes>
          <leafValues>
            -7.6780593395233154e-01 4.9208004027605057e-02</leafValues></_>
        <_>
          <internalNodes>
            0 -1 40 -9.3433372676372528e-03</internalNodes>
          <leafValues>
            2.2245797514915466e-01 -1.6958624124526978e-01</leafValues></_>
        <_>
          <internalNodes>
            0 -1 9 3.4381821751594543e-02</internalNodes>
          <leafValues>
            -1.1025929450988770e-01 3.6745691299438477e-01</leafValues></_>
        <_>
          <internalNodes>
            0 -1 632 4.4210990890860558e-03</internalNodes>
          <leafValues>
            5.7325240224599838e-02 -6.4943259954452515e-01</leafValues></_>
        <_>
          <internalNodes>
            0 -1 603 1.9064871594309807e-02</internalNodes>
          <leafValues>
            -1.1218553036451340e-01 3.2777324318885803e-01</leafValues></_>
        <_>
          <internalNodes>
            0 -1 714 -6.5214181086048484e-04</internalNodes>
          <leafValues>
            3.4447824954986572e-01 -1.0876099020242691e-01</leafValues></_>
        <_>
          <internalNodes>
            0 -1 715 8.3975365851074457e-04</internalNodes>
          <leafValues>
            -1.1792396008968353e-01 2.9137527942657471e-01</leafValues></_>
        <_>
          <internalNodes>
            0 -1 682 -7.7960686758160591e-03</internalNodes>
          <leafValues>
            3.5188627243041992e-01 -1.0090118646621704e-01</leafValues></_>
        <_>
          <internalNodes>
            0 -1 136 -9.1311428695917130e-03</internalNodes>
          <leafValues>
            2.5675392150878906e-01 -1.3129661977291107e-01</leafValues></_>
        <_>
          <internalNodes>
            0 -1 132 2.9242884367704391e-02</internalNodes>
          <leafValues>
            -4.5063894242048264e-02 7.0792263746261597e-01</leafValues></_>
        <_>
          <internalNodes>
            0 -1 43 -3.2248470932245255e-02</internalNodes>
          <leafValues>
            2.4201174080371857e-01 -1.3986878097057343e-01</leafValues></_>
        <_>
          <internalNodes>
            0 -1 568 2.1379431709647179e-03</internalNodes>
          <leafValues>
            7.4253715574741364e-02 -4.7918057441711426e-01</leafValues></_></weakClassifiers></_>
    <!-- stage 5 -->
    <_>
      <maxWeakCount>42</maxWeakCount>
      <stageThreshold>-8.3350086212158203e-01</stageThreshold>
      <weakClassifiers>
        <_>
          <internalNodes>
            0 -1 529 2.3065011948347092e-02</internalNodes>
          <leafValues>
            4.2682927101850510e-02 5.6974583864212036e-01</leafValues></_>
        <_>
          <internalNodes>
            0 -1 16 2.3085545748472214e-02</internalNodes>
          <leafValues>
            -1.0807789862155914e-01 5.2952110767364502e-01</leafValues></_>
        <_>
          <internalNodes>
            0 -1 823 6.4388345927000046e-03</internalNodes>
          <leafValues>
            -2.1777309477329254e-01 3.1280130147933960e-01</leafValues></_>
        <_>
          <internalNodes>
            0 -1 538 4.6550542116165161e-02</internalNodes>
          <leafValues>
            -1.3084504008293152e-01 4.8324549198150635e-01</leafValues></_>
        <_>
          <internalNodes>
            0 -1 366 -6.5800234675407410e-02</internalNodes>
          <leafValues>
            -4.8554635047912598e-01 1.1239003390073776e-01</leafValues></_>
        <_>
          <internalNodes>
            0 -1 594 5.5421038996428251e-04</internalNodes>
          <leafValues>
            -2.3955982923507690e-01 2.0929658412933350e-01</leafValues></_>
        <_>
          <internalNodes>
            0 -1 605 2.0569346845149994e-02</internalNodes>
          <leafValues>
            1.1101426929235458e-01 -3.5165238380432129e-01</leafValues></_>
        <_>
          <internalNodes>
            0 -1 629 5.2962638437747955e-03</internalNodes>
          <leafValues>
            -1.9148823618888855e-01 2.3168517649173737e-01</leafValues></_>
        <_>
          <internalNodes>
            0 -1 827 -3.1546540558338165e-02</internalNodes>
          <leafValues>
            4.2155101895332336e-01 -8.6149640381336212e-02</leafValues></_>
        <_>
          <internalNodes>
            0 -1 863 -8.3150551654398441e-04</internalNodes>
          <leafValues>
            2.5912785530090332e-01 -1.5170291066169739e-01</leafValues></_>
        <_>
          <internalNodes>
            0 -1 212 6.4705298282206059e-03</internalNodes>
          <leafValues>
            -1.4272995293140411e-01 2.6660898327827454e-01</leafValues></_>
        <_>
          <internalNodes>
            0 -1 91 4.6631358563899994e-02</internalNodes>
          <leafValues>
            -9.4754837453365326e-02 4.5549878478050232e-01</leafValues></_>
        <_>
          <internalNodes>
            0 -1 664 6.1359209939837456e-04</internalNodes>
          <leafValues>
            -1.3427922129631042e-01 2.4243707954883575e-01</leafValues></_>
        <_>
          <internalNodes>
            0 -1 205 -1.7074920237064362e-02</internalNodes>
          <leafValues>
            3.5915952920913696e-01 -1.1406764388084412e-01</leafValues></_>
        <_>
          <internalNodes>
            0 -1 435 1.0713428258895874e-02</internalNodes>
          <leafValues>
            7.3395848274230957e-02 -4.4842278957366943e-01</leafValues></_>
        <_>
          <internalNodes>
            0 -1 833 5.4985624738037586e-03</internalNodes>
          <leafValues>
            4.9562074244022369e-02 -6.4552825689315796e-01</leafValues></_>
        <_>
          <internalNodes>
            0 -1 294 -8.0738943070173264e-03</internalNodes>
          <leafValues>
            4.3472012877464294e-01 -7.8314229846000671e-02</leafValues></_>
        <_>
          <internalNodes>
            0 -1 517 -8.4908241406083107e-03</internalNodes>
          <leafValues>
            4.3382045626640320e-01 -8.6674749851226807e-02</leafValues></_>
        <_>
          <internalNodes>
            0 -1 589 6.6747758537530899e-03</internalNodes>
          <leafValues>
            7.2169192135334015e-02 -5.5427199602127075e-01</leafValues></_>
        <_>
          <internalNodes>
            0 -1 513 1.2718511745333672e-02</internalNodes>
          <leafValues>
            -1.0797323286533356e-01 3.0605402588844299e-01</leafValues></_>
        <_>
          <internalNodes>
            0 -1 206 -6.4079269766807556e-02</internalNodes>
          <leafValues>
            -5.7415586709976196e-01 6.2851324677467346e-02</leafValues></_>
        <_>
          <internalNodes>
            0 -1 745 -1.8670873250812292e-03</internalNodes>
          <leafValues>
            1.9479629397392273e-01 -1.7239519953727722e-01</leafValues></_>
        <_>
          <internalNodes>
            0 -1 290 3.7839617580175400e-02</internalNodes>
          <leafValues>
            -5.9475671499967575e-02 5.2945011854171753e-01</leafValues></_>
        <_>
          <internalNodes>
            0 -1 865 -1.8038719892501831e-02</internalNodes>
          <leafValues>
            2.9563274979591370e-01 -1.0363582521677017e-01</leafValues></_>
        <_>
          <internalNodes>
            0 -1 499 -3.9562704041600227e-03</internalNodes>
          <leafValues>
            4.1941320896148682e-01 -7.9283729195594788e-02</leafValues></_>
        <_>
          <internalNodes>
            0 -1 452 3.2191248610615730e-03</internalNodes>
          <leafValues>
            4.4315859675407410e-02 -7.6371127367019653e-01</leafValues></_>
        <_>
          <internalNodes>
            0 -1 762 -4.7028603148646653e-04</internalNodes>
          <leafValues>
            2.5883364677429199e-01 -1.1948633939027786e-01</leafValues></_>
        <_>
          <internalNodes>
            0 -1 581 -1.4334557577967644e-02</internalNodes>
          <leafValues>
            -8.6349934339523315e-01 4.2247008532285690e-02</leafValues></_>
        <_>
          <internalNodes>
            0 -1 515 3.4617692232131958e-02</internalNodes>
          <leafValues>
            3.3071260899305344e-02 -6.9039893150329590e-01</leafValues></_>
        <_>
          <internalNodes>
            0 -1 514 4.9221981316804886e-03</internalNodes>
          <leafValues>
            -1.6697493195533752e-01 2.0457233488559723e-01</leafValues></_>
        <_>
          <internalNodes>
            0 -1 90 -7.8793969005346298e-03</internalNodes>
          <leafValues>
            2.1977378427982330e-01 -1.5551295876502991e-01</leafValues></_>
        <_>
          <internalNodes>
            0 -1 771 8.4055797196924686e-04</internalNodes>
          <leafValues>
            -1.9584037363529205e-01 1.9183656573295593e-01</leafValues></_>
        <_>
          <internalNodes>
            0 -1 836 6.4927907660603523e-03</internalNodes>
          <leafValues>
            5.1134742796421051e-02 -6.5305697917938232e-01</leafValues></_>
        <_>
          <internalNodes>
            0 -1 168 -6.3274830579757690e-02</internalNodes>
          <leafValues>
            -5.6476724147796631e-01 5.3514339029788971e-02</leafValues></_>
        <_>
          <internalNodes>
            0 -1 602 1.1435259133577347e-02</internalNodes>
          <leafValues>
            -9.7527220845222473e-02 3.5314267873764038e-01</leafValues></_>
        <_>
          <internalNodes>
            0 -1 116 1.5193998813629150e-02</internalNodes>
          <leafValues>
            -9.0643212199211121e-02 3.6688801646232605e-01</leafValues></_>
        <_>
          <internalNodes>
            0 -1 277 -5.8732402976602316e-04</internalNodes>
          <leafValues>
            2.0026919245719910e-01 -2.0343488454818726e-01</leafValues></_>
        <_>
          <internalNodes>
            0 -1 488 3.7750808987766504e-03</internalNodes>
          <leafValues>
            7.5947009027004242e-02 -4.4489434361457825e-01</leafValues></_>
        <_>
          <internalNodes>
            0 -1 209 1.0277625173330307e-01</internalNodes>
          <leafValues>
            4.4575668871402740e-02 -6.4705461263656616e-01</leafValues></_>
        <_>
          <internalNodes>
            0 -1 56 -9.1736121103167534e-03</internalNodes>
          <leafValues>
            1.8775674700737000e-01 -1.6643363237380981e-01</leafValues></_>
        <_>
          <internalNodes>
            0 -1 527 1.1257957667112350e-02</internalNodes>
          <leafValues>
            4.4462613761425018e-02 -7.2717273235321045e-01</leafValues></_>
        <_>
          <internalNodes>
            0 -1 847 2.7698932681232691e-03</internalNodes>
          <leafValues>
            -8.1447556614875793e-02 4.1014611721038818e-01</leafValues></_></weakClassifiers></_>
    <!-- stage 6 -->
    <_>
      <maxWeakCount>47</maxWeakCount>
      <stageThreshold>-8.0135762691497803e-01</stageThreshold>
      <weakClassifiers>
        <_>
          <internalNodes>
            0 -1 204 2.2372866049408913e-02</internalNodes>
          <leafValues>
            1.6902095079421997e-01 7.2018349170684814e-01</leafValues></_>
        <_>
          <internalNodes>
            0 -1 425 4.9757383763790131e-02</internalNodes>
          <leafValues>
            -1.0632028430700302e-01 4.6471840143203735e-01</leafValues></_>
        <_>
          <internalNodes>
            0 -1 119 -2.4067424237728119e-02</internalNodes>
          <leafValues>
            4.3898963928222656e-01 -1.3844007253646851e-01</leafValues></_>
        <_>
          <internalNodes>
            0 -1 438 -1.2972928583621979e-02</internalNodes>
          <leafValues>
            3.1017839908599854e-01 -2.0717719197273254e-01</leafValues></_>
        <_>
          <internalNodes>
            0 -1 611 8.9088262757286429e-04</internalNodes>
          <leafValues>
            -1.8200337886810303e-01 2.9188209772109985e-01</leafValues></_>
        <_>
          <internalNodes>
            0 -1 820 6.4810570329427719e-03</internalNodes>
          <leafValues>
            -1.8461538851261139e-01 2.5750768184661865e-01</leafValues></_>
        <_>
          <internalNodes>
            0 -1 23 6.9020912051200867e-02</internalNodes>
          <leafValues>
            -8.6067289113998413e-02 4.8806956410408020e-01</leafValues></_>
        <_>
          <internalNodes>
            0 -1 38 1.1882442235946655e-01</internalNodes>
          <leafValues>
            8.4610730409622192e-02 -4.9089553952217102e-01</leafValues></_>
        <_>
          <internalNodes>
            0 -1 29 4.5539975166320801e-02</internalNodes>
          <leafValues>
            -8.1571973860263824e-02 4.6400031447410583e-01</leafValues></_>
        <_>
          <internalNodes>
            0 -1 158 2.2727504256181419e-04</internalNodes>
          <leafValues>
            -1.4667254686355591e-01 2.2944629192352295e-01</leafValues></_>
        <_>
          <internalNodes>
            0 -1 674 -5.3146593272686005e-03</internalNodes>
          <leafValues>
            -5.5001360177993774e-01 6.2397629022598267e-02</leafValues></_>
        <_>
          <internalNodes>
            0 -1 646 -1.2406488880515099e-02</internalNodes>
          <leafValues>
            -5.4956269264221191e-01 6.0781769454479218e-02</leafValues></_>
        <_>
          <internalNodes>
            0 -1 295 -6.0599334537982941e-03</internalNodes>
          <leafValues>
            2.9305398464202881e-01 -1.2137058377265930e-01</leafValues></_>
        <_>
          <internalNodes>
            0 -1 650 -1.3837993144989014e-02</internalNodes>
          <leafValues>
            -4.9458682537078857e-01 6.9301813840866089e-02</leafValues></_>
        <_>
          <internalNodes>
            0 -1 173 2.5165272876620293e-02</internalNodes>
          <leafValues>
            -1.0947507619857788e-01 3.2026880979537964e-01</leafValues></_>
        <_>
          <internalNodes>
            0 -1 852 -1.1447278084233403e-03</internalNodes>
          <leafValues>
            2.0662711560726166e-01 -1.7013767361640930e-01</leafValues></_>
        <_>
          <internalNodes>
            0 -1 893 -9.0606380254030228e-03</internalNodes>
          <leafValues>
            2.1259388327598572e-01 -1.6196352243423462e-01</leafValues></_>
        <_>
          <internalNodes>
            0 -1 720 2.1341126412153244e-02</internalNodes>
          <leafValues>
            5.9042461216449738e-02 -5.2329361438751221e-01</leafValues></_>
        <_>
          <internalNodes>
            0 -1 845 5.5037508718669415e-04</internalNodes>
          <leafValues>
            -1.3985931873321533e-01 2.3449552059173584e-01</leafValues></_>
        <_>
          <internalNodes>
            0 -1 378 -8.3561614155769348e-03</internalNodes>
          <leafValues>
            -4.1851031780242920e-01 9.2064864933490753e-02</leafValues></_>
        <_>
          <internalNodes>
            0 -1 408 -6.6449157893657684e-03</internalNodes>
          <leafValues>
            2.9943305253982544e-01 -1.2168881297111511e-01</leafValues></_>
        <_>
          <internalNodes>
            0 -1 592 1.5627667307853699e-02</internalNodes>
          <leafValues>
            6.0159556567668915e-02 -6.1886817216873169e-01</leafValues></_>
        <_>
          <internalNodes>
            0 -1 844 -2.1492954692803323e-04</internalNodes>
          <leafValues>
            2.0698127150535583e-01 -1.6724091768264771e-01</leafValues></_>
        <_>
          <internalNodes>
            0 -1 323 -5.5759530514478683e-03</internalNodes>
          <leafValues>
            -5.2151781320571899e-01 7.3113404214382172e-02</leafValues></_>
        <_>
          <internalNodes>
            0 -1 509 8.4522822871804237e-03</internalNodes>
          <leafValues>
            4.0348518639802933e-02 -6.6045850515365601e-01</leafValues></_>
        <_>
          <internalNodes>
            0 -1 225 5.0036073662340641e-04</internalNodes>
          <leafValues>
            -1.7117512226104736e-01 1.7935192584991455e-01</leafValues></_>
        <_>
          <internalNodes>
            0 -1 371 -1.7264955677092075e-03</internalNodes>
          <leafValues>
            2.0959198474884033e-01 -1.5885792672634125e-01</leafValues></_>
        <_>
          <internalNodes>
            0 -1 574 -2.4902915582060814e-02</internalNodes>
          <leafValues>
            3.7043124437332153e-01 -9.3441545963287354e-02</leafValues></_>
        <_>
          <internalNodes>
            0 -1 250 1.4427775517106056e-02</internalNodes>
          <leafValues>
            -9.7507461905479431e-02 3.2347294688224792e-01</leafValues></_>
        <_>
          <internalNodes>
            0 -1 355 3.9358362555503845e-03</internalNodes>
          <leafValues>
            -1.7066511511802673e-01 1.8517038226127625e-01</leafValues></_>
        <_>
          <internalNodes>
            0 -1 236 -5.8358898386359215e-03</internalNodes>
          <leafValues>
            2.6046606898307800e-01 -1.2114430963993073e-01</leafValues></_>
        <_>
          <internalNodes>
            0 -1 453 4.4681318104267120e-03</internalNodes>
          <leafValues>
            6.0051586478948593e-02 -6.2296593189239502e-01</leafValues></_>
        <_>
          <internalNodes>
            0 -1 829 -6.0505501460283995e-04</internalNodes>
          <leafValues>
            2.3168866336345673e-01 -1.4372517168521881e-01</leafValues></_>
        <_>
          <internalNodes>
            0 -1 319 5.0004541873931885e-02</internalNodes>
          <leafValues>
            6.2800794839859009e-02 -5.0770783424377441e-01</leafValues></_>
        <_>
          <internalNodes>
            0 -1 323 6.5198834054172039e-03</internalNodes>
          <leafValues>
            4.6611022204160690e-02 -5.7999509572982788e-01</leafValues></_>
        <_>
          <internalNodes>
            0 -1 799 1.1924458667635918e-03</internalNodes>
          <leafValues>
            -1.6577637195587158e-01 1.7650234699249268e-01</leafValues></_>
        <_>
          <internalNodes>
            0 -1 791 8.5043329745531082e-03</internalNodes>
          <leafValues>
            4.1240680962800980e-02 -6.9426423311233521e-01</leafValues></_>
        <_>
          <internalNodes>
            0 -1 868 6.3927459996193647e-04</internalNodes>
          <leafValues>
            1.1634833365678787e-01 -2.4136240780353546e-01</leafValues></_>
        <_>
          <internalNodes>
            0 -1 619 -5.4009933024644852e-02</internalNodes>
          <leafValues>
            -7.4482417106628418e-01 4.1289430111646652e-02</leafValues></_>
        <_>
          <internalNodes>
            0 -1 755 5.2949169185012579e-04</internalNodes>
          <leafValues>
            -1.3782036304473877e-01 2.2468915581703186e-01</leafValues></_>
        <_>
          <internalNodes>
            0 -1 214 -6.8230032920837402e-03</internalNodes>
          <leafValues>
            -5.4105526208877563e-01 5.6835308670997620e-02</leafValues></_>
        <_>
          <internalNodes>
            0 -1 577 1.6134176403284073e-03</internalNodes>
          <leafValues>
            -1.2638235092163086e-01 2.3085744678974152e-01</leafValues></_>
        <_>
          <internalNodes>
            0 -1 161 -2.6015285402536392e-02</internalNodes>
          <leafValues>
            5.7939159870147705e-01 -4.7375205904245377e-02</leafValues></_>
        <_>
          <internalNodes>
            0 -1 244 1.3676758389919996e-03</internalNodes>
          <leafValues>
            -1.2790091335773468e-01 2.3094402253627777e-01</leafValues></_>
        <_>
          <internalNodes>
            0 -1 322 3.6128237843513489e-04</internalNodes>
          <leafValues>
            -1.2182813137769699e-01 2.3239499330520630e-01</leafValues></_>
        <_>
          <internalNodes>
            0 -1 764 -9.5878262072801590e-03</internalNodes>
          <leafValues>
            -5.9453743696212769e-01 5.5389750748872757e-02</leafValues></_>
        <_>
          <internalNodes>
            0 -1 436 3.1497731804847717e-02</internalNodes>
          <leafValues>
            3.0992414802312851e-02 -8.2667529582977295e-01</leafValues></_></weakClassifiers></_>
    <!-- stage 7 -->
    <_>
      <maxWeakCount>49</maxWeakCount>
      <stageThreshold>-7.3351335525512695e-01</stageThreshold>
      <weakClassifiers>
        <_>
          <internalNodes>
            0 -1 321 1.8052570521831512e-02</internalNodes>
          <leafValues>
            4.2471043765544891e-02 5.6441718339920044e-01</leafValues></_>
        <_>
          <internalNodes>
            0 -1 203 -2.4486072361469269e-02</internalNodes>
          <leafValues>
            3.4187626838684082e-01 -1.6626550257205963e-01</leafValues></_>
        <_>
          <internalNodes>
            0 -1 127 -2.4996601045131683e-02</internalNodes>
          <leafValues>
            3.6340236663818359e-01 -1.3363830745220184e-01</leafValues></_>
        <_>
          <internalNodes>
            0 -1 432 8.2037821412086487e-03</internalNodes>
          <leafValues>
            -1.9190150499343872e-01 2.8767403960227966e-01</leafValues></_>
        <_>
          <internalNodes>
            0 -1 32 2.1470684558153152e-02</internalNodes>
          <leafValues>
            -1.0566219687461853e-01 3.0120825767517090e-01</leafValues></_>
        <_>
          <internalNodes>
            0 -1 662 -6.6845295950770378e-03</internalNodes>
          <leafValues>
            1.7798115313053131e-01 -2.1021616458892822e-01</leafValues></_>
        <_>
          <internalNodes>
            0 -1 474 -1.5217216685414314e-02</internalNodes>
          <leafValues>
            -6.0189032554626465e-01 6.3236236572265625e-02</leafValues></_>
        <_>
          <internalNodes>
            0 -1 472 -3.4472611732780933e-03</internalNodes>
          <leafValues>
            2.8201693296432495e-01 -1.2700237333774567e-01</leafValues></_>
        <_>
          <internalNodes>
            0 -1 502 3.2892874442040920e-03</internalNodes>
          <leafValues>
            -1.0747038573026657e-01 2.9870340228080750e-01</leafValues></_>
        <_>
          <internalNodes>
            0 -1 375 5.0649594049900770e-04</internalNodes>
          <leafValues>
            -1.3220350444316864e-01 2.5132182240486145e-01</leafValues></_>
        <_>
          <internalNodes>
            0 -1 301 1.4712125062942505e-01</internalNodes>
          <leafValues>
            5.4321452975273132e-02 -5.7870292663574219e-01</leafValues></_>
        <_>
          <internalNodes>
            0 -1 699 -4.8873340710997581e-03</internalNodes>
          <leafValues>
            -5.9854465723037720e-01 4.4149737805128098e-02</leafValues></_>
        <_>
          <internalNodes>
            0 -1 740 -2.2947085089981556e-03</internalNodes>
          <leafValues>
            -5.5523335933685303e-01 4.9291223287582397e-02</leafValues></_>
        <_>
          <internalNodes>
            0 -1 186 3.1419746577739716e-02</internalNodes>
          <leafValues>
            -8.2546055316925049e-02 3.9985573291778564e-01</leafValues></_>
        <_>
          <internalNodes>
            0 -1 28 -3.8101628422737122e-02</internalNodes>
          <leafValues>
            5.7236927747726440e-01 -4.7944482415914536e-02</leafValues></_>
        <_>
          <internalNodes>
            0 -1 364 -6.3710948452353477e-03</internalNodes>
          <leafValues>
            -3.3061072230339050e-01 9.1138198971748352e-02</leafValues></_>
        <_>
          <internalNodes>
            0 -1 821 5.0531378947198391e-03</internalNodes>
          <leafValues>
            -1.5247513353824615e-01 1.9594405591487885e-01</leafValues></_>
        <_>
          <internalNodes>
            0 -1 252 8.6346551775932312e-02</internalNodes>
          <leafValues>
            5.7084765285253525e-02 -5.0187659263610840e-01</leafValues></_>
        <_>
          <internalNodes>
            0 -1 112 -4.0163114666938782e-02</internalNodes>
          <leafValues>
            6.7516225576400757e-01 -4.5547932386398315e-02</leafValues></_>
        <_>
          <internalNodes>
            0 -1 344 -9.5994845032691956e-03</internalNodes>
          <leafValues>
            2.9778012633323669e-01 -1.0051070898771286e-01</leafValues></_>
        <_>
          <internalNodes>
            0 -1 185 -1.0102152824401855e-02</internalNodes>
          <leafValues>
            2.8171113133430481e-01 -1.2833775579929352e-01</leafValues></_>
        <_>
          <internalNodes>
            0 -1 883 4.1339971357956529e-04</internalNodes>
          <leafValues>
            -1.3380394876003265e-01 2.2424530982971191e-01</leafValues></_>
        <_>
          <internalNodes>
            0 -1 416 8.0615356564521790e-03</internalNodes>
          <leafValues>
            -1.5092930197715759e-01 2.1173293888568878e-01</leafValues></_>
        <_>
          <internalNodes>
            0 -1 707 5.3349295631051064e-03</internalNodes>
          <leafValues>
            -9.6354737877845764e-02 2.9829272627830505e-01</leafValues></_>
        <_>
          <internalNodes>
            0 -1 877 -5.0109326839447021e-03</internalNodes>
          <leafValues>
            -4.9972370266914368e-01 6.0580618679523468e-02</leafValues></_>
        <_>
          <internalNodes>
            0 -1 789 1.5505000948905945e-02</internalNodes>
          <leafValues>
            4.1751392185688019e-02 -6.1800169944763184e-01</leafValues></_>
        <_>
          <internalNodes>
            0 -1 586 -4.0512774139642715e-03</internalNodes>
          <leafValues>
            -5.1209539175033569e-01 5.1988799124956131e-02</leafValues></_>
        <_>
          <internalNodes>
            0 -1 770 3.3264411613345146e-03</internalNodes>
          <leafValues>
            -1.5362939238548279e-01 1.8740601837635040e-01</leafValues></_>
        <_>
          <internalNodes>
            0 -1 862 -1.0709960944950581e-02</internalNodes>
          <leafValues>
            3.0491501092910767e-01 -1.1208634078502655e-01</leafValues></_>
        <_>
          <internalNodes>
            0 -1 503 4.7523442655801773e-02</internalNodes>
          <leafValues>
            4.8060651868581772e-02 -6.4275634288787842e-01</leafValues></_>
        <_>
          <internalNodes>
            0 -1 494 3.4611739218235016e-02</internalNodes>
          <leafValues>
            -7.0028886198997498e-02 4.3701550364494324e-01</leafValues></_>
        <_>
          <internalNodes>
            0 -1 388 5.8751264587044716e-03</internalNodes>
          <leafValues>
            4.6974994242191315e-02 -6.9753724336624146e-01</leafValues></_>
        <_>
          <internalNodes>
            0 -1 846 6.7056843545287848e-04</internalNodes>
          <leafValues>
            -1.3584800064563751e-01 2.1791008114814758e-01</leafValues></_>
        <_>
          <internalNodes>
            0 -1 901 3.1973607838153839e-03</internalNodes>
          <leafValues>
            -1.0553922504186630e-01 2.6731133460998535e-01</leafValues></_>
        <_>
          <internalNodes>
            0 -1 55 -3.9312522858381271e-04</internalNodes>
          <leafValues>
            -1.8674382567405701e-01 1.6048775613307953e-01</leafValues></_>
        <_>
          <internalNodes>
            0 -1 358 -9.8502729088068008e-03</internalNodes>
          <leafValues>
            1.7888018488883972e-01 -1.6568826138973236e-01</leafValues></_>
        <_>
          <internalNodes>
            0 -1 882 -3.4409323707222939e-03</internalNodes>
          <leafValues>
            -5.6975632905960083e-01 5.0047546625137329e-02</leafValues></_>
        <_>
          <internalNodes>
            0 -1 401 3.3667869865894318e-03</internalNodes>
          <leafValues>
            -1.8242795765399933e-01 1.6177573800086975e-01</leafValues></_>
        <_>
          <internalNodes>
            0 -1 24 -5.0612375140190125e-02</internalNodes>
          <leafValues>
            3.4447950124740601e-01 -1.0358428955078125e-01</leafValues></_>
        <_>
          <internalNodes>
            0 -1 31 -1.7089369893074036e-01</internalNodes>
          <leafValues>
            5.5168008804321289e-01 -5.0463929772377014e-02</leafValues></_>
        <_>
          <internalNodes>
            0 -1 736 2.9335023835301399e-02</internalNodes>
          <leafValues>
            4.2711697518825531e-02 -7.4038040637969971e-01</leafValues></_>
        <_>
          <internalNodes>
            0 -1 778 9.0651132632046938e-04</internalNodes>
          <leafValues>
            -1.3700956106185913e-01 2.2128652036190033e-01</leafValues></_>
        <_>
          <internalNodes>
            0 -1 392 1.5863339649513364e-04</internalNodes>
          <leafValues>
            -1.4490652084350586e-01 1.8932481110095978e-01</leafValues></_>
        <_>
          <internalNodes>
            0 -1 748 3.0568156391382217e-02</internalNodes>
          <leafValues>
            4.5396927744150162e-02 -5.8295726776123047e-01</leafValues></_>
        <_>
          <internalNodes>
            0 -1 723 1.5108983498066664e-03</internalNodes>
          <leafValues>
            -1.2673021852970123e-01 2.2086423635482788e-01</leafValues></_>
        <_>
          <internalNodes>
            0 -1 68 -3.9913595537655056e-04</internalNodes>
          <leafValues>
            2.1264781057834625e-01 -1.2098682671785355e-01</leafValues></_>
        <_>
          <internalNodes>
            0 -1 433 8.1857033073902130e-03</internalNodes>
          <leafValues>
            3.4776546061038971e-02 -8.5154980421066284e-01</leafValues></_>
        <_>
          <internalNodes>
            0 -1 525 -9.3372125411406159e-04</internalNodes>
          <leafValues>
            2.1167300641536713e-01 -1.2949289381504059e-01</leafValues></_>
        <_>
          <internalNodes>
            0 -1 412 -1.3275248929858208e-02</internalNodes>
          <leafValues>
            4.6876263618469238e-01 -5.6379038840532303e-02</leafValues></_></weakClassifiers></_>
    <!-- stage 8 -->
    <_>
      <maxWeakCount>53</maxWeakCount>
      <stageThreshold>-8.0508202314376831e-01</stageThreshold>
      <weakClassifiers>
        <_>
          <internalNodes>
            0 -1 365 2.7739647775888443e-02</internalNodes>
          <leafValues>
            1.4025086164474487e-01 6.2254482507705688e-01</leafValues></_>
        <_>
          <internalNodes>
            0 -1 156 3.0017741024494171e-02</internalNodes>
          <leafValues>
            -6.9180928170681000e-02 5.6425821781158447e-01</leafValues></_>
        <_>
          <internalNodes>
            0 -1 47 1.3248898088932037e-02</internalNodes>
          <leafValues>
            -1.4830256998538971e-01 3.1265655159950256e-01</leafValues></_>
        <_>
          <internalNodes>
            0 -1 549 1.9107352942228317e-02</internalNodes>
          <leafValues>
            -1.8161183595657349e-01 2.9527270793914795e-01</leafValues></_>
        <_>
          <internalNodes>
            0 -1 439 2.6184270158410072e-02</internalNodes>
          <leafValues>
            -1.2040045112371445e-01 3.4246432781219482e-01</leafValues></_>
        <_>
          <internalNodes>
            0 -1 674 4.4318190775811672e-03</internalNodes>
          <leafValues>
            8.6809478700160980e-02 -5.6210166215896606e-01</leafValues></_>
        <_>
          <internalNodes>
            0 -1 200 -1.3481741771101952e-02</internalNodes>
          <leafValues>
            3.2510167360305786e-01 -1.1099456995725632e-01</leafValues></_>
        <_>
          <internalNodes>
            0 -1 393 2.3223820608109236e-03</internalNodes>
          <leafValues>
            6.5960310399532318e-02 -4.7617387771606445e-01</leafValues></_>
        <_>
          <internalNodes>
            0 -1 291 1.9342988729476929e-02</internalNodes>
          <leafValues>
            -6.5247669816017151e-02 5.6835830211639404e-01</leafValues></_>
        <_>
          <internalNodes>
            0 -1 575 2.0278375595808029e-02</internalNodes>
          <leafValues>
            -1.2520644068717957e-01 2.9072627425193787e-01</leafValues></_>
        <_>
          <internalNodes>
            0 -1 599 -1.2418917380273342e-02</internalNodes>
          <leafValues>
            -5.0431931018829346e-01 6.4166717231273651e-02</leafValues></_>
        <_>
          <internalNodes>
            0 -1 191 1.2425794266164303e-02</internalNodes>
          <leafValues>
            -2.4048951268196106e-01 1.5988694131374359e-01</leafValues></_>
        <_>
          <internalNodes>
            0 -1 171 1.5763288829475641e-03</internalNodes>
          <leafValues>
            -1.4718566834926605e-01 2.2886554896831512e-01</leafValues></_>
        <_>
          <internalNodes>
            0 -1 905 -1.1714996770024300e-02</internalNodes>
          <leafValues>
            2.6368269324302673e-01 -1.2441560626029968e-01</leafValues></_>
        <_>
          <internalNodes>
            0 -1 184 3.0621888116002083e-02</internalNodes>
          <leafValues>
            -9.3144960701465607e-02 3.7197104096412659e-01</leafValues></_>
        <_>
          <internalNodes>
            0 -1 426 -4.9156686291098595e-03</internalNodes>
          <leafValues>
            -7.4994891881942749e-01 4.7706093639135361e-02</leafValues></_>
        <_>
          <internalNodes>
            0 -1 731 1.1767668183892965e-03</internalNodes>
          <leafValues>
            -1.1296543478965759e-01 2.7045017480850220e-01</leafValues></_>
        <_>
          <internalNodes>
            0 -1 701 1.9167814170941710e-03</internalNodes>
          <leafValues>
            5.9726625680923462e-02 -5.6683349609375000e-01</leafValues></_>
        <_>
          <internalNodes>
            0 -1 476 -1.3610727153718472e-02</internalNodes>
          <leafValues>
            -7.1745550632476807e-01 2.9637413099408150e-02</leafValues></_>
        <_>
          <internalNodes>
            0 -1 537 1.0769672226160765e-03</internalNodes>
          <leafValues>
            1.0208459943532944e-01 -2.4053555727005005e-01</leafValues></_>
        <_>
          <internalNodes>
            0 -1 6 -2.4299183860421181e-03</internalNodes>
          <leafValues>
            1.7682684957981110e-01 -1.5423858165740967e-01</leafValues></_>
        <_>
          <internalNodes>
            0 -1 124 -1.2769373133778572e-02</internalNodes>
          <leafValues>
            2.7600291371345520e-01 -9.3149960041046143e-02</leafValues></_>
        <_>
          <internalNodes>
            0 -1 17 -4.3747872114181519e-02</internalNodes>
          <leafValues>
            2.5912186503410339e-01 -9.5835886895656586e-02</leafValues></_>
        <_>
          <internalNodes>
            0 -1 234 6.5057552419602871e-03</internalNodes>
          <leafValues>
            -9.9334530532360077e-02 2.9280579090118408e-01</leafValues></_>
        <_>
          <internalNodes>
            0 -1 449 1.6219515353441238e-02</internalNodes>
          <leafValues>
            -9.4004362821578979e-02 2.6960095763206482e-01</leafValues></_>
        <_>
          <internalNodes>
            0 -1 397 2.2912193089723587e-03</internalNodes>
          <leafValues>
            1.0633191466331482e-01 -3.0465504527091980e-01</leafValues></_>
        <_>
          <internalNodes>
            0 -1 761 5.0847930833697319e-03</internalNodes>
          <leafValues>
            -1.5743550658226013e-01 1.7514149844646454e-01</leafValues></_>
        <_>
          <internalNodes>
            0 -1 624 1.9343646708875895e-03</internalNodes>
          <leafValues>
            -1.0031166672706604e-01 2.8233954310417175e-01</leafValues></_>
        <_>
          <internalNodes>
            0 -1 298 -9.1438367962837219e-03</internalNodes>
          <leafValues>
            1.9817352294921875e-01 -1.4207766950130463e-01</leafValues></_>
        <_>
          <internalNodes>
            0 -1 73 5.2298518130555749e-04</internalNodes>
          <leafValues>
            1.5436075627803802e-01 -1.7853264510631561e-01</leafValues></_>
        <_>
          <internalNodes>
            0 -1 777 3.7860311567783356e-04</internalNodes>
          <leafValues>
            -1.2817770242691040e-01 2.0801657438278198e-01</leafValues></_>
        <_>
          <internalNodes>
            0 -1 803 5.1815155893564224e-04</internalNodes>
          <leafValues>
            -1.6416898369789124e-01 1.6783450543880463e-01</leafValues></_>
        <_>
          <internalNodes>
            0 -1 462 3.3699464984238148e-03</internalNodes>
          <leafValues>
            -1.0034753382205963e-01 2.9004481434822083e-01</leafValues></_>
        <_>
          <internalNodes>
            0 -1 814 -2.1539710462093353e-02</internalNodes>
          <leafValues>
            2.8528112173080444e-01 -9.1221302747726440e-02</leafValues></_>
        <_>
          <internalNodes>
            0 -1 819 6.8953186273574829e-03</internalNodes>
          <leafValues>
            -1.1398517340421677e-01 2.5102761387825012e-01</leafValues></_>
        <_>
          <internalNodes>
            0 -1 909 3.9344178512692451e-03</internalNodes>
          <leafValues>
            6.6687941551208496e-02 -4.8263636231422424e-01</leafValues></_>
        <_>
          <internalNodes>
            0 -1 687 2.9597984394058585e-04</internalNodes>
          <leafValues>
            -1.4695760607719421e-01 1.9963532686233521e-01</leafValues></_>
        <_>
          <internalNodes>
            0 -1 341 3.4011085517704487e-04</internalNodes>
          <leafValues>
            -1.7601254582405090e-01 1.4702498912811279e-01</leafValues></_>
        <_>
          <internalNodes>
            0 -1 666 -1.7525861039757729e-03</internalNodes>
          <leafValues>
            -4.0371751785278320e-01 7.2065919637680054e-02</leafValues></_>
        <_>
          <internalNodes>
            0 -1 795 6.6474312916398048e-04</internalNodes>
          <leafValues>
            -1.0302460938692093e-01 2.8725862503051758e-01</leafValues></_>
        <_>
          <internalNodes>
            0 -1 722 -9.0155762154608965e-04</internalNodes>
          <leafValues>
            2.3505987226963043e-01 -1.0783796757459641e-01</leafValues></_>
        <_>
          <internalNodes>
            0 -1 159 2.2642542608082294e-03</internalNodes>
          <leafValues>
            -1.4660878479480743e-01 1.9289669394493103e-01</leafValues></_>
        <_>
          <internalNodes>
            0 -1 109 -2.6939385570585728e-03</internalNodes>
          <leafValues>
            1.7907534539699554e-01 -1.4079579710960388e-01</leafValues></_>
        <_>
          <internalNodes>
            0 -1 270 6.7574298009276390e-03</internalNodes>
          <leafValues>
            -7.9855181276798248e-02 3.2821440696716309e-01</leafValues></_>
        <_>
          <internalNodes>
            0 -1 802 5.1010577008128166e-03</internalNodes>
          <leafValues>
            4.4588953256607056e-02 -5.8259660005569458e-01</leafValues></_>
        <_>
          <internalNodes>
            0 -1 52 1.7318626865744591e-02</internalNodes>
          <leafValues>
            -1.0549568384885788e-01 2.6526442170143127e-01</leafValues></_>
        <_>
          <internalNodes>
            0 -1 880 -3.4517510794103146e-03</internalNodes>
          <leafValues>
            -3.9707145094871521e-01 6.9660998880863190e-02</leafValues></_>
        <_>
          <internalNodes>
            0 -1 267 -6.9481385871767998e-03</internalNodes>
          <leafValues>
            -6.5739476680755615e-01 3.5870742052793503e-02</leafValues></_>
        <_>
          <internalNodes>
            0 -1 235 -1.4211557572707534e-03</internalNodes>
          <leafValues>
            1.5237438678741455e-01 -1.9327141344547272e-01</leafValues></_>
        <_>
          <internalNodes>
            0 -1 596 7.9485988244414330e-03</internalNodes>
          <leafValues>
            -4.6931866556406021e-02 6.1430180072784424e-01</leafValues></_>
        <_>
          <internalNodes>
            0 -1 758 -6.8599631777033210e-04</internalNodes>
          <leafValues>
            2.9597821831703186e-01 -8.4165289998054504e-02</leafValues></_>
        <_>
          <internalNodes>
            0 -1 89 1.2494048569351435e-03</internalNodes>
          <leafValues>
            -1.1652906984090805e-01 2.1695561707019806e-01</leafValues></_>
        <_>
          <internalNodes>
            0 -1 368 1.0256700217723846e-02</internalNodes>
          <leafValues>
            3.0644977465271950e-02 -8.1442457437515259e-01</leafValues></_></weakClassifiers></_>
    <!-- stage 9 -->
    <_>
      <maxWeakCount>46</maxWeakCount>
      <stageThreshold>-7.4858731031417847e-01</stageThreshold>
      <weakClassifiers>
        <_>
          <internalNodes>
            0 -1 98 5.4132528603076935e-02</internalNodes>
          <leafValues>
            1.7906865477561951e-01 7.1496438980102539e-01</leafValues></_>
        <_>
          <internalNodes>
            0 -1 160 9.3278829008340836e-03</internalNodes>
          <leafValues>
            -9.3504853546619415e-02 3.9346307516098022e-01</leafValues></_>
        <_>
          <internalNodes>
            0 -1 37 2.0857680588960648e-02</internalNodes>
          <leafValues>
            -1.9176602363586426e-01 2.8689575195312500e-01</leafValues></_>
        <_>
          <internalNodes>
            0 -1 804 -1.3762149959802628e-02</internalNodes>
          <leafValues>
            2.6469534635543823e-01 -1.5173700451850891e-01</leafValues></_>
        <_>
          <internalNodes>
            0 -1 490 3.6932884249836206e-03</internalNodes>
          <leafValues>
            -1.8740254640579224e-01 1.8676853179931641e-01</leafValues></_>
        <_>
          <internalNodes>
            0 -1 590 2.0524464547634125e-02</internalNodes>
          <leafValues>
            -1.2390031665563583e-01 3.7363684177398682e-01</leafValues></_>
        <_>
          <internalNodes>
            0 -1 423 2.9810246080160141e-02</internalNodes>
          <leafValues>
            -1.0787665843963623e-01 3.3720862865447998e-01</leafValues></_>
        <_>
          <internalNodes>
            0 -1 542 4.1522872634232044e-03</internalNodes>
          <leafValues>
            6.3529036939144135e-02 -5.7268589735031128e-01</leafValues></_>
        <_>
          <internalNodes>
            0 -1 288 2.0340252667665482e-02</internalNodes>
          <leafValues>
            -8.7004363536834717e-02 3.9795958995819092e-01</leafValues></_>
        <_>
          <internalNodes>
            0 -1 431 4.0271069854497910e-02</internalNodes>
          <leafValues>
            7.3935307562351227e-02 -5.0207668542861938e-01</leafValues></_>
        <_>
          <internalNodes>
            0 -1 410 2.8210442513227463e-02</internalNodes>
          <leafValues>
            -8.1543281674385071e-02 4.0768396854400635e-01</leafValues></_>
        <_>
          <internalNodes>
            0 -1 117 2.4819158017635345e-02</internalNodes>
          <leafValues>
            -7.4937745928764343e-02 4.7433415055274963e-01</leafValues></_>
        <_>
          <internalNodes>
            0 -1 145 3.0538800638169050e-03</internalNodes>
          <leafValues>
            4.9594741314649582e-02 -7.0235365629196167e-01</leafValues></_>
        <_>
          <internalNodes>
            0 -1 142 4.6113368123769760e-02</internalNodes>
          <leafValues>
            -6.5082572400569916e-02 4.8101294040679932e-01</leafValues></_>
        <_>
          <internalNodes>
            0 -1 331 2.3314640857279301e-03</internalNodes>
          <leafValues>
            5.3348328918218613e-02 -6.1342948675155640e-01</leafValues></_>
        <_>
          <internalNodes>
            0 -1 360 1.4298292994499207e-01</internalNodes>
          <leafValues>
            3.8591135293245316e-02 -7.7146190404891968e-01</leafValues></_>
        <_>
          <internalNodes>
            0 -1 196 4.9304760992527008e-02</internalNodes>
          <leafValues>
            2.9068836942315102e-02 -7.8284865617752075e-01</leafValues></_>
        <_>
          <internalNodes>
            0 -1 524 -8.8970614597201347e-03</internalNodes>
          <leafValues>
            -5.6546342372894287e-01 4.5309707522392273e-02</leafValues></_>
        <_>
          <internalNodes>
            0 -1 915 -4.9752078484743834e-04</internalNodes>
          <leafValues>
            -2.5917035341262817e-01 1.0577281564474106e-01</leafValues></_>
        <_>
          <internalNodes>
            0 -1 346 -7.0123826153576374e-03</internalNodes>
          <leafValues>
            4.7345158457756042e-01 -5.9687510132789612e-02</leafValues></_>
        <_>
          <internalNodes>
            0 -1 796 4.8800730146467686e-03</internalNodes>
          <leafValues>
            5.2472807466983795e-02 -5.7953119277954102e-01</leafValues></_>
        <_>
          <internalNodes>
            0 -1 773 -1.5777454245835543e-03</internalNodes>
          <leafValues>
            2.2288915514945984e-01 -1.2870295345783234e-01</leafValues></_>
        <_>
          <internalNodes>
            0 -1 728 5.2252961322665215e-03</internalNodes>
          <leafValues>
            4.9722213298082352e-02 -6.2530976533889771e-01</leafValues></_>
        <_>
          <internalNodes>
            0 -1 130 -3.2887472771108150e-03</internalNodes>
          <leafValues>
            1.8314833939075470e-01 -1.6144672036170959e-01</leafValues></_>
        <_>
          <internalNodes>
            0 -1 810 1.0965222492814064e-02</internalNodes>
          <leafValues>
            -7.6094739139080048e-02 3.5448384284973145e-01</leafValues></_>
        <_>
          <internalNodes>
            0 -1 816 -3.6005347501486540e-03</internalNodes>
          <leafValues>
            -6.0143530368804932e-01 4.6463266015052795e-02</leafValues></_>
        <_>
          <internalNodes>
            0 -1 447 7.0313178002834320e-04</internalNodes>
          <leafValues>
            -1.1656053364276886e-01 2.5224861502647400e-01</leafValues></_>
        <_>
          <internalNodes>
            0 -1 306 2.8961483389139175e-02</internalNodes>
          <leafValues>
            5.2383400499820709e-02 -5.9473735094070435e-01</leafValues></_>
        <_>
          <internalNodes>
            0 -1 655 -3.2718375325202942e-02</internalNodes>
          <leafValues>
            -7.6669561862945557e-01 3.2100826501846313e-02</leafValues></_>
        <_>
          <internalNodes>
            0 -1 787 4.8861624673008919e-03</internalNodes>
          <leafValues>
            -1.0518070310354233e-01 2.7519497275352478e-01</leafValues></_>
        <_>
          <internalNodes>
            0 -1 100 -3.5496287047863007e-02</internalNodes>
          <leafValues>
            5.0863659381866455e-01 -5.1434863358736038e-02</leafValues></_>
        <_>
          <internalNodes>
            0 -1 858 5.1840702071785927e-03</internalNodes>
          <leafValues>
            6.1223845928907394e-02 -5.3280347585678101e-01</leafValues></_>
        <_>
          <internalNodes>
            0 -1 630 -1.8157734302803874e-03</internalNodes>
          <leafValues>
            -5.1482301950454712e-01 4.8511471599340439e-02</leafValues></_>
        <_>
          <internalNodes>
            0 -1 49 -4.6951547265052795e-02</internalNodes>
          <leafValues>
            -3.6986666917800903e-01 7.3044531047344208e-02</leafValues></_>
        <_>
          <internalNodes>
            0 -1 441 -1.4478545635938644e-03</internalNodes>
          <leafValues>
            2.1945215761661530e-01 -1.4092630147933960e-01</leafValues></_>
        <_>
          <internalNodes>
            0 -1 458 2.7091274969279766e-03</internalNodes>
          <leafValues>
            -1.5627092123031616e-01 1.9750808179378510e-01</leafValues></_>
        <_>
          <internalNodes>
            0 -1 851 -1.0719608515501022e-02</internalNodes>
          <leafValues>
            6.5849024057388306e-01 -4.5527677983045578e-02</leafValues></_>
        <_>
          <internalNodes>
            0 -1 359 -3.1839334405958652e-03</internalNodes>
          <leafValues>
            -5.9852731227874756e-01 5.5200655013322830e-02</leafValues></_>
        <_>
          <internalNodes>
            0 -1 351 2.0078375935554504e-02</internalNodes>
          <leafValues>
            -1.3073441386222839e-01 2.1779572963714600e-01</leafValues></_>
        <_>
          <internalNodes>
            0 -1 469 -6.8355482071638107e-03</internalNodes>
          <leafValues>
            2.6838633418083191e-01 -1.2627284228801727e-01</leafValues></_>
        <_>
          <internalNodes>
            0 -1 51 -1.0858963942155242e-03</internalNodes>
          <leafValues>
            -3.2514339685440063e-01 8.9218683540821075e-02</leafValues></_>
        <_>
          <internalNodes>
            0 -1 172 5.5556925944983959e-03</internalNodes>
          <leafValues>
            3.4843642264604568e-02 -8.3325088024139404e-01</leafValues></_>
        <_>
          <internalNodes>
            0 -1 339 -1.1598641052842140e-02</internalNodes>
          <leafValues>
            2.5735417008399963e-01 -1.1650910973548889e-01</leafValues></_>
        <_>
          <internalNodes>
            0 -1 690 8.3545234519988298e-04</internalNodes>
          <leafValues>
            -1.3183017075061798e-01 2.1817559003829956e-01</leafValues></_>
        <_>
          <internalNodes>
            0 -1 886 4.8569630598649383e-04</internalNodes>
          <leafValues>
            -1.2253918498754501e-01 2.1070387959480286e-01</leafValues></_>
        <_>
          <internalNodes>
            0 -1 593 5.7943006977438927e-03</internalNodes>
          <leafValues>
            8.2227468490600586e-02 -3.6676576733589172e-01</leafValues></_></weakClassifiers></_>
    <!-- stage 10 -->
    <_>
      <maxWeakCount>45</maxWeakCount>
      <stageThreshold>-7.8225362300872803e-01</stageThreshold>
      <weakClassifiers>
        <_>
          <internalNodes>
            0 -1 440 3.9303012192249298e-02</internalNodes>
          <leafValues>
            1.3659942150115967e-01 6.2016808986663818e-01</leafValues></_>
        <_>
          <internalNodes>
            0 -1 256 4.5800134539604187e-02</internalNodes>
          <leafValues>
            -1.8948209285736084e-01 2.9018682241439819e-01</leafValues></_>
        <_>
          <internalNodes>
            0 -1 342 2.1122565492987633e-02</internalNodes>
          <leafValues>
            -1.4940953254699707e-01 2.8971204161643982e-01</leafValues></_>
        <_>
          <internalNodes>
            0 -1 93 6.3624031841754913e-02</internalNodes>
          <leafValues>
            -1.3980905711650848e-01 3.9506658911705017e-01</leafValues></_>
        <_>
          <internalNodes>
            0 -1 766 -4.9810446798801422e-03</internalNodes>
          <leafValues>
            -5.7450789213180542e-01 8.7128661572933197e-02</leafValues></_>
        <_>
          <internalNodes>
            0 -1 26 6.8827077746391296e-02</internalNodes>
          <leafValues>
            -6.7324876785278320e-02 5.6476444005966187e-01</leafValues></_>
        <_>
          <internalNodes>
            0 -1 532 1.3584757223725319e-02</internalNodes>
          <leafValues>
            -1.1078160256147385e-01 3.3705496788024902e-01</leafValues></_>
        <_>
          <internalNodes>
            0 -1 485 -3.6802873015403748e-02</internalNodes>
          <leafValues>
            4.1520306468009949e-01 -9.0830549597740173e-02</leafValues></_>
        <_>
          <internalNodes>
            0 -1 153 1.9427085062488914e-03</internalNodes>
          <leafValues>
            6.4464211463928223e-02 -6.1435347795486450e-01</leafValues></_>
        <_>
          <internalNodes>
            0 -1 285 -6.3369972631335258e-03</internalNodes>
          <leafValues>
            3.2804432511329651e-01 -1.0912840813398361e-01</leafValues></_>
        <_>
          <internalNodes>
            0 -1 632 4.3091746047139168e-03</internalNodes>
          <leafValues>
            5.4051257669925690e-02 -6.0395717620849609e-01</leafValues></_>
        <_>
          <internalNodes>
            0 -1 774 5.6732343509793282e-03</internalNodes>
          <leafValues>
            5.9978876262903214e-02 -5.0134319067001343e-01</leafValues></_>
        <_>
          <internalNodes>
            0 -1 1 2.8995543718338013e-01</internalNodes>
          <leafValues>
            -5.3923700004816055e-02 7.1269243955612183e-01</leafValues></_>
        <_>
          <internalNodes>
            0 -1 10 7.3156664147973061e-03</internalNodes>
          <leafValues>
            -1.6141316294670105e-01 2.0877188444137573e-01</leafValues></_>
        <_>
          <internalNodes>
            0 -1 834 2.0965975709259510e-03</internalNodes>
          <leafValues>
            -1.6569121181964874e-01 1.8019311130046844e-01</leafValues></_>
        <_>
          <internalNodes>
            0 -1 811 5.4109252989292145e-02</internalNodes>
          <leafValues>
            -7.3169477283954620e-02 4.8849573731422424e-01</leafValues></_>
        <_>
          <internalNodes>
            0 -1 752 -3.6415815702639520e-04</internalNodes>
          <leafValues>
            2.0297543704509735e-01 -1.4317858219146729e-01</leafValues></_>
        <_>
          <internalNodes>
            0 -1 686 5.1255631260573864e-03</internalNodes>
          <leafValues>
            4.9191407859325409e-02 -6.1949092149734497e-01</leafValues></_>
        <_>
          <internalNodes>
            0 -1 541 8.2872895291075110e-04</internalNodes>
          <leafValues>
            -1.6456866264343262e-01 1.8773902952671051e-01</leafValues></_>
        <_>
          <internalNodes>
            0 -1 551 7.7027163933962584e-04</internalNodes>
          <leafValues>
            -1.3016115128993988e-01 2.5649020075798035e-01</leafValues></_>
        <_>
          <internalNodes>
            0 -1 496 6.3743935897946358e-03</internalNodes>
          <leafValues>
            3.8024045526981354e-02 -8.0994218587875366e-01</leafValues></_>
        <_>
          <internalNodes>
            0 -1 213 6.8881865590810776e-03</internalNodes>
          <leafValues>
            3.4315191209316254e-02 -7.0877671241760254e-01</leafValues></_>
        <_>
          <internalNodes>
            0 -1 177 5.6306861340999603e-02</internalNodes>
          <leafValues>
            4.1256774216890335e-02 -6.8614840507507324e-01</leafValues></_>
        <_>
          <internalNodes>
            0 -1 556 -2.4996479973196983e-02</internalNodes>
          <leafValues>
            5.6555265188217163e-01 -5.6543760001659393e-02</leafValues></_>
        <_>
          <internalNodes>
            0 -1 260 -2.7143452316522598e-03</internalNodes>
          <leafValues>
            -5.5392611026763916e-01 6.3342310488224030e-02</leafValues></_>
        <_>
          <internalNodes>
            0 -1 468 -2.3086091969162226e-03</internalNodes>
          <leafValues>
            -3.1060755252838135e-01 9.1251291334629059e-02</leafValues></_>
        <_>
          <internalNodes>
            0 -1 275 5.0733834505081177e-02</internalNodes>
          <leafValues>
            3.0749553814530373e-02 -8.5172671079635620e-01</leafValues></_>
        <_>
          <internalNodes>
            0 -1 115 -1.1420917697250843e-02</internalNodes>
          <leafValues>
            2.5487163662910461e-01 -1.2543229758739471e-01</leafValues></_>
        <_>
          <internalNodes>
            0 -1 641 -3.1836216803640127e-03</internalNodes>
          <leafValues>
            3.2127276062965393e-01 -9.4598032534122467e-02</leafValues></_>
        <_>
          <internalNodes>
            0 -1 513 1.8947266042232513e-02</internalNodes>
          <leafValues>
            -8.0569863319396973e-02 4.2450949549674988e-01</leafValues></_>
        <_>
          <internalNodes>
            0 -1 233 4.2286636307835579e-03</internalNodes>
          <leafValues>
            4.2512703686952591e-02 -7.7899193763732910e-01</leafValues></_>
        <_>
          <internalNodes>
            0 -1 223 4.7186249867081642e-04</internalNodes>
          <leafValues>
            -1.3912360370159149e-01 2.3644928634166718e-01</leafValues></_>
        <_>
          <internalNodes>
            0 -1 207 3.3815156202763319e-03</internalNodes>
          <leafValues>
            -1.1142494529485703e-01 2.6107391715049744e-01</leafValues></_>
        <_>
          <internalNodes>
            0 -1 217 1.0138026438653469e-02</internalNodes>
          <leafValues>
            -1.1129027605056763e-01 2.8038796782493591e-01</leafValues></_>
        <_>
          <internalNodes>
            0 -1 345 9.5674190670251846e-03</internalNodes>
          <leafValues>
            -7.9838030040264130e-02 4.1653880476951599e-01</leafValues></_>
        <_>
          <internalNodes>
            0 -1 337 -5.1414300687611103e-03</internalNodes>
          <leafValues>
            -6.6812849044799805e-01 5.7078510522842407e-02</leafValues></_>
        <_>
          <internalNodes>
            0 -1 387 -2.1839581895619631e-03</internalNodes>
          <leafValues>
            -6.6313862800598145e-01 3.7551607936620712e-02</leafValues></_>
        <_>
          <internalNodes>
            0 -1 568 4.3922429904341698e-03</internalNodes>
          <leafValues>
            3.5578139126300812e-02 -7.3232030868530273e-01</leafValues></_>
        <_>
          <internalNodes>
            0 -1 71 -1.1441970244050026e-02</internalNodes>
          <leafValues>
            -5.3562456369400024e-01 4.6993128955364227e-02</leafValues></_>
        <_>
          <internalNodes>
            0 -1 733 -2.2565117105841637e-03</internalNodes>
          <leafValues>
            -6.2183707952499390e-01 4.3519906699657440e-02</leafValues></_>
        <_>
          <internalNodes>
            0 -1 813 3.5056807100772858e-02</internalNodes>
          <leafValues>
            -7.2813414037227631e-02 4.3591439723968506e-01</leafValues></_>
        <_>
          <internalNodes>
            0 -1 373 9.5447842031717300e-03</internalNodes>
          <leafValues>
            -9.1188810765743256e-02 3.1346112489700317e-01</leafValues></_>
        <_>
          <internalNodes>
            0 -1 683 2.0783655345439911e-03</internalNodes>
          <leafValues>
            -1.4468595385551453e-01 2.0716822147369385e-01</leafValues></_>
        <_>
          <internalNodes>
            0 -1 210 -9.0004336088895798e-03</internalNodes>
          <leafValues>
            -6.3727474212646484e-01 4.3995413929224014e-02</leafValues></_>
        <_>
          <internalNodes>
            0 -1 263 3.0054614762775600e-04</internalNodes>
          <leafValues>
            -1.7338056862354279e-01 1.8203067779541016e-01</leafValues></_></weakClassifiers></_>
    <!-- stage 11 -->
    <_>
      <maxWeakCount>54</maxWeakCount>
      <stageThreshold>-7.8886753320693970e-01</stageThreshold>
      <weakClassifiers>
        <_>
          <internalNodes>
            0 -1 604 2.6680205017328262e-02</internalNodes>
          <leafValues>
            1.1963588744401932e-01 5.7029557228088379e-01</leafValues></_>
        <_>
          <internalNodes>
            0 -1 249 -2.3520674556493759e-02</internalNodes>
          <leafValues>
            3.0318188667297363e-01 -1.3986854255199432e-01</leafValues></_>
        <_>
          <internalNodes>
            0 -1 495 -1.4134697616100311e-02</internalNodes>
          <leafValues>
            3.3266052603721619e-01 -1.3071878254413605e-01</leafValues></_>
        <_>
          <internalNodes>
            0 -1 60 3.7407722324132919e-02</internalNodes>
          <leafValues>
            -1.4786362648010254e-01 3.6829802393913269e-01</leafValues></_>
        <_>
          <internalNodes>
            0 -1 48 5.5483989417552948e-03</internalNodes>
          <leafValues>
            -7.4490725994110107e-02 3.7840339541435242e-01</leafValues></_>
        <_>
          <internalNodes>
            0 -1 639 -2.7424341533333063e-03</internalNodes>
          <leafValues>
            1.8923924863338470e-01 -1.7795495688915253e-01</leafValues></_>
        <_>
          <internalNodes>
            0 -1 544 -2.9395280871540308e-03</internalNodes>
          <leafValues>
            -4.5484668016433716e-01 6.5974734723567963e-02</leafValues></_>
        <_>
          <internalNodes>
            0 -1 857 3.8266777992248535e-03</internalNodes>
          <leafValues>
            -1.3022485375404358e-01 2.3610813915729523e-01</leafValues></_>
        <_>
          <internalNodes>
            0 -1 413 2.9745053499937057e-02</internalNodes>
          <leafValues>
            -5.7204708456993103e-02 5.7287287712097168e-01</leafValues></_>
        <_>
          <internalNodes>
            0 -1 86 3.4695655107498169e-02</internalNodes>
          <leafValues>
            -1.0789948701858521e-01 3.1964036822319031e-01</leafValues></_>
        <_>
          <internalNodes>
            0 -1 623 4.2350403964519501e-04</internalNodes>
          <leafValues>
            -1.3169260323047638e-01 2.5780025124549866e-01</leafValues></_>
        <_>
          <internalNodes>
            0 -1 730 2.6194332167506218e-02</internalNodes>
          <leafValues>
            4.3553903698921204e-02 -7.0631283521652222e-01</leafValues></_>
        <_>
          <internalNodes>
            0 -1 735 5.9420120669528842e-04</internalNodes>
          <leafValues>
            -1.9156980514526367e-01 1.7993654310703278e-01</leafValues></_>
        <_>
          <internalNodes>
            0 -1 561 1.2602441711351275e-03</internalNodes>
          <leafValues>
            -1.1720056086778641e-01 2.7818870544433594e-01</leafValues></_>
        <_>
          <internalNodes>
            0 -1 658 3.6942348815500736e-03</internalNodes>
          <leafValues>
            4.7952998429536819e-02 -7.4559420347213745e-01</leafValues></_>
        <_>
          <internalNodes>
            0 -1 53 3.4267298877239227e-02</internalNodes>
          <leafValues>
            -6.2541417777538300e-02 5.8227950334548950e-01</leafValues></_>
        <_>
          <internalNodes>
            0 -1 533 -1.6303863376379013e-03</internalNodes>
          <leafValues>
            1.9781725108623505e-01 -1.4126649498939514e-01</leafValues></_>
        <_>
          <internalNodes>
            0 -1 837 -5.4104218725115061e-04</internalNodes>
          <leafValues>
            2.6052275300025940e-01 -1.1385545879602432e-01</leafValues></_>
        <_>
          <internalNodes>
            0 -1 276 3.8195946253836155e-03</internalNodes>
          <leafValues>
            5.8041468262672424e-02 -4.9924057722091675e-01</leafValues></_>
        <_>
          <internalNodes>
            0 -1 703 -2.0461385429371148e-04</internalNodes>
          <leafValues>
            1.8066795170307159e-01 -1.4620178937911987e-01</leafValues></_>
        <_>
          <internalNodes>
            0 -1 697 -3.0848542228341103e-03</internalNodes>
          <leafValues>
            -6.2939012050628662e-01 5.1926057785749435e-02</leafValues></_>
        <_>
          <internalNodes>
            0 -1 783 9.3640619888901711e-03</internalNodes>
          <leafValues>
            3.5120815038681030e-02 -6.7134392261505127e-01</leafValues></_>
        <_>
          <internalNodes>
            0 -1 246 -7.3068752884864807e-02</internalNodes>
          <leafValues>
            -5.8767426013946533e-01 4.6983096748590469e-02</leafValues></_>
        <_>
          <internalNodes>
            0 -1 387 2.2345972247421741e-03</internalNodes>
          <leafValues>
            3.1106851994991302e-02 -7.8838783502578735e-01</leafValues></_>
        <_>
          <internalNodes>
            0 -1 884 5.8704981347545981e-04</internalNodes>
          <leafValues>
            -1.2249533087015152e-01 2.5878107547760010e-01</leafValues></_>
        <_>
          <internalNodes>
            0 -1 547 -5.5509707890450954e-03</internalNodes>
          <leafValues>
            2.7485239505767822e-01 -1.1190956085920334e-01</leafValues></_>
        <_>
          <internalNodes>
            0 -1 198 2.2678995504975319e-02</internalNodes>
          <leafValues>
            -1.7192825675010681e-01 2.0916931331157684e-01</leafValues></_>
        <_>
          <internalNodes>
            0 -1 167 7.1146100759506226e-02</internalNodes>
          <leafValues>
            -4.4140875339508057e-02 6.0185331106185913e-01</leafValues></_>
        <_>
          <internalNodes>
            0 -1 180 -2.0855432376265526e-02</internalNodes>
          <leafValues>
            -6.8460661172866821e-01 5.2664916962385178e-02</leafValues></_>
        <_>
          <internalNodes>
            0 -1 415 3.1101398053579032e-04</internalNodes>
          <leafValues>
            1.4879460632801056e-01 -2.0384398102760315e-01</leafValues></_>
        <_>
          <internalNodes>
            0 -1 266 -1.3841374311596155e-03</internalNodes>
          <leafValues>
            1.8554991483688354e-01 -1.7396877706050873e-01</leafValues></_>
        <_>
          <internalNodes>
            0 -1 72 -1.1746886884793639e-03</internalNodes>
          <leafValues>
            2.0316198468208313e-01 -1.5019163489341736e-01</leafValues></_>
        <_>
          <internalNodes>
            0 -1 242 2.1340597420930862e-02</internalNodes>
          <leafValues>
            -5.6439533829689026e-02 4.6707394719123840e-01</leafValues></_>
        <_>
          <internalNodes>
            0 -1 576 3.6544748581945896e-03</internalNodes>
          <leafValues>
            -1.0219132900238037e-01 2.6389464735984802e-01</leafValues></_>
        <_>
          <internalNodes>
            0 -1 886 2.1506836637854576e-03</internalNodes>
          <leafValues>
            4.7686904668807983e-02 -5.6803727149963379e-01</leafValues></_>
        <_>
          <internalNodes>
            0 -1 918 -3.1440850347280502e-02</internalNodes>
          <leafValues>
            3.0063074827194214e-01 -9.3830384314060211e-02</leafValues></_>
        <_>
          <internalNodes>
            0 -1 912 -1.1995896697044373e-02</internalNodes>
          <leafValues>
            -3.1215804815292358e-01 9.7835764288902283e-02</leafValues></_>
        <_>
          <internalNodes>
            0 -1 702 4.2145559564232826e-03</internalNodes>
          <leafValues>
            -1.4016109704971313e-01 1.9862686097621918e-01</leafValues></_>
        <_>
          <internalNodes>
            0 -1 828 -1.5477951092179865e-04</internalNodes>
          <leafValues>
            1.9490365684032440e-01 -1.4780500531196594e-01</leafValues></_>
        <_>
          <internalNodes>
            0 -1 667 1.1521534994244576e-02</internalNodes>
          <leafValues>
            -1.1905457824468613e-01 2.5770568847656250e-01</leafValues></_>
        <_>
          <internalNodes>
            0 -1 45 7.8496318310499191e-03</internalNodes>
          <leafValues>
            -1.0825001448392868e-01 2.5486448407173157e-01</leafValues></_>
        <_>
          <internalNodes>
            0 -1 296 3.1336538493633270e-02</internalNodes>
          <leafValues>
            -3.6569930613040924e-02 8.0754560232162476e-01</leafValues></_>
        <_>
          <internalNodes>
            0 -1 510 -2.5951394811272621e-02</internalNodes>
          <leafValues>
            3.1830868124961853e-01 -8.8782854378223419e-02</leafValues></_>
        <_>
          <internalNodes>
            0 -1 563 1.8482593819499016e-02</internalNodes>
          <leafValues>
            -8.8040798902511597e-02 3.0090901255607605e-01</leafValues></_>
        <_>
          <internalNodes>
            0 -1 633 5.9381946921348572e-03</internalNodes>
          <leafValues>
            4.4479347765445709e-02 -6.3302302360534668e-01</leafValues></_>
        <_>
          <internalNodes>
            0 -1 559 -4.6584727242588997e-03</internalNodes>
          <leafValues>
            1.4451339840888977e-01 -1.8859560787677765e-01</leafValues></_>
        <_>
          <internalNodes>
            0 -1 613 -2.1327428519725800e-02</internalNodes>
          <leafValues>
            -6.9074201583862305e-01 5.3693689405918121e-02</leafValues></_>
        <_>
          <internalNodes>
            0 -1 824 3.5499732475727797e-03</internalNodes>
          <leafValues>
            -1.5132403373718262e-01 1.8700054287910461e-01</leafValues></_>
        <_>
          <internalNodes>
            0 -1 665 6.5997997298836708e-03</internalNodes>
          <leafValues>
            -6.6167220473289490e-02 4.2832568287849426e-01</leafValues></_>
        <_>
          <internalNodes>
            0 -1 564 6.7195696756243706e-03</internalNodes>
          <leafValues>
            5.6275777518749237e-02 -5.5808794498443604e-01</leafValues></_>
        <_>
          <internalNodes>
            0 -1 812 3.8670824142172933e-04</internalNodes>
          <leafValues>
            -1.2605783343315125e-01 2.1898171305656433e-01</leafValues></_>
        <_>
          <internalNodes>
            0 -1 188 -2.0019814372062683e-01</internalNodes>
          <leafValues>
            3.3533284068107605e-01 -8.4007583558559418e-02</leafValues></_>
        <_>
          <internalNodes>
            0 -1 284 9.3271695077419281e-03</internalNodes>
          <leafValues>
            -1.0601707547903061e-01 2.6873081922531128e-01</leafValues></_>
        <_>
          <internalNodes>
            0 -1 144 -2.1437896415591240e-02</internalNodes>
          <leafValues>
            3.9736384153366089e-01 -7.0018984377384186e-02</leafValues></_></weakClassifiers></_>
    <!-- stage 12 -->
    <_>
      <maxWeakCount>53</maxWeakCount>
      <stageThreshold>-7.8796958923339844e-01</stageThreshold>
      <weakClassifiers>
        <_>
          <internalNodes>
            0 -1 249 -1.4823943376541138e-02</internalNodes>
          <leafValues>
            5.0408399105072021e-01 9.1659784317016602e-02</leafValues></_>
        <_>
          <internalNodes>
            0 -1 894 -2.1130096167325974e-02</internalNodes>
          <leafValues>
            3.4824219346046448e-01 -1.1720325052738190e-01</leafValues></_>
        <_>
          <internalNodes>
            0 -1 587 1.5129441395401955e-02</internalNodes>
          <leafValues>
            -1.0836306959390640e-01 3.7766149640083313e-01</leafValues></_>
        <_>
          <internalNodes>
            0 -1 550 -1.7212379723787308e-02</internalNodes>
          <leafValues>
            3.6909395456314087e-01 -1.6139784455299377e-01</leafValues></_>
        <_>
          <internalNodes>
            0 -1 42 1.4956586062908173e-02</internalNodes>
          <leafValues>
            -1.5281794965267181e-01 2.1994791924953461e-01</leafValues></_>
        <_>
          <internalNodes>
            0 -1 193 -2.3708264343440533e-03</internalNodes>
          <leafValues>
            1.5761239826679230e-01 -2.0934189856052399e-01</leafValues></_>
        <_>
          <internalNodes>
            0 -1 87 4.5749470591545105e-02</internalNodes>
          <leafValues>
            -8.3123333752155304e-02 4.2295715212821960e-01</leafValues></_>
        <_>
          <internalNodes>
            0 -1 118 4.7367336228489876e-03</internalNodes>
          <leafValues>
            -1.9025406241416931e-01 2.4325984716415405e-01</leafValues></_>
        <_>
          <internalNodes>
            0 -1 459 3.6984466016292572e-02</internalNodes>
          <leafValues>
            4.5374289155006409e-02 -6.8429416418075562e-01</leafValues></_>
        <_>
          <internalNodes>
            0 -1 39 2.0173467695713043e-02</internalNodes>
          <leafValues>
            -1.3665698468685150e-01 2.3489443957805634e-01</leafValues></_>
        <_>
          <internalNodes>
            0 -1 286 4.7376484144479036e-04</internalNodes>
          <leafValues>
            -1.5385703742504120e-01 1.7819510400295258e-01</leafValues></_>
        <_>
          <internalNodes>
            0 -1 273 9.3263424932956696e-03</internalNodes>
          <leafValues>
            -1.1451951414346695e-01 2.6384466886520386e-01</leafValues></_>
        <_>
          <internalNodes>
            0 -1 878 2.4541830644011497e-03</internalNodes>
          <leafValues>
            5.8957196772098541e-02 -4.9650934338569641e-01</leafValues></_>
        <_>
          <internalNodes>
            0 -1 801 1.5533822588622570e-03</internalNodes>
          <leafValues>
            -1.3745316863059998e-01 2.0672906935214996e-01</leafValues></_>
        <_>
          <internalNodes>
            0 -1 919 -1.4617620036005974e-02</internalNodes>
          <leafValues>
            3.2972270250320435e-01 -7.9476192593574524e-02</leafValues></_>
        <_>
          <internalNodes>
            0 -1 553 1.0622726753354073e-02</internalNodes>
          <leafValues>
            -9.1758340597152710e-02 2.8126516938209534e-01</leafValues></_>
        <_>
          <internalNodes>
            0 -1 384 3.6713726818561554e-02</internalNodes>
          <leafValues>
            4.8374090343713760e-02 -5.8612561225891113e-01</leafValues></_>
        <_>
          <internalNodes>
            0 -1 397 -7.9757708590477705e-04</internalNodes>
          <leafValues>
            -1.9970300793647766e-01 1.4941869676113129e-01</leafValues></_>
        <_>
          <internalNodes>
            0 -1 102 -2.3966111242771149e-02</internalNodes>
          <leafValues>
            2.2764569520950317e-01 -1.2629169225692749e-01</leafValues></_>
        <_>
          <internalNodes>
            0 -1 251 -2.0250808447599411e-03</internalNodes>
          <leafValues>
            -4.3388536572456360e-01 6.6846042871475220e-02</leafValues></_>
        <_>
          <internalNodes>
