<?xml version="1.0"?>
<opencv_storage>
<stage1>
  <maxWeakCount>82</maxWeakCount>
  <stageThreshold>-1.0892388820648193e+00</stageThreshold>
  <weakClassifiers>
    <_>
      <internalNodes>
        0 -1 154795 8.6691290140151978e-02</internalNodes>
      <leafValues>
        -5.7250410318374634e-01 2.7972027659416199e-02</leafValues></_>
    <_>
      <internalNodes>
        0 -1 28785 1.5931867063045502e-02</internalNodes>
      <leafValues>
        -2.3328982293605804e-01 1.6601835191249847e-01</leafValues></_>
    <_>
      <internalNodes>
        0 -1 26986 -1.1989411711692810e-01</internalNodes>
      <leafValues>
        -3.6403164267539978e-01 9.2202357947826385e-02</leafValues></_>
    <_>
      <internalNodes>
        0 -1 290092 4.1130676865577698e-02</internalNodes>
      <leafValues>
        -8.6414828896522522e-02 4.4542708992958069e-01</leafValues></_>
    <_>
      <internalNodes>
        0 -1 157966 -6.2562758103013039e-03</internalNodes>
      <leafValues>
        4.0403443574905396e-01 -2.4983895942568779e-02</leafValues></_>
    <_>
      <internalNodes>
        0 -1 269681 1.6554746776819229e-02</internalNodes>
      <leafValues>
        -1.1909641325473785e-01 2.0506805181503296e-01</leafValues></_>
    <_>
      <internalNodes>
        0 -1 264936 6.7675322294235229e-02</internalNodes>
      <leafValues>
        -3.2920278608798981e-02 6.4588272571563721e-01</leafValues></_>
    <_>
      <internalNodes>
        0 -1 193258 1.8728153780102730e-02</internalNodes>
      <leafValues>
        -1.0579376667737961e-01 1.9790403544902802e-01</leafValues></_>
    <_>
      <internalNodes>
        0 -1 143347 3.4037508070468903e-02</internalNodes>
      <leafValues>
        -9.2916123569011688e-02 3.0815443396568298e-01</leafValues></_>
    <_>
      <internalNodes>
        0 -1 158146 -3.1045041978359222e-02</internalNodes>
      <leafValues>
        3.0172994732856750e-01 -7.6562687754631042e-02</leafValues></_>
    <_>
      <internalNodes>
        0 -1 173115 3.3854595385491848e-03</internalNodes>
      <leafValues>
        -1.1467838287353516e-01 1.9204245507717133e-01</leafValues></_>
    <_>
      <internalNodes>
        0 -1 83284 -1.6823649406433105e-02</internalNodes>
      <leafValues>
        -5.2851670980453491e-01 6.8694084882736206e-02</leafValues></_>
    <_>
      <internalNodes>
        0 -1 228259 -4.3357751565054059e-04</internalNodes>
      <leafValues>
        1.6172136366367340e-01 -1.3357664644718170e-01</leafValues></_>
    <_>
      <internalNodes>
        0 -1 175040 5.1831542514264584e-03</internalNodes>
      <leafValues>
        4.7454152256250381e-02 -8.4549218416213989e-01</leafValues></_>
    <_>
      <internalNodes>
        0 -1 251603 2.0549673587083817e-02</internalNodes>
      <leafValues>
        -3.8497187197208405e-02 6.9633489847183228e-01</leafValues></_>
    <_>
      <internalNodes>
        0 -1 31276 5.6497752666473389e-02</internalNodes>
      <leafValues>
        -1.5255391597747803e-01 1.4530785381793976e-01</leafValues></_>
    <_>
      <internalNodes>
        0 -1 183831 -6.6730178892612457e-02</internalNodes>
      <leafValues>
        -5.1414459943771362e-01 4.9223497509956360e-02</leafValues></_>
    <_>
      <internalNodes>
        0 -1 303768 -6.9674387574195862e-02</internalNodes>
      <leafValues>
        5.2741569280624390e-01 -4.2083114385604858e-02</leafValues></_>
    <_>
      <internalNodes>
        0 -1 85389 -1.5338035300374031e-03</internalNodes>
      <leafValues>
        1.8042920529842377e-01 -1.0153871774673462e-01</leafValues></_>
    <_>
      <internalNodes>
        0 -1 104321 -3.0422518029808998e-03</internalNodes>
      <leafValues>
        -5.1540595293045044e-01 2.9745280742645264e-02</leafValues></_>
    <_>
      <internalNodes>
        0 -1 139141 5.6898474693298340e-02</internalNodes>
      <leafValues>
        2.7368757873773575e-02 -7.6967078447341919e-01</leafValues></_>
    <_>
      <internalNodes>
        0 -1 191543 3.4087896347045898e-03</internalNodes>
      <leafValues>
        3.8334898650646210e-02 -4.5324173569679260e-01</leafValues></_>
    <_>
      <internalNodes>
        0 -1 294630 -2.2417858242988586e-02</internalNodes>
      <leafValues>
        3.6337792873382568e-01 -5.6698426604270935e-02</leafValues></_>
    <_>
      <internalNodes>
        0 -1 140674 -5.2720550447702408e-03</internalNodes>
      <leafValues>
        2.6371651887893677e-01 -7.5735479593276978e-02</leafValues></_>
    <_>
      <internalNodes>
        0 -1 218955 -1.0242506861686707e-02</internalNodes>
      <leafValues>
        -6.2534308433532715e-01 2.9030634090304375e-02</leafValues></_>
    <_>
      <internalNodes>
        0 -1 201669 -1.0545742698013783e-03</internalNodes>
      <leafValues>
        1.3681919872760773e-01 -1.3234333693981171e-01</leafValues></_>
    <_>
      <internalNodes>
        0 -1 252359 -8.1711523234844208e-03</internalNodes>
      <leafValues>
        1.8638870120048523e-01 -1.1491680145263672e-01</leafValues></_>
    <_>
      <internalNodes>
        0 -1 227533 1.0312197729945183e-02</internalNodes>
      <leafValues>
        5.7433567941188812e-02 -3.7589335441589355e-01</leafValues></_>
    <_>
      <internalNodes>
        0 -1 190809 6.4644066151231527e-04</internalNodes>
      <leafValues>
        -1.0111081600189209e-01 1.8393371999263763e-01</leafValues></_>
    <_>
      <internalNodes>
        0 -1 190735 -2.8134207241237164e-04</internalNodes>
      <leafValues>
        1.5409879386425018e-01 -1.3075910508632660e-01</leafValues></_>
    <_>
      <internalNodes>
        0 -1 42868 -3.5267104394733906e-03</internalNodes>
      <leafValues>
        -5.4739618301391602e-01 3.4248266369104385e-02</leafValues></_>
    <_>
      <internalNodes>
        0 -1 69126 -8.9517747983336449e-03</internalNodes>
      <leafValues>
        3.4598681330680847e-01 -5.4737828671932220e-02</leafValues></_>
    <_>
      <internalNodes>
        0 -1 155504 -2.1924782544374466e-02</internalNodes>
      <leafValues>
        -7.0092338323593140e-01 2.5769174098968506e-02</leafValues></_>
    <_>
      <internalNodes>
        0 -1 121877 1.7168488353490829e-02</internalNodes>
      <leafValues>
        2.6874568313360214e-02 -5.4743415117263794e-01</leafValues></_>
    <_>
      <internalNodes>
        0 -1 307036 1.7604492604732513e-02</internalNodes>
      <leafValues>
        -2.6372114196419716e-02 7.5395441055297852e-01</leafValues></_>
    <_>
      <internalNodes>
        0 -1 98290 9.7745254635810852e-02</internalNodes>
      <leafValues>
        3.7434574216604233e-02 -5.2616572380065918e-01</leafValues></_>
    <_>
      <internalNodes>
        0 -1 62234 -1.1802347376942635e-02</internalNodes>
      <leafValues>
        1.4491793513298035e-01 -1.3980251550674438e-01</leafValues></_>
    <_>
      <internalNodes>
        0 -1 122205 3.2263122498989105e-02</internalNodes>
      <leafValues>
        2.3512648418545723e-02 -7.2985780239105225e-01</leafValues></_>
    <_>
      <internalNodes>
        0 -1 80863 1.9377278164029121e-02</internalNodes>
      <leafValues>
        -3.8305729627609253e-02 5.2796530723571777e-01</leafValues></_>
    <_>
      <internalNodes>
        0 -1 86323 1.5248317271471024e-02</internalNodes>
      <leafValues>
        -2.7638688683509827e-02 6.3068252801895142e-01</leafValues></_>
    <_>
      <internalNodes>
        0 -1 199916 4.0799318230710924e-04</internalNodes>
      <leafValues>
        -1.1019844561815262e-01 1.7531958222389221e-01</leafValues></_>
    <_>
      <internalNodes>
        0 -1 150764 -1.0162068530917168e-02</internalNodes>
      <leafValues>
        -4.7264266014099121e-01 4.0453895926475525e-02</leafValues></_>
    <_>
      <internalNodes>
        0 -1 244456 1.1545624583959579e-02</internalNodes>
      <leafValues>
        2.9727555811405182e-02 -5.2971869707107544e-01</leafValues></_>
    <_>
      <internalNodes>
        0 -1 266202 6.8405824713408947e-03</internalNodes>
      <leafValues>
        -8.0106727778911591e-02 2.3400868475437164e-01</leafValues></_>
    <_>
      <internalNodes>
        0 -1 26163 8.7730735540390015e-02</internalNodes>
      <leafValues>
        7.5376316905021667e-02 -2.3607660830020905e-01</leafValues></_>
    <_>
      <internalNodes>
        0 -1 193409 -7.3478050529956818e-02</internalNodes>
      <leafValues>
        2.8890669345855713e-01 -6.4105555415153503e-02</leafValues></_>
    <_>
      <internalNodes>
        0 -1 44140 1.6131196171045303e-02</internalNodes>
      <leafValues>
        -2.7566345408558846e-02 6.0846626758575439e-01</leafValues></_>
    <_>
      <internalNodes>
        0 -1 244167 -4.1618156246840954e-03</internalNodes>
      <leafValues>
        -3.0322057008743286e-01 6.0061741620302200e-02</leafValues></_>
    <_>
      <internalNodes>
        0 -1 141954 -9.5158879412338138e-04</internalNodes>
      <leafValues>
        1.5581655502319336e-01 -1.0876709222793579e-01</leafValues></_>
    <_>
      <internalNodes>
        0 -1 61329 9.5844187308102846e-04</internalNodes>
      <leafValues>
        8.5396498441696167e-02 -2.0009107887744904e-01</leafValues></_>
    <_>
      <internalNodes>
        0 -1 183190 8.2828551530838013e-03</internalNodes>
      <leafValues>
        4.6051181852817535e-02 -3.4966734051704407e-01</leafValues></_>
    <_>
      <internalNodes>
        0 -1 159128 -3.0624754726886749e-02</internalNodes>
      <leafValues>
        -5.1829671859741211e-01 3.0749661847949028e-02</leafValues></_>
    <_>
      <internalNodes>
        0 -1 117419 -1.2980052828788757e-01</internalNodes>
      <leafValues>
        -8.5739970207214355e-01 1.6790691763162613e-02</leafValues></_>
    <_>
      <internalNodes>
        0 -1 262790 -3.9198800921440125e-02</internalNodes>
      <leafValues>
        -5.4799145460128784e-01 2.5740737095475197e-02</leafValues></_>
    <_>
      <internalNodes>
        0 -1 203785 9.1097448021173477e-03</internalNodes>
      <leafValues>
        -6.5437711775302887e-02 2.8333488106727600e-01</leafValues></_>
    <_>
      <internalNodes>
        0 -1 187796 6.3365222886204720e-03</internalNodes>
      <leafValues>
        3.9530716836452484e-02 -4.3617343902587891e-01</leafValues></_>
    <_>
      <internalNodes>
        0 -1 139842 -1.3930918648838997e-03</internalNodes>
      <leafValues>
        1.6968844830989838e-01 -1.1926350742578506e-01</leafValues></_>
    <_>
      <internalNodes>
        0 -1 127067 -8.9067762019112706e-04</internalNodes>
      <leafValues>
        1.6866506636142731e-01 -1.0374123603105545e-01</leafValues></_>
    <_>
      <internalNodes>
        0 -1 199027 2.5588972494006157e-03</internalNodes>
      <leafValues>
        2.4737318977713585e-02 -6.5246605873107910e-01</leafValues></_>
    <_>
      <internalNodes>
        0 -1 17154 6.5016232430934906e-02</internalNodes>
      <leafValues>
        -4.5190565288066864e-02 4.0268000960350037e-01</leafValues></_>
    <_>
      <internalNodes>
        0 -1 300789 -9.6494453027844429e-03</internalNodes>
      <leafValues>
        3.1815665960311890e-01 -5.8453828096389771e-02</leafValues></_>
    <_>
      <internalNodes>
        0 -1 265268 3.3125956542789936e-04</internalNodes>
      <leafValues>
        -1.1603295803070068e-01 1.4812533557415009e-01</leafValues></_>
    <_>
      <internalNodes>
        0 -1 143386 -2.9023028910160065e-02</internalNodes>
      <leafValues>
        -6.6734099388122559e-01 2.5715563446283340e-02</leafValues></_>
    <_>
      <internalNodes>
        0 -1 298867 2.7124185580760241e-03</internalNodes>
      <leafValues>
        7.7477760612964630e-02 -2.1785341203212738e-01</leafValues></_>
    <_>
      <internalNodes>
        0 -1 283118 -5.1736636087298393e-03</internalNodes>
      <leafValues>
        2.2559136152267456e-01 -7.7892303466796875e-02</leafValues></_>
    <_>
      <internalNodes>
        0 -1 285568 1.0993985459208488e-02</internalNodes>
      <leafValues>
        -8.9938700199127197e-02 1.8852646648883820e-01</leafValues></_>
    <_>
      <internalNodes>
        0 -1 157717 -1.1464787647128105e-02</internalNodes>
      <leafValues>
        -6.2442213296890259e-01 2.6948690414428711e-02</leafValues></_>
    <_>
      <internalNodes>
        0 -1 245624 1.3398055452853441e-03</internalNodes>
      <leafValues>
        6.0874938964843750e-02 -2.6546841859817505e-01</leafValues></_>
    <_>
      <internalNodes>
        0 -1 114449 2.0660948939621449e-03</internalNodes>
      <leafValues>
        -1.0959399491548538e-01 1.5548996627330780e-01</leafValues></_>
    <_>
      <internalNodes>
        0 -1 104913 -1.5761442482471466e-02</internalNodes>
      <leafValues>
        -3.4625825285911560e-01 5.2766401320695877e-02</leafValues></_>
    <_>
      <internalNodes>
        0 -1 89198 2.2647021338343620e-02</internalNodes>
      <leafValues>
        -6.3356377184391022e-02 2.7864497900009155e-01</leafValues></_>
    <_>
      <internalNodes>
        0 -1 58272 -3.5447962582111359e-02</internalNodes>
      <leafValues>
        -7.6243746280670166e-01 2.3136977106332779e-02</leafValues></_>
    <_>
      <internalNodes>
        0 -1 154842 -8.6020499467849731e-02</internalNodes>
      <leafValues>
        -7.1023213863372803e-01 1.8882095813751221e-02</leafValues></_>
    <_>
      <internalNodes>
        0 -1 179045 -9.3901073560118675e-03</internalNodes>
      <leafValues>
        -7.2255080938339233e-01 1.9158467650413513e-02</leafValues></_>
    <_>
      <internalNodes>
        0 -1 218915 -1.2166816741228104e-03</internalNodes>
      <leafValues>
        2.1485985815525055e-01 -8.3890438079833984e-02</leafValues></_>
    <_>
      <internalNodes>
        0 -1 8333 2.0480148494243622e-02</internalNodes>
      <leafValues>
        -8.0165766179561615e-02 2.1049126982688904e-01</leafValues></_>
    <_>
      <internalNodes>
        0 -1 201887 -7.8808665275573730e-03</internalNodes>
      <leafValues>
        2.7020037174224854e-01 -6.0654792934656143e-02</leafValues></_>
    <_>
      <internalNodes>
        0 -1 12382 -1.0615200735628605e-03</internalNodes>
      <leafValues>
        -1.4793820679187775e-01 1.1305514723062515e-01</leafValues></_>
    <_>
      <internalNodes>
        0 -1 252257 -6.5870434045791626e-03</internalNodes>
      <leafValues>
        2.9356220364570618e-01 -6.1483684927225113e-02</leafValues></_>
    <_>
      <internalNodes>
        0 -1 263832 1.5881735831499100e-02</internalNodes>
      <leafValues>
        1.9992040470242500e-02 -8.7590414285659790e-01</leafValues></_>
    <_>
      <internalNodes>
        0 -1 283211 3.8983002305030823e-02</internalNodes>
      <leafValues>
        -3.7724528461694717e-02 5.3669703006744385e-01</leafValues></_>
    <_>
      <internalNodes>
        0 -1 296731 5.5020824074745178e-03</internalNodes>
      <leafValues>
        -8.1941969692707062e-02 2.1680556237697601e-01</leafValues></_></weakClassifiers></stage1>
</opencv_storage>
