<?xml version="1.0"?>
<opencv_storage>
<stage15>
  <maxWeakCount>81</maxWeakCount>
  <stageThreshold>-7.5010693073272705e-01</stageThreshold>
  <weakClassifiers>
    <_>
      <internalNodes>
        0 -1 57239 -1.7120093107223511e-02</internalNodes>
      <leafValues>
        6.2326872348785400e-01 1.8142235279083252e-01</leafValues></_>
    <_>
      <internalNodes>
        0 -1 5085 1.2894970178604126e-01</internalNodes>
      <leafValues>
        -1.3674917817115784e-01 3.1914013624191284e-01</leafValues></_>
    <_>
      <internalNodes>
        0 -1 43818 7.0821838453412056e-03</internalNodes>
      <leafValues>
        -1.0415097326040268e-01 3.3477547764778137e-01</leafValues></_>
    <_>
      <internalNodes>
        0 -1 57042 -2.9648715630173683e-02</internalNodes>
      <leafValues>
        3.7835165858268738e-01 -9.1975376009941101e-02</leafValues></_>
    <_>
      <internalNodes>
        0 -1 31744 1.9605737924575806e-01</internalNodes>
      <leafValues>
        2.8045851737260818e-02 -5.5309295654296875e-01</leafValues></_>
    <_>
      <internalNodes>
        0 -1 37178 -4.9397192895412445e-02</internalNodes>
      <leafValues>
        4.6984741091728210e-01 -4.3400112539529800e-02</leafValues></_>
    <_>
      <internalNodes>
        0 -1 32475 3.7977103143930435e-02</internalNodes>
      <leafValues>
        4.0362346917390823e-02 -5.0284183025360107e-01</leafValues></_>
    <_>
      <internalNodes>
        0 -1 26143 -8.1495934864506125e-04</internalNodes>
      <leafValues>
        1.7283427715301514e-01 -1.2500768899917603e-01</leafValues></_>
    <_>
      <internalNodes>
        0 -1 19634 -3.1901379115879536e-03</internalNodes>
      <leafValues>
        2.3414124548435211e-01 -1.0724795609712601e-01</leafValues></_>
    <_>
      <internalNodes>
        0 -1 46160 -4.1129295714199543e-03</internalNodes>
      <leafValues>
        -2.2040003538131714e-01 1.0190507024526596e-01</leafValues></_>
    <_>
      <internalNodes>
        0 -1 42162 -6.9364206865429878e-04</internalNodes>
      <leafValues>
        1.8955865502357483e-01 -1.0533832758665085e-01</leafValues></_>
    <_>
      <internalNodes>
        0 -1 70968 -2.2031452681403607e-04</internalNodes>
      <leafValues>
        1.3477151095867157e-01 -1.5522675216197968e-01</leafValues></_>
    <_>
      <internalNodes>
        0 -1 54151 1.3361908495426178e-02</internalNodes>
      <leafValues>
        -1.0461562871932983e-01 1.7277982831001282e-01</leafValues></_>
    <_>
      <internalNodes>
        0 -1 60551 -1.7747107893228531e-02</internalNodes>
      <leafValues>
        -4.2231068015098572e-01 4.4949848204851151e-02</leafValues></_>
    <_>
      <internalNodes>
        0 -1 70891 6.8560242652893066e-03</internalNodes>
      <leafValues>
        2.6987083256244659e-02 -7.3635846376419067e-01</leafValues></_>
    <_>
      <internalNodes>
        0 -1 48298 2.5007773190736771e-02</internalNodes>
      <leafValues>
        -4.5580957084894180e-02 4.5477509498596191e-01</leafValues></_>
    <_>
      <internalNodes>
        0 -1 52665 2.3284708149731159e-03</internalNodes>
      <leafValues>
        1.0581417381763458e-01 -2.5328341126441956e-01</leafValues></_>
    <_>
      <internalNodes>
        0 -1 48219 -4.1956426575779915e-03</internalNodes>
      <leafValues>
        -4.8780331015586853e-01 4.0412425994873047e-02</leafValues></_>
    <_>
      <internalNodes>
        0 -1 53722 -1.1258646845817566e-02</internalNodes>
      <leafValues>
        2.4636280536651611e-01 -7.7247478067874908e-02</leafValues></_>
    <_>
      <internalNodes>
        0 -1 32324 3.3395732752978802e-03</internalNodes>
      <leafValues>
        4.3430224061012268e-02 -4.2655259370803833e-01</leafValues></_>
    <_>
      <internalNodes>
        0 -1 65435 4.5725619420409203e-03</internalNodes>
      <leafValues>
        2.8162810951471329e-02 -5.7065933942794800e-01</leafValues></_>
    <_>
      <internalNodes>
        0 -1 57159 1.1893583461642265e-02</internalNodes>
      <leafValues>
        -2.4737039580941200e-02 7.6539319753646851e-01</leafValues></_>
    <_>
      <internalNodes>
        0 -1 37797 2.9303383780643344e-04</internalNodes>
      <leafValues>
        -1.1760440468788147e-01 1.4392948150634766e-01</leafValues></_>
    <_>
      <internalNodes>
        0 -1 78274 -2.6697211433202028e-04</internalNodes>
      <leafValues>
        -1.6263483464717865e-01 1.0460639744997025e-01</leafValues></_>
    <_>
      <internalNodes>
        0 -1 68342 -8.0001435708254576e-04</internalNodes>
      <leafValues>
        1.7968294024467468e-01 -9.1303847730159760e-02</leafValues></_>
    <_>
      <internalNodes>
        0 -1 65328 -2.7979761944152415e-04</internalNodes>
      <leafValues>
        1.5420123934745789e-01 -1.0847717523574829e-01</leafValues></_>
    <_>
      <internalNodes>
        0 -1 39515 3.2679499126970768e-03</internalNodes>
      <leafValues>
        7.9124636948108673e-02 -2.1892072260379791e-01</leafValues></_>
    <_>
      <internalNodes>
        0 -1 71041 -7.0665054954588413e-04</internalNodes>
      <leafValues>
        1.6913653910160065e-01 -1.0226859152317047e-01</leafValues></_>
    <_>
      <internalNodes>
        0 -1 26672 4.5010637491941452e-02</internalNodes>
      <leafValues>
        -3.9723668247461319e-02 4.4364669919013977e-01</leafValues></_>
    <_>
      <internalNodes>
        0 -1 33482 -3.3114679157733917e-02</internalNodes>
      <leafValues>
        -4.9826273322105408e-01 4.0839556604623795e-02</leafValues></_>
    <_>
      <internalNodes>
        0 -1 27216 -8.0956779420375824e-03</internalNodes>
      <leafValues>
        1.9376802444458008e-01 -9.0936541557312012e-02</leafValues></_>
    <_>
      <internalNodes>
        0 -1 61984 1.2047862634062767e-02</internalNodes>
      <leafValues>
        -5.7764519006013870e-02 2.8971105813980103e-01</leafValues></_>
    <_>
      <internalNodes>
        0 -1 73260 7.1335525717586279e-04</internalNodes>
      <leafValues>
        -1.1503408849239349e-01 1.5927989780902863e-01</leafValues></_>
    <_>
      <internalNodes>
        0 -1 20379 2.0083789713680744e-03</internalNodes>
      <leafValues>
        -9.7173430025577545e-02 1.7685344815254211e-01</leafValues></_>
    <_>
      <internalNodes>
        0 -1 32123 2.8490792959928513e-02</internalNodes>
      <leafValues>
        2.1229466423392296e-02 -7.9772031307220459e-01</leafValues></_>
    <_>
      <internalNodes>
        0 -1 54328 8.4328639786690474e-04</internalNodes>
      <leafValues>
        6.5237611532211304e-02 -2.5811377167701721e-01</leafValues></_>
    <_>
      <internalNodes>
        0 -1 37844 -1.0644052177667618e-02</internalNodes>
      <leafValues>
        2.9069241881370544e-01 -6.2172368168830872e-02</leafValues></_>
    <_>
      <internalNodes>
        0 -1 67633 7.2787432000041008e-03</internalNodes>
      <leafValues>
        2.9822830110788345e-02 -5.6833696365356445e-01</leafValues></_>
    <_>
      <internalNodes>
        0 -1 4496 2.8712684288620949e-02</internalNodes>
      <leafValues>
        -6.7481964826583862e-02 2.5194817781448364e-01</leafValues></_>
    <_>
      <internalNodes>
        0 -1 6205 9.0013509616255760e-03</internalNodes>
      <leafValues>
        9.5268413424491882e-02 -2.0424291491508484e-01</leafValues></_>
    <_>
      <internalNodes>
        0 -1 47133 1.0525774210691452e-02</internalNodes>
      <leafValues>
        -2.2030745446681976e-01 9.5375202596187592e-02</leafValues></_>
    <_>
      <internalNodes>
        0 -1 38514 3.1693212687969208e-02</internalNodes>
      <leafValues>
        -8.7791852653026581e-02 2.1052505075931549e-01</leafValues></_>
    <_>
      <internalNodes>
        0 -1 56957 -8.5225924849510193e-03</internalNodes>
      <leafValues>
        2.5896599888801575e-01 -8.9259758591651917e-02</leafValues></_>
    <_>
      <internalNodes>
        0 -1 52377 -5.8462331071496010e-04</internalNodes>
      <leafValues>
        2.2444494068622589e-01 -9.0507484972476959e-02</leafValues></_>
    <_>
      <internalNodes>
        0 -1 61953 -6.6566620953381062e-03</internalNodes>
      <leafValues>
        -6.3104468584060669e-01 3.4745201468467712e-02</leafValues></_>
    <_>
      <internalNodes>
        0 -1 66093 -2.9522359836846590e-03</internalNodes>
      <leafValues>
        -2.8008815646171570e-01 5.9139609336853027e-02</leafValues></_>
    <_>
      <internalNodes>
        0 -1 58804 4.4029541313648224e-03</internalNodes>
      <leafValues>
        -1.3343748450279236e-01 1.4167691767215729e-01</leafValues></_>
    <_>
      <internalNodes>
        0 -1 52054 -1.3719091191887856e-02</internalNodes>
      <leafValues>
        -5.3429818153381348e-01 3.5602923482656479e-02</leafValues></_>
    <_>
      <internalNodes>
        0 -1 22384 -2.6726745069026947e-02</internalNodes>
      <leafValues>
        5.5964934825897217e-01 -3.4335847944021225e-02</leafValues></_>
    <_>
      <internalNodes>
        0 -1 7419 -7.2872765362262726e-02</internalNodes>
      <leafValues>
        5.7903492450714111e-01 -2.6209026575088501e-02</leafValues></_>
    <_>
      <internalNodes>
        0 -1 53552 -3.3727265894412994e-02</internalNodes>
      <leafValues>
        -4.0926706790924072e-01 4.3078038841485977e-02</leafValues></_>
    <_>
      <internalNodes>
        0 -1 62101 -1.9070640206336975e-02</internalNodes>
      <leafValues>
        3.9854323863983154e-01 -4.3433081358671188e-02</leafValues></_>
    <_>
      <internalNodes>
        0 -1 61023 3.0553215183317661e-03</internalNodes>
      <leafValues>
        5.3126335144042969e-02 -3.0041712522506714e-01</leafValues></_>
    <_>
      <internalNodes>
        0 -1 61023 3.1715311342850327e-04</internalNodes>
      <leafValues>
        -1.4236022531986237e-01 1.4819067716598511e-01</leafValues></_>
    <_>
      <internalNodes>
        0 -1 56923 -4.0250038728117943e-03</internalNodes>
      <leafValues>
        -2.5929108262062073e-01 6.5505936741828918e-02</leafValues></_>
    <_>
      <internalNodes>
        0 -1 58347 -3.5380129702389240e-04</internalNodes>
      <leafValues>
        1.4596779644489288e-01 -1.1438475549221039e-01</leafValues></_>
    <_>
      <internalNodes>
        0 -1 54216 2.1163821220397949e-03</internalNodes>
      <leafValues>
        -1.1122951656579971e-01 1.7064394056797028e-01</leafValues></_>
    <_>
      <internalNodes>
        0 -1 7163 -8.3683803677558899e-03</internalNodes>
      <leafValues>
        -3.1193017959594727e-01 5.8685231953859329e-02</leafValues></_>
    <_>
      <internalNodes>
        0 -1 7148 1.9740548450499773e-03</internalNodes>
      <leafValues>
        7.4684277176856995e-02 -2.2278648614883423e-01</leafValues></_>
    <_>
      <internalNodes>
        0 -1 33621 -1.1471105972304940e-03</internalNodes>
      <leafValues>
        2.3552936315536499e-01 -7.1481764316558838e-02</leafValues></_>
    <_>
      <internalNodes>
        0 -1 32501 7.5247031636536121e-03</internalNodes>
      <leafValues>
        -8.2246027886867523e-02 1.9927339255809784e-01</leafValues></_>
    <_>
      <internalNodes>
        0 -1 64728 1.1304698418825865e-03</internalNodes>
      <leafValues>
        -6.8186230957508087e-02 2.7503472566604614e-01</leafValues></_>
    <_>
      <internalNodes>
        0 -1 52384 4.0704220533370972e-02</internalNodes>
      <leafValues>
        -2.8789103031158447e-02 6.5408349037170410e-01</leafValues></_>
    <_>
      <internalNodes>
        0 -1 26367 -6.8462774157524109e-02</internalNodes>
      <leafValues>
        -4.6986684203147888e-01 3.7387739866971970e-02</leafValues></_>
    <_>
      <internalNodes>
        0 -1 49664 -3.1733280047774315e-04</internalNodes>
      <leafValues>
        1.4230301976203918e-01 -1.2210169434547424e-01</leafValues></_>
    <_>
      <internalNodes>
        0 -1 47346 -1.4287428930401802e-02</internalNodes>
      <leafValues>
        -8.6984437704086304e-01 2.1094111725687981e-02</leafValues></_>
    <_>
      <internalNodes>
        0 -1 54193 5.9040691703557968e-03</internalNodes>
      <leafValues>
        2.7155769988894463e-02 -4.9658486247062683e-01</leafValues></_>
    <_>
      <internalNodes>
        0 -1 4438 2.9529789462685585e-03</internalNodes>
      <leafValues>
        -1.2253776192665100e-01 1.4018626511096954e-01</leafValues></_>
    <_>
      <internalNodes>
        0 -1 5351 -3.0640996992588043e-02</internalNodes>
      <leafValues>
        4.8962384462356567e-01 -3.6410138010978699e-02</leafValues></_>
    <_>
      <internalNodes>
        0 -1 58230 2.3997595999389887e-03</internalNodes>
      <leafValues>
        4.2278401553630829e-02 -4.0136352181434631e-01</leafValues></_>
    <_>
      <internalNodes>
        0 -1 12333 4.4954128563404083e-02</internalNodes>
      <leafValues>
        -3.6873009055852890e-02 4.7518649697303772e-01</leafValues></_>
    <_>
      <internalNodes>
        0 -1 64731 1.0816364083439112e-03</internalNodes>
      <leafValues>
        -1.1738183349370956e-01 1.4589609205722809e-01</leafValues></_>
    <_>
      <internalNodes>
        0 -1 70432 1.3112192973494530e-03</internalNodes>
      <leafValues>
        -1.0925301164388657e-01 1.5040390193462372e-01</leafValues></_>
    <_>
      <internalNodes>
        0 -1 49263 -6.7485650070011616e-03</internalNodes>
      <leafValues>
        -2.6895871758460999e-01 5.8623779565095901e-02</leafValues></_>
    <_>
      <internalNodes>
        0 -1 8324 -5.2978741005063057e-03</internalNodes>
      <leafValues>
        -2.9446327686309814e-01 5.3730506449937820e-02</leafValues></_>
    <_>
      <internalNodes>
        0 -1 48308 7.1605682373046875e-02</internalNodes>
      <leafValues>
        -2.7481151744723320e-02 6.1593776941299438e-01</leafValues></_>
    <_>
      <internalNodes>
        0 -1 34508 -1.5497744083404541e-01</internalNodes>
      <leafValues>
        5.3090977668762207e-01 -2.8641095384955406e-02</leafValues></_>
    <_>
      <internalNodes>
        0 -1 60656 -7.4422240257263184e-02</internalNodes>
      <leafValues>
        -4.0780398249626160e-01 4.4873312115669250e-02</leafValues></_>
    <_>
      <internalNodes>
        0 -1 30021 1.3103032112121582e-01</internalNodes>
      <leafValues>
        -8.5108689963817596e-02 2.2539940476417542e-01</leafValues></_>
    <_>
      <internalNodes>
        0 -1 68340 5.9896088205277920e-03</internalNodes>
      <leafValues>
        2.6216516271233559e-02 -6.7886173725128174e-01</leafValues></_>
    <_>
      <internalNodes>
        0 -1 54212 8.6234655464068055e-04</internalNodes>
      <leafValues>
        -1.1503560096025467e-01 1.5517891943454742e-01</leafValues></_></weakClassifiers></stage15>
</opencv_storage>
