<?xml version="1.0"?>
<opencv_storage>
<stage7>
  <maxWeakCount>22</maxWeakCount>
  <stageThreshold>-1.0061461925506592e+00</stageThreshold>
  <weakClassifiers>
    <_>
      <internalNodes>
        0 -1 25931 7.9939447343349457e-02</internalNodes>
      <leafValues>
        -1.6329197213053703e-02 7.3449403047561646e-01</leafValues></_>
    <_>
      <internalNodes>
        0 -1 58155 -1.1482496745884418e-02</internalNodes>
      <leafValues>
        4.5437791943550110e-01 -1.8771664798259735e-01</leafValues></_>
    <_>
      <internalNodes>
        0 -1 44659 3.0593678820878267e-04</internalNodes>
      <leafValues>
        -2.4652856588363647e-01 2.8773403167724609e-01</leafValues></_>
    <_>
      <internalNodes>
        0 -1 49381 -6.0815573669970036e-03</internalNodes>
      <leafValues>
        -8.5868471860885620e-01 4.3476462364196777e-02</leafValues></_>
    <_>
      <internalNodes>
        0 -1 39506 1.6800068551674485e-03</internalNodes>
      <leafValues>
        -2.2344897687435150e-01 3.0478212237358093e-01</leafValues></_>
    <_>
      <internalNodes>
        0 -1 57500 -7.4471337720751762e-03</internalNodes>
      <leafValues>
        1.8613061308860779e-01 -3.8238352537155151e-01</leafValues></_>
    <_>
      <internalNodes>
        0 -1 65539 4.5141270384192467e-03</internalNodes>
      <leafValues>
        7.3111169040203094e-02 -8.1877666711807251e-01</leafValues></_>
    <_>
      <internalNodes>
        0 -1 49693 -5.5757500231266022e-03</internalNodes>
      <leafValues>
        -8.3558756113052368e-01 6.5120063722133636e-02</leafValues></_>
    <_>
      <internalNodes>
        0 -1 7205 2.0326312631368637e-02</internalNodes>
      <leafValues>
        -1.7763245105743408e-01 3.9800271391868591e-01</leafValues></_>
    <_>
      <internalNodes>
        0 -1 75532 5.0444984808564186e-03</internalNodes>
      <leafValues>
        -2.6894870400428772e-01 2.6008340716362000e-01</leafValues></_>
    <_>
      <internalNodes>
        0 -1 25561 -2.9910162091255188e-02</internalNodes>
      <leafValues>
        -6.3443809747695923e-01 1.1839729547500610e-01</leafValues></_>
    <_>
      <internalNodes>
        0 -1 36531 -2.5163546204566956e-02</internalNodes>
      <leafValues>
        -6.3236904144287109e-01 9.7679726779460907e-02</leafValues></_>
    <_>
      <internalNodes>
        0 -1 26143 -1.9088931148871779e-03</internalNodes>
      <leafValues>
        3.1228223443031311e-01 -2.2190603613853455e-01</leafValues></_>
    <_>
      <internalNodes>
        0 -1 64530 -3.4982230863533914e-04</internalNodes>
      <leafValues>
        2.0604869723320007e-01 -3.6871507763862610e-01</leafValues></_>
    <_>
      <internalNodes>
        0 -1 65674 2.0323074422776699e-03</internalNodes>
      <leafValues>
        -1.5935999155044556e-01 3.9469495415687561e-01</leafValues></_>
    <_>
      <internalNodes>
        0 -1 65342 -7.4335522949695587e-03</internalNodes>
      <leafValues>
        -6.8155986070632935e-01 1.0618428885936737e-01</leafValues></_>
    <_>
      <internalNodes>
        0 -1 19353 -1.6706392168998718e-02</internalNodes>
      <leafValues>
        -5.7629126310348511e-01 9.0718254446983337e-02</leafValues></_>
    <_>
      <internalNodes>
        0 -1 64551 -1.9031640142202377e-02</internalNodes>
      <leafValues>
        -7.9435247182846069e-01 6.4732410013675690e-02</leafValues></_>
    <_>
      <internalNodes>
        0 -1 64546 -1.0867078090086579e-03</internalNodes>
      <leafValues>
        1.1211515963077545e-01 -4.7028288245201111e-01</leafValues></_>
    <_>
      <internalNodes>
        0 -1 49665 -9.8292250186204910e-04</internalNodes>
      <leafValues>
        -5.1987397670745850e-01 1.0350167006254196e-01</leafValues></_>
    <_>
      <internalNodes>
        0 -1 44833 1.7623545136302710e-03</internalNodes>
      <leafValues>
        -1.8476451933383942e-01 3.2626509666442871e-01</leafValues></_>
    <_>
      <internalNodes>
        0 -1 20368 -1.3086219318211079e-02</internalNodes>
      <leafValues>
        5.0792998075485229e-01 -1.2619724869728088e-01</leafValues></_></weakClassifiers></stage7>
</opencv_storage>
