<?xml version="1.0"?>
<opencv_storage>
<stage7>
  <maxWeakCount>100</maxWeakCount>
  <stageThreshold>-1.0515066385269165e+00</stageThreshold>
  <weakClassifiers>
    <_>
      <internalNodes>
        0 -1 171781 1.1490166187286377e-01</internalNodes>
      <leafValues>
        -5.4508328437805176e-01 -3.7974681705236435e-02</leafValues></_>
    <_>
      <internalNodes>
        0 -1 233242 2.9526604339480400e-02</internalNodes>
      <leafValues>
        -1.1545272916555405e-01 2.4683736264705658e-01</leafValues></_>
    <_>
      <internalNodes>
        0 -1 11533 1.5673955902457237e-02</internalNodes>
      <leafValues>
        -8.7130643427371979e-02 2.0166145265102386e-01</leafValues></_>
    <_>
      <internalNodes>
        0 -1 186531 1.9917920231819153e-02</internalNodes>
      <leafValues>
        -5.3120460361242294e-02 2.7935323119163513e-01</leafValues></_>
    <_>
      <internalNodes>
        0 -1 143014 -6.7897409200668335e-02</internalNodes>
      <leafValues>
        -4.8357042670249939e-01 2.8713280335068703e-02</leafValues></_>
    <_>
      <internalNodes>
        0 -1 172939 1.2460166588425636e-02</internalNodes>
      <leafValues>
        -6.6049017012119293e-02 2.0521309971809387e-01</leafValues></_>
    <_>
      <internalNodes>
        0 -1 176772 -2.7313167229294777e-03</internalNodes>
      <leafValues>
        -2.9267910122871399e-01 3.9811246097087860e-02</leafValues></_>
    <_>
      <internalNodes>
        0 -1 219637 -1.5976496506482363e-03</internalNodes>
      <leafValues>
        2.3372645676136017e-01 -4.4233929365873337e-02</leafValues></_>
    <_>
      <internalNodes>
        0 -1 266688 -3.2427281141281128e-02</internalNodes>
      <leafValues>
        -1. -2.1509944926947355e-03</leafValues></_>
    <_>
      <internalNodes>
        0 -1 281778 -3.1088935211300850e-03</internalNodes>
      <leafValues>
        -5.6528544425964355e-01 2.3755405098199844e-02</leafValues></_>
    <_>
      <internalNodes>
        0 -1 172360 1.2944807531312108e-03</internalNodes>
      <leafValues>
        -7.9179190099239349e-02 2.0789097249507904e-01</leafValues></_>
    <_>
      <internalNodes>
        0 -1 214889 2.6351439300924540e-03</internalNodes>
      <leafValues>
        -6.0786325484514236e-02 1.9811178743839264e-01</leafValues></_>
    <_>
      <internalNodes>
        0 -1 10301 -1.6454033553600311e-02</internalNodes>
      <leafValues>
        -3.2722070813179016e-01 3.2111547887325287e-02</leafValues></_>
    <_>
      <internalNodes>
        0 -1 200034 -1.1144967284053564e-03</internalNodes>
      <leafValues>
        2.3219645023345947e-01 -6.7316934466362000e-02</leafValues></_>
    <_>
      <internalNodes>
        0 -1 37511 -7.2147970786318183e-04</internalNodes>
      <leafValues>
        -2.5856658816337585e-01 5.9489697217941284e-02</leafValues></_>
    <_>
      <internalNodes>
        0 -1 191564 4.5801931992173195e-03</internalNodes>
      <leafValues>
        4.6607259660959244e-02 -2.9186743497848511e-01</leafValues></_>
    <_>
      <internalNodes>
        0 -1 157692 3.0566318891942501e-03</internalNodes>
      <leafValues>
        1.4440153725445271e-02 -9.5752203464508057e-01</leafValues></_>
    <_>
      <internalNodes>
        0 -1 200831 -1.5323303639888763e-02</internalNodes>
      <leafValues>
        -5.3851157426834106e-01 2.0194897428154945e-02</leafValues></_>
    <_>
      <internalNodes>
        0 -1 200804 9.8284762352705002e-03</internalNodes>
      <leafValues>
        3.4537550061941147e-02 -3.8104417920112610e-01</leafValues></_>
    <_>
      <internalNodes>
        0 -1 139741 -3.3226967789232731e-03</internalNodes>
      <leafValues>
        -9.4719898700714111e-01 1.1688929051160812e-02</leafValues></_>
    <_>
      <internalNodes>
        0 -1 189834 -5.2306717261672020e-03</internalNodes>
      <leafValues>
        1.6873688995838165e-01 -8.6502194404602051e-02</leafValues></_>
    <_>
      <internalNodes>
        0 -1 173306 2.7126733213663101e-02</internalNodes>
      <leafValues>
        -6.6451333463191986e-02 2.0487314462661743e-01</leafValues></_>
    <_>
      <internalNodes>
        0 -1 160090 -2.0104117691516876e-02</internalNodes>
      <leafValues>
        2.8102082014083862e-01 -6.2362078577280045e-02</leafValues></_>
    <_>
      <internalNodes>
        0 -1 219934 7.4379425495862961e-03</internalNodes>
      <leafValues>
        -5.5604778230190277e-02 2.7485537528991699e-01</leafValues></_>
    <_>
      <internalNodes>
        0 -1 160198 -6.6663371399044991e-03</internalNodes>
      <leafValues>
        -1.4350868761539459e-01 9.9900558590888977e-02</leafValues></_>
    <_>
      <internalNodes>
        0 -1 205105 4.8487013555131853e-04</internalNodes>
      <leafValues>
        -8.3759069442749023e-02 1.7761628329753876e-01</leafValues></_>
    <_>
      <internalNodes>
        0 -1 304514 6.9995103403925896e-03</internalNodes>
      <leafValues>
        -3.6053866147994995e-02 4.1272705793380737e-01</leafValues></_>
    <_>
      <internalNodes>
        0 -1 261471 -3.1646480783820152e-03</internalNodes>
      <leafValues>
        -8.4785860776901245e-01 1.7802828922867775e-02</leafValues></_>
    <_>
      <internalNodes>
        0 -1 62970 -2.6218531653285027e-02</internalNodes>
      <leafValues>
        1.7847657203674316e-01 -7.9502522945404053e-02</leafValues></_>
    <_>
      <internalNodes>
        0 -1 295682 2.4135225976351649e-04</internalNodes>
      <leafValues>
        -9.3267939984798431e-02 1.4458504319190979e-01</leafValues></_>
    <_>
      <internalNodes>
        0 -1 295930 -2.3795296438038349e-03</internalNodes>
      <leafValues>
        -5.0125974416732788e-01 2.8165310621261597e-02</leafValues></_>
    <_>
      <internalNodes>
        0 -1 239918 -7.0907743647694588e-03</internalNodes>
      <leafValues>
        -4.9507743120193481e-01 2.6005443185567856e-02</leafValues></_>
    <_>
      <internalNodes>
        0 -1 296004 -1.2945843860507011e-02</internalNodes>
      <leafValues>
        3.6898627877235413e-01 -4.2682036757469177e-02</leafValues></_>
    <_>
      <internalNodes>
        0 -1 231499 4.9268142320215702e-03</internalNodes>
      <leafValues>
        6.2963068485260010e-02 -2.2032441198825836e-01</leafValues></_>
    <_>
      <internalNodes>
        0 -1 168401 1.1685091303661466e-03</internalNodes>
      <leafValues>
        -1.1090034991502762e-01 1.2789119780063629e-01</leafValues></_>
    <_>
      <internalNodes>
        0 -1 134508 1.6847573220729828e-02</internalNodes>
      <leafValues>
        9.4836674630641937e-02 -1.5182121098041534e-01</leafValues></_>
    <_>
      <internalNodes>
        0 -1 203241 6.8776034750044346e-03</internalNodes>
      <leafValues>
        -8.7061956524848938e-02 1.6419228911399841e-01</leafValues></_>
    <_>
      <internalNodes>
        0 -1 253350 -3.5280451178550720e-02</internalNodes>
      <leafValues>
        -3.6229074001312256e-01 3.7823613733053207e-02</leafValues></_>
    <_>
      <internalNodes>
        0 -1 129238 8.7996311485767365e-03</internalNodes>
      <leafValues>
        -4.8401687294244766e-02 3.0313056707382202e-01</leafValues></_>
    <_>
      <internalNodes>
        0 -1 270001 2.2257339209318161e-02</internalNodes>
      <leafValues>
        -4.6480320394039154e-02 3.2256537675857544e-01</leafValues></_>
    <_>
      <internalNodes>
        0 -1 23511 1.6390986740589142e-02</internalNodes>
      <leafValues>
        -4.7734018415212631e-02 3.0923569202423096e-01</leafValues></_>
    <_>
      <internalNodes>
        0 -1 125169 -4.4301915913820267e-02</internalNodes>
      <leafValues>
        -4.4981044530868530e-01 3.3477097749710083e-02</leafValues></_>
    <_>
      <internalNodes>
        0 -1 45284 1.7573805525898933e-03</internalNodes>
      <leafValues>
        -1.1186441779136658e-01 1.2732717394828796e-01</leafValues></_>
    <_>
      <internalNodes>
        0 -1 218499 1.2239594943821430e-03</internalNodes>
      <leafValues>
        -6.8732112646102905e-02 1.9966620206832886e-01</leafValues></_>
    <_>
      <internalNodes>
        0 -1 20598 -7.2733252309262753e-03</internalNodes>
      <leafValues>
        -2.1143832802772522e-01 6.5816476941108704e-02</leafValues></_>
    <_>
      <internalNodes>
        0 -1 69760 -2.7831727638840675e-02</internalNodes>
      <leafValues>
        -7.6567184925079346e-01 1.6928903758525848e-02</leafValues></_>
    <_>
      <internalNodes>
        0 -1 173568 -2.5064870715141296e-02</internalNodes>
      <leafValues>
        2.0210723578929901e-01 -6.9903105497360229e-02</leafValues></_>
    <_>
      <internalNodes>
        0 -1 204543 -4.3177633779123425e-04</internalNodes>
      <leafValues>
        1.2814934551715851e-01 -1.2998525798320770e-01</leafValues></_>
    <_>
      <internalNodes>
        0 -1 244366 1.1568382382392883e-02</internalNodes>
      <leafValues>
        -7.3786079883575439e-02 1.8443873524665833e-01</leafValues></_>
    <_>
      <internalNodes>
        0 -1 141000 6.9165028631687164e-02</internalNodes>
      <leafValues>
        3.8665514439344406e-02 -3.7655591964721680e-01</leafValues></_>
    <_>
      <internalNodes>
        0 -1 301117 9.5535386353731155e-03</internalNodes>
      <leafValues>
        1.4611426740884781e-02 -8.0088973045349121e-01</leafValues></_>
    <_>
      <internalNodes>
        0 -1 255069 4.8140180297195911e-03</internalNodes>
      <leafValues>
        1.1599187739193439e-02 -8.5148495435714722e-01</leafValues></_>
    <_>
      <internalNodes>
        0 -1 145556 1.1538644321262836e-03</internalNodes>
      <leafValues>
        3.5220250487327576e-02 -3.4834855794906616e-01</leafValues></_>
    <_>
      <internalNodes>
        0 -1 133988 -4.3032709509134293e-02</internalNodes>
      <leafValues>
        3.1051480770111084e-01 -4.3772228062152863e-02</leafValues></_>
    <_>
      <internalNodes>
        0 -1 102775 2.6308597996830940e-02</internalNodes>
      <leafValues>
        -1.1994120478630066e-01 1.3700661063194275e-01</leafValues></_>
    <_>
      <internalNodes>
        0 -1 302160 -1.3255102559924126e-02</internalNodes>
      <leafValues>
        5.7342606782913208e-01 -2.4729700759053230e-02</leafValues></_>
    <_>
      <internalNodes>
        0 -1 230392 -5.1023354753851891e-03</internalNodes>
      <leafValues>
        -2.4098962545394897e-01 6.3346214592456818e-02</leafValues></_>
    <_>
      <internalNodes>
        0 -1 169942 6.4389933831989765e-03</internalNodes>
      <leafValues>
        -1.0728684067726135e-01 1.4134305715560913e-01</leafValues></_>
    <_>
      <internalNodes>
        0 -1 71638 1.6053909435868263e-02</internalNodes>
      <leafValues>
        -5.2435476332902908e-02 2.8103682398796082e-01</leafValues></_>
    <_>
      <internalNodes>
        0 -1 13250 3.0431461054831743e-03</internalNodes>
      <leafValues>
        9.9908202886581421e-02 -1.3565538823604584e-01</leafValues></_>
    <_>
      <internalNodes>
        0 -1 89952 4.2318735271692276e-02</internalNodes>
      <leafValues>
        3.3476758748292923e-02 -4.0098473429679871e-01</leafValues></_>
    <_>
      <internalNodes>
        0 -1 214352 -2.3064271081238985e-03</internalNodes>
      <leafValues>
        1.4851853251457214e-01 -9.9271446466445923e-02</leafValues></_>
    <_>
      <internalNodes>
        0 -1 246780 -1.0478723794221878e-02</internalNodes>
      <leafValues>
        -1.8191981315612793e-01 7.7108785510063171e-02</leafValues></_>
    <_>
      <internalNodes>
        0 -1 291515 5.9766613412648439e-04</internalNodes>
      <leafValues>
        6.5267495810985565e-02 -2.2410923242568970e-01</leafValues></_>
    <_>
      <internalNodes>
        0 -1 280224 -3.0467057600617409e-02</internalNodes>
      <leafValues>
        4.5119494199752808e-01 -3.2014254480600357e-02</leafValues></_>
    <_>
      <internalNodes>
        0 -1 279485 -4.9423065502196550e-04</internalNodes>
      <leafValues>
        1.8949343264102936e-01 -7.2895966470241547e-02</leafValues></_>
    <_>
      <internalNodes>
        0 -1 59817 5.0816435366868973e-02</internalNodes>
      <leafValues>
        -3.4980591386556625e-02 4.0305703878402710e-01</leafValues></_>
    <_>
      <internalNodes>
        0 -1 105535 3.2145462930202484e-02</internalNodes>
      <leafValues>
        6.7647859454154968e-02 -2.1089847385883331e-01</leafValues></_>
    <_>
      <internalNodes>
        0 -1 86761 -6.1703631654381752e-03</internalNodes>
      <leafValues>
        2.0493605732917786e-01 -7.8322924673557281e-02</leafValues></_>
    <_>
      <internalNodes>
        0 -1 295424 -2.2230143658816814e-03</internalNodes>
      <leafValues>
        -3.7357798218727112e-01 4.1053172200918198e-02</leafValues></_>
    <_>
      <internalNodes>
        0 -1 301975 -1.1975401081144810e-02</internalNodes>
      <leafValues>
        3.4190580248832703e-01 -4.5427877455949783e-02</leafValues></_>
    <_>
      <internalNodes>
        0 -1 261467 -3.2212277874350548e-03</internalNodes>
      <leafValues>
        -4.8124209046363831e-01 3.0165990814566612e-02</leafValues></_>
    <_>
      <internalNodes>
        0 -1 149495 -6.0982862487435341e-03</internalNodes>
      <leafValues>
        2.4834586679935455e-01 -6.1703793704509735e-02</leafValues></_>
    <_>
      <internalNodes>
        0 -1 20243 4.5552638173103333e-01</internalNodes>
      <leafValues>
        -1.9123053178191185e-02 7.9288667440414429e-01</leafValues></_>
    <_>
      <internalNodes>
        0 -1 220147 -1.8082864116877317e-03</internalNodes>
      <leafValues>
        -4.2606440186500549e-01 3.6831542849540710e-02</leafValues></_>
    <_>
      <internalNodes>
        0 -1 302617 5.0947088311659172e-05</internalNodes>
      <leafValues>
        1.0115785151720047e-01 -1.4341422915458679e-01</leafValues></_>
    <_>
      <internalNodes>
        0 -1 300683 -2.3197946138679981e-03</internalNodes>
      <leafValues>
        1.9857425987720490e-01 -6.9022178649902344e-02</leafValues></_>
    <_>
      <internalNodes>
        0 -1 6781 -2.9608809947967529e-01</internalNodes>
      <leafValues>
        5.0960785150527954e-01 -2.9676191508769989e-02</leafValues></_>
    <_>
      <internalNodes>
        0 -1 80797 -1.4490443468093872e-01</internalNodes>
      <leafValues>
        -2.6606836915016174e-01 7.3795191943645477e-02</leafValues></_>
    <_>
      <internalNodes>
        0 -1 68810 -2.1286592818796635e-03</internalNodes>
      <leafValues>
        1.5586906671524048e-01 -8.7146848440170288e-02</leafValues></_>
    <_>
      <internalNodes>
        0 -1 31778 -8.3101196214556694e-03</internalNodes>
      <leafValues>
        4.3103376030921936e-01 -3.5312134772539139e-02</leafValues></_>
    <_>
      <internalNodes>
        0 -1 206418 3.2187174074351788e-03</internalNodes>
      <leafValues>
        2.5723619386553764e-02 -5.7387143373489380e-01</leafValues></_>
    <_>
      <internalNodes>
        0 -1 103933 -9.6272528171539307e-02</internalNodes>
      <leafValues>
        -3.9137306809425354e-01 3.3283840864896774e-02</leafValues></_>
    <_>
      <internalNodes>
        0 -1 263940 1.9437085837125778e-02</internalNodes>
      <leafValues>
        -4.1580207645893097e-02 3.8490518927574158e-01</leafValues></_>
    <_>
      <internalNodes>
        0 -1 306053 2.9969286173582077e-02</internalNodes>
      <leafValues>
        -6.0763470828533173e-02 2.4619609117507935e-01</leafValues></_>
    <_>
      <internalNodes>
        0 -1 91927 -3.3281235955655575e-03</internalNodes>
      <leafValues>
        -5.6095367670059204e-01 2.6362102478742599e-02</leafValues></_>
    <_>
      <internalNodes>
        0 -1 93299 6.1913998797535896e-03</internalNodes>
      <leafValues>
        -2.7751585468649864e-02 5.7358455657958984e-01</leafValues></_>
    <_>
      <internalNodes>
        0 -1 233341 2.1768407896161079e-03</internalNodes>
      <leafValues>
        -5.1290594041347504e-02 2.4871894717216492e-01</leafValues></_>
    <_>
      <internalNodes>
        0 -1 19238 -3.0134273692965508e-02</internalNodes>
      <leafValues>
        -6.4015156030654907e-01 2.1249394863843918e-02</leafValues></_>
    <_>
      <internalNodes>
        0 -1 21814 3.6484457552433014e-02</internalNodes>
      <leafValues>
        -4.5313525944948196e-02 3.0671632289886475e-01</leafValues></_>
    <_>
      <internalNodes>
        0 -1 44601 -1.0139749944210052e-01</internalNodes>
      <leafValues>
        -8.4042388200759888e-01 1.7022727057337761e-02</leafValues></_>
    <_>
      <internalNodes>
        0 -1 25181 -4.2020902037620544e-02</internalNodes>
      <leafValues>
        -7.1803140640258789e-01 1.4734741300344467e-02</leafValues></_>
    <_>
      <internalNodes>
        0 -1 170593 1.6180394217371941e-02</internalNodes>
      <leafValues>
        -9.7670085728168488e-02 1.5103416144847870e-01</leafValues></_>
    <_>
      <internalNodes>
        0 -1 161312 2.3582080379128456e-02</internalNodes>
      <leafValues>
        -3.1764902174472809e-02 5.0838154554367065e-01</leafValues></_>
    <_>
      <internalNodes>
        0 -1 279320 8.7516658008098602e-02</internalNodes>
      <leafValues>
        2.6325143873691559e-02 -5.6116187572479248e-01</leafValues></_>
    <_>
      <internalNodes>
        0 -1 133295 7.5712194666266441e-03</internalNodes>
      <leafValues>
        -1.0357440263032913e-01 1.3717123866081238e-01</leafValues></_>
    <_>
      <internalNodes>
        0 -1 283166 6.1745033599436283e-03</internalNodes>
      <leafValues>
        2.0746499300003052e-02 -6.6032695770263672e-01</leafValues></_>
    <_>
      <internalNodes>
        0 -1 300392 5.4852897301316261e-03</internalNodes>
      <leafValues>
        1.2712934985756874e-02 -8.1992852687835693e-01</leafValues></_>
    <_>
      <internalNodes>
        0 -1 300203 -1.7767089884728193e-03</internalNodes>
      <leafValues>
        1.2003748863935471e-01 -1.1508650332689285e-01</leafValues></_>
    <_>
      <internalNodes>
        0 -1 306466 -1.4106661546975374e-03</internalNodes>
      <leafValues>
        2.9118913412094116e-01 -4.8237137496471405e-02</leafValues></_></weakClassifiers></stage7>
</opencv_storage>
