<?xml version="1.0"?>
<opencv_storage>
<stage6>
  <maxWeakCount>74</maxWeakCount>
  <stageThreshold>-7.9695791006088257e-01</stageThreshold>
  <weakClassifiers>
    <_>
      <internalNodes>
        0 -1 25931 5.9719800949096680e-02</internalNodes>
      <leafValues>
        1.6380544006824493e-01 6.7094016075134277e-01</leafValues></_>
    <_>
      <internalNodes>
        0 -1 43733 -1.4137735590338707e-02</internalNodes>
      <leafValues>
        2.4179434776306152e-01 -1.9526605308055878e-01</leafValues></_>
    <_>
      <internalNodes>
        0 -1 70967 -3.8589161704294384e-04</internalNodes>
      <leafValues>
        2.0065203309059143e-01 -1.6547720134258270e-01</leafValues></_>
    <_>
      <internalNodes>
        0 -1 54197 -5.2655814215540886e-03</internalNodes>
      <leafValues>
        -5.6555390357971191e-01 5.1023401319980621e-02</leafValues></_>
    <_>
      <internalNodes>
        0 -1 37226 -2.9082808643579483e-02</internalNodes>
      <leafValues>
        -3.7779310345649719e-01 7.4085354804992676e-02</leafValues></_>
    <_>
      <internalNodes>
        0 -1 37173 2.0961090922355652e-02</internalNodes>
      <leafValues>
        -1.4293032884597778e-01 3.0627557635307312e-01</leafValues></_>
    <_>
      <internalNodes>
        0 -1 56957 -5.1773590967059135e-03</internalNodes>
      <leafValues>
        2.9487469792366028e-01 -1.0166786611080170e-01</leafValues></_>
    <_>
      <internalNodes>
        0 -1 55747 -7.7731409110128880e-03</internalNodes>
      <leafValues>
        -3.7941032648086548e-01 5.0669189542531967e-02</leafValues></_>
    <_>
      <internalNodes>
        0 -1 52959 1.7257507890462875e-02</internalNodes>
      <leafValues>
        5.4907582700252533e-02 -5.8874386548995972e-01</leafValues></_>
    <_>
      <internalNodes>
        0 -1 70969 9.1053906362503767e-04</internalNodes>
      <leafValues>
        -1.1490260809659958e-01 2.2556467354297638e-01</leafValues></_>
    <_>
      <internalNodes>
        0 -1 65602 -4.1963881812989712e-04</internalNodes>
      <leafValues>
        1.8455511331558228e-01 -1.3404420018196106e-01</leafValues></_>
    <_>
      <internalNodes>
        0 -1 60434 4.9490645527839661e-02</internalNodes>
      <leafValues>
        -8.4827072918415070e-02 2.7812138199806213e-01</leafValues></_>
    <_>
      <internalNodes>
        0 -1 26176 -9.8722930997610092e-03</internalNodes>
      <leafValues>
        -6.0472464561462402e-01 4.1273020207881927e-02</leafValues></_>
    <_>
      <internalNodes>
        0 -1 47937 1.8184669315814972e-02</internalNodes>
      <leafValues>
        2.9694836586713791e-02 -6.8695569038391113e-01</leafValues></_>
    <_>
      <internalNodes>
        0 -1 58236 6.3973441720008850e-03</internalNodes>
      <leafValues>
        -8.2084730267524719e-02 2.5204452872276306e-01</leafValues></_>
    <_>
      <internalNodes>
        0 -1 62073 -1.0281472932547331e-03</internalNodes>
      <leafValues>
        1.8877977132797241e-01 -1.2009160220623016e-01</leafValues></_>
    <_>
      <internalNodes>
        0 -1 58251 1.7288541421294212e-03</internalNodes>
      <leafValues>
        -1.4353895187377930e-01 2.1123129129409790e-01</leafValues></_>
    <_>
      <internalNodes>
        0 -1 65435 4.0203966200351715e-03</internalNodes>
      <leafValues>
        3.8307972252368927e-02 -5.5397224426269531e-01</leafValues></_>
    <_>
      <internalNodes>
        0 -1 65438 -4.9112141132354736e-03</internalNodes>
      <leafValues>
        -6.1257839202880859e-01 3.0780563130974770e-02</leafValues></_>
    <_>
      <internalNodes>
        0 -1 64897 -4.8323720693588257e-04</internalNodes>
      <leafValues>
        1.6973422467708588e-01 -1.2002290785312653e-01</leafValues></_>
    <_>
      <internalNodes>
        0 -1 47609 -1.6144474502652884e-03</internalNodes>
      <leafValues>
        1.8461266160011292e-01 -1.1632477492094040e-01</leafValues></_>
    <_>
      <internalNodes>
        0 -1 48746 1.0723719606176019e-03</internalNodes>
      <leafValues>
        -1.1165387928485870e-01 1.9005204737186432e-01</leafValues></_>
    <_>
      <internalNodes>
        0 -1 64744 -1.6044240444898605e-02</internalNodes>
      <leafValues>
        -5.5322623252868652e-01 3.7153091281652451e-02</leafValues></_>
    <_>
      <internalNodes>
        0 -1 23018 -2.9050538316369057e-02</internalNodes>
      <leafValues>
        2.9539689421653748e-01 -7.0679448544979095e-02</leafValues></_>
    <_>
      <internalNodes>
        0 -1 52773 1.5620863996446133e-02</internalNodes>
      <leafValues>
        -7.0067748427391052e-02 2.8545030951499939e-01</leafValues></_>
    <_>
      <internalNodes>
        0 -1 37399 -9.3103013932704926e-03</internalNodes>
      <leafValues>
        -1.9171141088008881e-01 1.0814814269542694e-01</leafValues></_>
    <_>
      <internalNodes>
        0 -1 70705 1.5945207327604294e-02</internalNodes>
      <leafValues>
        3.2128892838954926e-02 -5.6798726320266724e-01</leafValues></_>
    <_>
      <internalNodes>
        0 -1 44560 1.0154323652386665e-02</internalNodes>
      <leafValues>
        5.5690262466669083e-02 -3.1752130389213562e-01</leafValues></_>
    <_>
      <internalNodes>
        0 -1 68310 -3.0710563063621521e-02</internalNodes>
      <leafValues>
        2.3729898035526276e-01 -8.9963413774967194e-02</leafValues></_>
    <_>
      <internalNodes>
        0 -1 25769 -1.3018901227042079e-03</internalNodes>
      <leafValues>
        1.7034798860549927e-01 -1.1099869012832642e-01</leafValues></_>
    <_>
      <internalNodes>
        0 -1 39524 -7.5627127662301064e-03</internalNodes>
      <leafValues>
        2.3522810637950897e-01 -8.4508389234542847e-02</leafValues></_>
    <_>
      <internalNodes>
        0 -1 32949 -3.5451198928058147e-03</internalNodes>
      <leafValues>
        1.8468731641769409e-01 -1.0844621807336807e-01</leafValues></_>
    <_>
      <internalNodes>
        0 -1 49645 5.0162589177489281e-03</internalNodes>
      <leafValues>
        -1.2979598343372345e-01 1.9014391303062439e-01</leafValues></_>
    <_>
      <internalNodes>
        0 -1 48417 -6.9379024207592010e-02</internalNodes>
      <leafValues>
        -4.3398341536521912e-01 5.0295211374759674e-02</leafValues></_>
    <_>
      <internalNodes>
        0 -1 31594 1.0251242667436600e-02</internalNodes>
      <leafValues>
        4.7147400677204132e-02 -4.1975659132003784e-01</leafValues></_>
    <_>
      <internalNodes>
        0 -1 43809 1.0213437490165234e-03</internalNodes>
      <leafValues>
        -1.0488186031579971e-01 2.0458142459392548e-01</leafValues></_>
    <_>
      <internalNodes>
        0 -1 57719 3.4003559499979019e-02</internalNodes>
      <leafValues>
        -5.1433671265840530e-02 3.7238693237304688e-01</leafValues></_>
    <_>
      <internalNodes>
        0 -1 32049 -1.0637734085321426e-02</internalNodes>
      <leafValues>
        2.0540569722652435e-01 -1.0309711098670959e-01</leafValues></_>
    <_>
      <internalNodes>
        0 -1 53454 -1.0332847014069557e-02</internalNodes>
      <leafValues>
        -6.0105144977569580e-01 3.3146876841783524e-02</leafValues></_>
    <_>
      <internalNodes>
        0 -1 57396 -6.3472567126154900e-03</internalNodes>
      <leafValues>
        -5.0195795297622681e-01 3.6667406558990479e-02</leafValues></_>
    <_>
      <internalNodes>
        0 -1 64537 2.3708334192633629e-03</internalNodes>
      <leafValues>
        -1.0198543220758438e-01 1.9464153051376343e-01</leafValues></_>
    <_>
      <internalNodes>
        0 -1 64728 -5.9585820417851210e-04</internalNodes>
      <leafValues>
        1.8996402621269226e-01 -1.1555062234401703e-01</leafValues></_>
    <_>
      <internalNodes>
        0 -1 48612 2.7481755241751671e-03</internalNodes>
      <leafValues>
        -1.2269373238086700e-01 1.9809934496879578e-01</leafValues></_>
    <_>
      <internalNodes>
        0 -1 39162 -9.9839363247156143e-03</internalNodes>
      <leafValues>
        -5.2922499179840088e-01 3.9627891033887863e-02</leafValues></_>
    <_>
      <internalNodes>
        0 -1 44085 -1.2750642374157906e-02</internalNodes>
      <leafValues>
        -6.0623967647552490e-01 3.0225967988371849e-02</leafValues></_>
    <_>
      <internalNodes>
        0 -1 46894 -1.7612922936677933e-02</internalNodes>
      <leafValues>
        -7.2233146429061890e-01 2.3632936179637909e-02</leafValues></_>
    <_>
      <internalNodes>
        0 -1 45035 9.6489838324487209e-04</internalNodes>
      <leafValues>
        -9.9112637341022491e-02 1.9578301906585693e-01</leafValues></_>
    <_>
      <internalNodes>
        0 -1 31670 1.1683387681841850e-02</internalNodes>
      <leafValues>
        3.5608302801847458e-02 -5.5344736576080322e-01</leafValues></_>
    <_>
      <internalNodes>
        0 -1 37886 1.2494746595621109e-02</internalNodes>
      <leafValues>
        -5.8819871395826340e-02 3.3168804645538330e-01</leafValues></_>
    <_>
      <internalNodes>
        0 -1 65205 -3.8922175299376249e-03</internalNodes>
      <leafValues>
        -5.9908270835876465e-01 3.3070296049118042e-02</leafValues></_>
    <_>
      <internalNodes>
        0 -1 19651 -5.3525804542005062e-03</internalNodes>
      <leafValues>
        1.7804557085037231e-01 -1.0616436600685120e-01</leafValues></_>
    <_>
      <internalNodes>
        0 -1 73147 -8.4328907541930676e-04</internalNodes>
      <leafValues>
        1.9473847746849060e-01 -1.0371417552232742e-01</leafValues></_>
    <_>
      <internalNodes>
        0 -1 75886 -5.6299477815628052e-02</internalNodes>
      <leafValues>
        5.9620058536529541e-01 -3.0237570405006409e-02</leafValues></_>
    <_>
      <internalNodes>
        0 -1 72618 1.2935675680637360e-02</internalNodes>
      <leafValues>
        -8.3669163286685944e-02 2.1123491227626801e-01</leafValues></_>
    <_>
      <internalNodes>
        0 -1 65464 -1.0184926912188530e-02</internalNodes>
      <leafValues>
        2.2012878954410553e-01 -8.2578249275684357e-02</leafValues></_>
    <_>
      <internalNodes>
        0 -1 33818 -1.4415236655622721e-03</internalNodes>
      <leafValues>
        1.8898110091686249e-01 -1.0163354873657227e-01</leafValues></_>
    <_>
      <internalNodes>
        0 -1 27521 1.2417640537023544e-02</internalNodes>
      <leafValues>
        -9.8891556262969971e-02 2.0081132650375366e-01</leafValues></_>
    <_>
      <internalNodes>
        0 -1 20629 -1.2238078750669956e-02</internalNodes>
      <leafValues>
        -4.0209332108497620e-01 4.5182190835475922e-02</leafValues></_>
    <_>
      <internalNodes>
        0 -1 44659 4.3635973706841469e-03</internalNodes>
      <leafValues>
        3.2237127423286438e-02 -5.2577686309814453e-01</leafValues></_>
    <_>
      <internalNodes>
        0 -1 60532 -5.7049905881285667e-03</internalNodes>
      <leafValues>
        -5.5107986927032471e-01 2.9509568586945534e-02</leafValues></_>
    <_>
      <internalNodes>
        0 -1 60787 -6.4851331990212202e-04</internalNodes>
      <leafValues>
        1.7610728740692139e-01 -1.1165173351764679e-01</leafValues></_>
    <_>
      <internalNodes>
        0 -1 60791 5.2735768258571625e-03</internalNodes>
      <leafValues>
        2.3525195196270943e-02 -8.0089467763900757e-01</leafValues></_>
    <_>
      <internalNodes>
        0 -1 18453 2.2203875705599785e-02</internalNodes>
      <leafValues>
        3.0811503529548645e-02 -4.7454714775085449e-01</leafValues></_>
    <_>
      <internalNodes>
        0 -1 44657 3.4230598248541355e-04</internalNodes>
      <leafValues>
        -1.1052340269088745e-01 1.6834226250648499e-01</leafValues></_>
    <_>
      <internalNodes>
        0 -1 17225 7.0094768889248371e-03</internalNodes>
      <leafValues>
        -8.6556039750576019e-02 1.9186691939830780e-01</leafValues></_>
    <_>
      <internalNodes>
        0 -1 13308 -4.4330405071377754e-03</internalNodes>
      <leafValues>
        -5.8734619617462158e-01 2.8539046645164490e-02</leafValues></_>
    <_>
      <internalNodes>
        0 -1 44523 -3.7958619650453329e-03</internalNodes>
      <leafValues>
        1.7327101528644562e-01 -9.5389865338802338e-02</leafValues></_>
    <_>
      <internalNodes>
        0 -1 64201 1.6244914382696152e-02</internalNodes>
      <leafValues>
        3.4224249422550201e-02 -5.0644940137863159e-01</leafValues></_>
    <_>
      <internalNodes>
        0 -1 52332 6.3731963746249676e-04</internalNodes>
      <leafValues>
        -1.0635685175657272e-01 1.6003681719303131e-01</leafValues></_>
    <_>
      <internalNodes>
        0 -1 73159 -8.8330060243606567e-03</internalNodes>
      <leafValues>
        -3.8175964355468750e-01 4.7026336193084717e-02</leafValues></_>
    <_>
      <internalNodes>
        0 -1 48509 1.6531603178009391e-03</internalNodes>
      <leafValues>
        -1.0449857264757156e-01 1.5139088034629822e-01</leafValues></_>
    <_>
      <internalNodes>
        0 -1 3869 3.3589923381805420e-01</internalNodes>
      <leafValues>
        -3.3089287579059601e-02 5.1536738872528076e-01</leafValues></_>
    <_>
      <internalNodes>
        0 -1 57109 4.7044236212968826e-02</internalNodes>
      <leafValues>
        4.2159806936979294e-02 -4.6044781804084778e-01</leafValues></_>
    <_>
      <internalNodes>
        0 -1 1219 1.6459643840789795e-01</internalNodes>
      <leafValues>
        -3.4026075154542923e-02 4.8571035265922546e-01</leafValues></_></weakClassifiers></stage6>
</opencv_storage>
