<?xml version="1.0"?>
<opencv_storage>
<stage4>
  <maxWeakCount>100</maxWeakCount>
  <stageThreshold>-9.6269088983535767e-01</stageThreshold>
  <weakClassifiers>
    <_>
      <internalNodes>
        0 -1 157527 8.5329890251159668e-02</internalNodes>
      <leafValues>
        -5.4328262805938721e-01 8.4745764732360840e-02</leafValues></_>
    <_>
      <internalNodes>
        0 -1 227559 -5.3068166598677635e-03</internalNodes>
      <leafValues>
        1.1007787287235260e-01 -1.8022947013378143e-01</leafValues></_>
    <_>
      <internalNodes>
        0 -1 300585 -2.0217817276716232e-02</internalNodes>
      <leafValues>
        2.2438539564609528e-01 -7.5474172830581665e-02</leafValues></_>
    <_>
      <internalNodes>
        0 -1 191861 -2.9978174716234207e-03</internalNodes>
      <leafValues>
        -5.2971667051315308e-01 3.0418835580348969e-02</leafValues></_>
    <_>
      <internalNodes>
        0 -1 189744 8.9765079319477081e-03</internalNodes>
      <leafValues>
        4.0576215833425522e-02 -6.6412621736526489e-01</leafValues></_>
    <_>
      <internalNodes>
        0 -1 290020 -1.3369703665375710e-02</internalNodes>
      <leafValues>
        3.2742652297019958e-01 -4.4716816395521164e-02</leafValues></_>
    <_>
      <internalNodes>
        0 -1 297933 1.2362319976091385e-02</internalNodes>
      <leafValues>
        -7.5141578912734985e-02 2.1030439436435699e-01</leafValues></_>
    <_>
      <internalNodes>
        0 -1 270723 -8.1950519233942032e-03</internalNodes>
      <leafValues>
        -7.2184038162231445e-01 1.7161810770630836e-02</leafValues></_>
    <_>
      <internalNodes>
        0 -1 241390 2.8659697622060776e-02</internalNodes>
      <leafValues>
        -3.8808062672615051e-02 3.8591095805168152e-01</leafValues></_>
    <_>
      <internalNodes>
        0 -1 106594 2.0610662177205086e-02</internalNodes>
      <leafValues>
        4.8564165830612183e-02 -3.0692645907402039e-01</leafValues></_>
    <_>
      <internalNodes>
        0 -1 244176 -8.8523756712675095e-03</internalNodes>
      <leafValues>
        -5.1037818193435669e-01 3.5082060843706131e-02</leafValues></_>
    <_>
      <internalNodes>
        0 -1 283756 4.1115628555417061e-03</internalNodes>
      <leafValues>
        -5.6901589035987854e-02 2.5428003072738647e-01</leafValues></_>
    <_>
      <internalNodes>
        0 -1 160987 2.1791830658912659e-03</internalNodes>
      <leafValues>
        3.0458789318799973e-02 -5.3378337621688843e-01</leafValues></_>
    <_>
      <internalNodes>
        0 -1 64896 3.8687847554683685e-02</internalNodes>
      <leafValues>
        -3.2923944294452667e-02 5.0687193870544434e-01</leafValues></_>
    <_>
      <internalNodes>
        0 -1 85965 4.6227157115936279e-02</internalNodes>
      <leafValues>
        2.4820931255817413e-02 -7.3338222503662109e-01</leafValues></_>
    <_>
      <internalNodes>
        0 -1 283848 5.8062430471181870e-03</internalNodes>
      <leafValues>
        2.0981745794415474e-02 -5.5217331647872925e-01</leafValues></_>
    <_>
      <internalNodes>
        0 -1 255993 6.0734774917364120e-02</internalNodes>
      <leafValues>
        -4.6024963259696960e-02 3.1812632083892822e-01</leafValues></_>
    <_>
      <internalNodes>
        0 -1 199196 1.0922290384769440e-01</internalNodes>
      <leafValues>
        -2.7622202411293983e-02 4.9446934461593628e-01</leafValues></_>
    <_>
      <internalNodes>
        0 -1 241407 9.5454640686511993e-03</internalNodes>
      <leafValues>
        -4.6779897063970566e-02 3.0529403686523438e-01</leafValues></_>
    <_>
      <internalNodes>
        0 -1 182660 -1.3406482338905334e-01</internalNodes>
      <leafValues>
        -6.5525615215301514e-01 2.2508936002850533e-02</leafValues></_>
    <_>
      <internalNodes>
        0 -1 304927 4.1898414492607117e-03</internalNodes>
      <leafValues>
        2.7108380571007729e-02 -4.5399931073188782e-01</leafValues></_>
    <_>
      <internalNodes>
        0 -1 155412 2.2391495294868946e-03</internalNodes>
      <leafValues>
        2.4330118671059608e-02 -5.1704710721969604e-01</leafValues></_>
    <_>
      <internalNodes>
        0 -1 140626 3.8997426163405180e-03</internalNodes>
      <leafValues>
        2.0988546311855316e-02 -5.5775302648544312e-01</leafValues></_>
    <_>
      <internalNodes>
        0 -1 82175 -6.0383896343410015e-03</internalNodes>
      <leafValues>
        2.1769584715366364e-01 -7.1858696639537811e-02</leafValues></_>
    <_>
      <internalNodes>
        0 -1 40049 2.4323374964296818e-04</internalNodes>
      <leafValues>
        7.4774660170078278e-02 -1.9093884527683258e-01</leafValues></_>
    <_>
      <internalNodes>
        0 -1 66072 -7.8032580204308033e-03</internalNodes>
      <leafValues>
        1.5934354066848755e-01 -8.8826254010200500e-02</leafValues></_>
    <_>
      <internalNodes>
        0 -1 2712 -4.2430660687386990e-03</internalNodes>
      <leafValues>
        1.1668827384710312e-01 -1.4767789840698242e-01</leafValues></_>
    <_>
      <internalNodes>
        0 -1 4575 -1.8346793949604034e-02</internalNodes>
      <leafValues>
        3.9904671907424927e-01 -3.7836894392967224e-02</leafValues></_>
    <_>
      <internalNodes>
        0 -1 214762 1.0445911902934313e-03</internalNodes>
      <leafValues>
        -7.0217080414295197e-02 2.0109695196151733e-01</leafValues></_>
    <_>
      <internalNodes>
        0 -1 265168 3.3975872211158276e-03</internalNodes>
      <leafValues>
        2.6984116062521935e-02 -5.2861607074737549e-01</leafValues></_>
    <_>
      <internalNodes>
        0 -1 274318 -1.5128731029108167e-03</internalNodes>
      <leafValues>
        1.8893922865390778e-01 -7.7010445296764374e-02</leafValues></_>
    <_>
      <internalNodes>
        0 -1 252867 -1.3307920657098293e-02</internalNodes>
      <leafValues>
        -3.9478099346160889e-01 3.5613033920526505e-02</leafValues></_>
    <_>
      <internalNodes>
        0 -1 275584 2.7613476850092411e-03</internalNodes>
      <leafValues>
        1.6370646655559540e-02 -7.4749118089675903e-01</leafValues></_>
    <_>
      <internalNodes>
        0 -1 290724 -3.4524552756920457e-04</internalNodes>
      <leafValues>
        1.3969159126281738e-01 -1.0610618442296982e-01</leafValues></_>
    <_>
      <internalNodes>
        0 -1 290527 1.0958043858408928e-02</internalNodes>
      <leafValues>
        -3.9334230124950409e-02 3.5599008202552795e-01</leafValues></_>
    <_>
      <internalNodes>
        0 -1 8353 -2.5401087477803230e-03</internalNodes>
      <leafValues>
        -2.3216710984706879e-01 6.1691969633102417e-02</leafValues></_>
    <_>
      <internalNodes>
        0 -1 123465 2.7735234471037984e-04</internalNodes>
      <leafValues>
        -9.4038315117359161e-02 1.5050144493579865e-01</leafValues></_>
    <_>
      <internalNodes>
        0 -1 128669 -9.8302252590656281e-03</internalNodes>
      <leafValues>
        4.1318905353546143e-01 -3.3108320087194443e-02</leafValues></_>
    <_>
      <internalNodes>
        0 -1 139637 3.3724466338753700e-03</internalNodes>
      <leafValues>
        -9.2010073363780975e-02 1.5537533164024353e-01</leafValues></_>
    <_>
      <internalNodes>
        0 -1 198294 -4.2205188423395157e-02</internalNodes>
      <leafValues>
        4.3663552403450012e-01 -3.5812377929687500e-02</leafValues></_>
    <_>
      <internalNodes>
        0 -1 229437 1.2979750521481037e-02</internalNodes>
      <leafValues>
        2.3081010207533836e-02 -6.9572019577026367e-01</leafValues></_>
    <_>
      <internalNodes>
        0 -1 173818 -2.0016231574118137e-03</internalNodes>
      <leafValues>
        1.5294483304023743e-01 -9.1351501643657684e-02</leafValues></_>
    <_>
      <internalNodes>
        0 -1 137854 3.6276914179325104e-02</internalNodes>
      <leafValues>
        -2.9428031295537949e-02 5.2884960174560547e-01</leafValues></_>
    <_>
      <internalNodes>
        0 -1 283576 2.2104972973465919e-02</internalNodes>
      <leafValues>
        1.9783480092883110e-02 -7.9047071933746338e-01</leafValues></_>
    <_>
      <internalNodes>
        0 -1 200197 -1.0052543133497238e-02</internalNodes>
      <leafValues>
        1.8636053800582886e-01 -7.6303675770759583e-02</leafValues></_>
    <_>
      <internalNodes>
        0 -1 2464 3.8641786575317383e-01</internalNodes>
      <leafValues>
        -2.5681853294372559e-02 5.9731549024581909e-01</leafValues></_>
    <_>
      <internalNodes>
        0 -1 294422 -6.6904373466968536e-02</internalNodes>
      <leafValues>
        -7.9154729843139648e-01 1.9665492698550224e-02</leafValues></_>
    <_>
      <internalNodes>
        0 -1 287408 -1.7002100124955177e-02</internalNodes>
      <leafValues>
        -1.9852882623672485e-01 6.7838333547115326e-02</leafValues></_>
    <_>
      <internalNodes>
        0 -1 272473 -2.9112645424902439e-03</internalNodes>
      <leafValues>
        -4.2774602770805359e-01 3.4055903553962708e-02</leafValues></_>
    <_>
      <internalNodes>
        0 -1 138887 -8.5155647248029709e-03</internalNodes>
      <leafValues>
        -6.4596116542816162e-01 1.9166132435202599e-02</leafValues></_>
    <_>
      <internalNodes>
        0 -1 212107 -8.2907788455486298e-02</internalNodes>
      <leafValues>
        -6.5114110708236694e-01 1.7465936020016670e-02</leafValues></_>
    <_>
      <internalNodes>
        0 -1 299385 -1.8499890342354774e-02</internalNodes>
      <leafValues>
        2.7643030881881714e-01 -6.0971647500991821e-02</leafValues></_>
    <_>
      <internalNodes>
        0 -1 286804 -2.4218445643782616e-02</internalNodes>
      <leafValues>
        2.4790321290493011e-01 -6.3757874071598053e-02</leafValues></_>
    <_>
      <internalNodes>
        0 -1 6325 -3.5345321893692017e-01</internalNodes>
      <leafValues>
        7.6381736993789673e-01 -1.7795946449041367e-02</leafValues></_>
    <_>
      <internalNodes>
        0 -1 279964 1.7982360720634460e-01</internalNodes>
      <leafValues>
        2.0409595221281052e-02 -7.8488242626190186e-01</leafValues></_>
    <_>
      <internalNodes>
        0 -1 204749 -5.8498056605458260e-03</internalNodes>
      <leafValues>
        -9.2261707782745361e-01 1.0189891792833805e-02</leafValues></_>
    <_>
      <internalNodes>
        0 -1 214080 -2.9674428515136242e-04</internalNodes>
      <leafValues>
        1.1804952472448349e-01 -1.1295495927333832e-01</leafValues></_>
    <_>
      <internalNodes>
        0 -1 158959 -7.4696941301226616e-03</internalNodes>
      <leafValues>
        -3.6830568313598633e-01 3.7642385810613632e-02</leafValues></_>
    <_>
      <internalNodes>
        0 -1 174473 1.1831723153591156e-02</internalNodes>
      <leafValues>
        2.4547724053263664e-02 -5.5348873138427734e-01</leafValues></_>
    <_>
      <internalNodes>
        0 -1 304491 2.8682809323072433e-02</internalNodes>
      <leafValues>
        3.1633697450160980e-02 -3.9118972420692444e-01</leafValues></_>
    <_>
      <internalNodes>
        0 -1 69957 -2.4701025336980820e-02</internalNodes>
      <leafValues>
        6.1543160676956177e-01 -2.5322046130895615e-02</leafValues></_>
    <_>
      <internalNodes>
        0 -1 119389 1.2813994288444519e-01</internalNodes>
      <leafValues>
        2.9172085225582123e-02 -4.8359119892120361e-01</leafValues></_>
    <_>
      <internalNodes>
        0 -1 170037 1.2265092227607965e-03</internalNodes>
      <leafValues>
        8.9582785964012146e-02 -1.6071577370166779e-01</leafValues></_>
    <_>
      <internalNodes>
        0 -1 263039 -7.2067022323608398e-02</internalNodes>
      <leafValues>
        4.4022849202156067e-01 -3.6865673959255219e-02</leafValues></_>
    <_>
      <internalNodes>
        0 -1 219786 -1.1443199589848518e-02</internalNodes>
      <leafValues>
        -5.7376974821090698e-01 2.9180547222495079e-02</leafValues></_>
    <_>
      <internalNodes>
        0 -1 127902 6.6779837012290955e-02</internalNodes>
      <leafValues>
        -3.4936111420392990e-02 4.8418661952018738e-01</leafValues></_>
    <_>
      <internalNodes>
        0 -1 199997 2.4189744726754725e-04</internalNodes>
      <leafValues>
        -1.1187018454074860e-01 1.3354565203189850e-01</leafValues></_>
    <_>
      <internalNodes>
        0 -1 201663 -3.8692876696586609e-03</internalNodes>
      <leafValues>
        2.4099098145961761e-01 -7.0707306265830994e-02</leafValues></_>
    <_>
      <internalNodes>
        0 -1 155201 9.2870332300662994e-03</internalNodes>
      <leafValues>
        -1.2707379460334778e-01 1.3164752721786499e-01</leafValues></_>
    <_>
      <internalNodes>
        0 -1 123042 -7.5418679043650627e-03</internalNodes>
      <leafValues>
        -4.4535470008850098e-01 3.7222620099782944e-02</leafValues></_>
    <_>
      <internalNodes>
        0 -1 94984 1.3917160686105490e-03</internalNodes>
      <leafValues>
        9.8704323172569275e-02 -1.5407176315784454e-01</leafValues></_>
    <_>
      <internalNodes>
        0 -1 72614 1.6643691807985306e-02</internalNodes>
      <leafValues>
        -5.8394350111484528e-02 2.5022324919700623e-01</leafValues></_>
    <_>
      <internalNodes>
        0 -1 88489 -5.0372648984193802e-02</internalNodes>
      <leafValues>
        -9.1319352388381958e-01 1.6557486727833748e-02</leafValues></_>
    <_>
      <internalNodes>
        0 -1 107519 2.2308586630970240e-03</internalNodes>
      <leafValues>
        1.8568195402622223e-02 -5.9947597980499268e-01</leafValues></_>
    <_>
      <internalNodes>
        0 -1 145640 8.0062390770763159e-04</internalNodes>
      <leafValues>
        7.0264406502246857e-02 -1.9356814026832581e-01</leafValues></_>
    <_>
      <internalNodes>
        0 -1 297616 -2.7603164315223694e-02</internalNodes>
      <leafValues>
        3.0879861116409302e-01 -5.0733350217342377e-02</leafValues></_>
    <_>
      <internalNodes>
        0 -1 30876 -2.7597318403422832e-03</internalNodes>
      <leafValues>
        2.3323374986648560e-01 -6.2416955828666687e-02</leafValues></_>
    <_>
      <internalNodes>
        0 -1 20219 9.2082536220550537e-01</internalNodes>
      <leafValues>
        1.6586706042289734e-02 -8.2631319761276245e-01</leafValues></_>
    <_>
      <internalNodes>
        0 -1 282736 5.0380597822368145e-03</internalNodes>
      <leafValues>
        5.7073082774877548e-02 -2.4530901014804840e-01</leafValues></_>
    <_>
      <internalNodes>
        0 -1 291125 1.7540983390063047e-03</internalNodes>
      <leafValues>
        3.1281240284442902e-02 -4.4694066047668457e-01</leafValues></_>
    <_>
      <internalNodes>
        0 -1 276467 1.1053690686821938e-03</internalNodes>
      <leafValues>
        -6.4933426678180695e-02 2.3364046216011047e-01</leafValues></_>
    <_>
      <internalNodes>
        0 -1 55213 -1.4990959316492081e-02</internalNodes>
      <leafValues>
        2.7386251091957092e-01 -5.0131231546401978e-02</leafValues></_>
    <_>
      <internalNodes>
        0 -1 76467 -1.6809892654418945e-01</internalNodes>
      <leafValues>
        -3.5220345854759216e-01 3.9415996521711349e-02</leafValues></_>
    <_>
      <internalNodes>
        0 -1 63212 -1.6346299648284912e-01</internalNodes>
      <leafValues>
        4.7411844134330750e-01 -3.3311780542135239e-02</leafValues></_>
    <_>
      <internalNodes>
        0 -1 128794 -3.3519361750222743e-04</internalNodes>
      <leafValues>
        -1.6293214261531830e-01 8.9912444353103638e-02</leafValues></_>
    <_>
      <internalNodes>
        0 -1 57053 -6.4444565214216709e-04</internalNodes>
      <leafValues>
        -1.3402958214282990e-01 1.1323826760053635e-01</leafValues></_>
    <_>
      <internalNodes>
        0 -1 229210 -5.9356659650802612e-02</internalNodes>
      <leafValues>
        4.2891860008239746e-01 -3.4904528409242630e-02</leafValues></_>
    <_>
      <internalNodes>
        0 -1 230907 5.3967069834470749e-03</internalNodes>
      <leafValues>
        -7.4622526764869690e-02 2.0257577300071716e-01</leafValues></_>
    <_>
      <internalNodes>
        0 -1 118292 -6.6518008708953857e-02</internalNodes>
      <leafValues>
        -2.9835391044616699e-01 4.7939293086528778e-02</leafValues></_>
    <_>
      <internalNodes>
        0 -1 51580 -1.2237993068993092e-02</internalNodes>
      <leafValues>
        1.8928965926170349e-01 -8.0685205757617950e-02</leafValues></_>
    <_>
      <internalNodes>
        0 -1 32790 8.7612932547926903e-03</internalNodes>
      <leafValues>
        2.4264641106128693e-02 -6.3911235332489014e-01</leafValues></_>
    <_>
      <internalNodes>
        0 -1 145030 3.2135921064764261e-03</internalNodes>
      <leafValues>
        -1.0086647421121597e-01 1.4577440917491913e-01</leafValues></_>
    <_>
      <internalNodes>
        0 -1 242609 2.4761587381362915e-02</internalNodes>
      <leafValues>
        -1.7912810668349266e-02 7.9608023166656494e-01</leafValues></_>
    <_>
      <internalNodes>
        0 -1 269435 6.5279980190098286e-03</internalNodes>
      <leafValues>
        3.8241747766733170e-02 -4.1925165057182312e-01</leafValues></_>
    <_>
      <internalNodes>
        0 -1 272981 8.8978861458599567e-04</internalNodes>
      <leafValues>
        -8.1632278859615326e-02 1.7601035535335541e-01</leafValues></_>
    <_>
      <internalNodes>
        0 -1 293841 4.6466663479804993e-03</internalNodes>
      <leafValues>
        6.5774470567703247e-02 -2.4344146251678467e-01</leafValues></_>
    <_>
      <internalNodes>
        0 -1 119027 -4.5274244621396065e-03</internalNodes>
      <leafValues>
        1.4445534348487854e-01 -1.0200516134500504e-01</leafValues></_>
    <_>
      <internalNodes>
        0 -1 89821 1.7857903614640236e-02</internalNodes>
      <leafValues>
        2.5834072381258011e-02 -6.6631132364273071e-01</leafValues></_>
    <_>
      <internalNodes>
        0 -1 253871 4.1069410741329193e-02</internalNodes>
      <leafValues>
        -3.0592121183872223e-02 5.6314086914062500e-01</leafValues></_>
    <_>
      <internalNodes>
        0 -1 265559 9.0120232198387384e-04</internalNodes>
      <leafValues>
        -9.0873569250106812e-02 1.5836790204048157e-01</leafValues></_></weakClassifiers></stage4>
</opencv_storage>
