<?xml version="1.0"?>
<opencv_storage>
<stage19>
  <maxWeakCount>75</maxWeakCount>
  <stageThreshold>-7.7518421411514282e-01</stageThreshold>
  <weakClassifiers>
    <_>
      <internalNodes>
        0 -1 49327 1.5719581395387650e-02</internalNodes>
      <leafValues>
        1.5745741128921509e-01 5.6943666934967041e-01</leafValues></_>
    <_>
      <internalNodes>
        0 -1 19439 4.5642051845788956e-02</internalNodes>
      <leafValues>
        -2.0649634301662445e-01 2.1868595480918884e-01</leafValues></_>
    <_>
      <internalNodes>
        0 -1 65437 -6.8053847644478083e-04</internalNodes>
      <leafValues>
        2.8635883331298828e-01 -1.3708487153053284e-01</leafValues></_>
    <_>
      <internalNodes>
        0 -1 61027 -4.8147826455533504e-03</internalNodes>
      <leafValues>
        2.3851908743381500e-01 -1.5925604104995728e-01</leafValues></_>
    <_>
      <internalNodes>
        0 -1 44245 -7.4331536889076233e-02</internalNodes>
      <leafValues>
        5.5052304267883301e-01 -7.5327232480049133e-02</leafValues></_>
    <_>
      <internalNodes>
        0 -1 31106 -1.2734809517860413e-01</internalNodes>
      <leafValues>
        -3.2568743824958801e-01 8.3967477083206177e-02</leafValues></_>
    <_>
      <internalNodes>
        0 -1 26891 3.0423397198319435e-02</internalNodes>
      <leafValues>
        7.7466510236263275e-02 -2.7542939782142639e-01</leafValues></_>
    <_>
      <internalNodes>
        0 -1 70892 -4.2242519557476044e-03</internalNodes>
      <leafValues>
        -6.2642866373062134e-01 4.3260831385850906e-02</leafValues></_>
    <_>
      <internalNodes>
        0 -1 26596 6.5597131848335266e-02</internalNodes>
      <leafValues>
        -6.9147959351539612e-02 3.6774155497550964e-01</leafValues></_>
    <_>
      <internalNodes>
        0 -1 39351 2.4840408004820347e-03</internalNodes>
      <leafValues>
        -8.0121338367462158e-02 2.6478141546249390e-01</leafValues></_>
    <_>
      <internalNodes>
        0 -1 44681 1.4148869086056948e-03</internalNodes>
      <leafValues>
        -1.1014809459447861e-01 2.1751905977725983e-01</leafValues></_>
    <_>
      <internalNodes>
        0 -1 58190 2.2866796702146530e-02</internalNodes>
      <leafValues>
        -6.8788729608058929e-02 3.6362355947494507e-01</leafValues></_>
    <_>
      <internalNodes>
        0 -1 49524 4.1319327428936958e-03</internalNodes>
      <leafValues>
        3.4845102578401566e-02 -6.1385327577590942e-01</leafValues></_>
    <_>
      <internalNodes>
        0 -1 48502 2.6443734532222152e-04</internalNodes>
      <leafValues>
        -1.7491772770881653e-01 1.2407268583774567e-01</leafValues></_>
    <_>
      <internalNodes>
        0 -1 48268 3.3173613250255585e-02</internalNodes>
      <leafValues>
        5.1131598651409149e-02 -4.2057844996452332e-01</leafValues></_>
    <_>
      <internalNodes>
        0 -1 48258 2.6190103963017464e-03</internalNodes>
      <leafValues>
        -1.8394985795021057e-01 1.1096060276031494e-01</leafValues></_>
    <_>
      <internalNodes>
        0 -1 41750 -8.5133663378655910e-04</internalNodes>
      <leafValues>
        2.0083916187286377e-01 -1.0262331366539001e-01</leafValues></_>
    <_>
      <internalNodes>
        0 -1 46873 1.6633654013276100e-03</internalNodes>
      <leafValues>
        -7.8924447298049927e-02 2.9816740751266479e-01</leafValues></_>
    <_>
      <internalNodes>
        0 -1 46064 -6.6454202169552445e-05</internalNodes>
      <leafValues>
        1.4553044736385345e-01 -1.3986255228519440e-01</leafValues></_>
    <_>
      <internalNodes>
        0 -1 27279 5.9167705476284027e-03</internalNodes>
      <leafValues>
        -6.2034219503402710e-02 3.1705182790756226e-01</leafValues></_>
    <_>
      <internalNodes>
        0 -1 65334 4.7568716108798981e-03</internalNodes>
      <leafValues>
        4.9918510019779205e-02 -4.1931182146072388e-01</leafValues></_>
    <_>
      <internalNodes>
        0 -1 62248 -6.3910838216543198e-03</internalNodes>
      <leafValues>
        -5.4602301120758057e-01 3.5154566168785095e-02</leafValues></_>
    <_>
      <internalNodes>
        0 -1 33828 2.0596977323293686e-02</internalNodes>
      <leafValues>
        -5.2420832216739655e-02 3.9128655195236206e-01</leafValues></_>
    <_>
      <internalNodes>
        0 -1 54332 8.0961053026840091e-04</internalNodes>
      <leafValues>
        -8.9198529720306396e-02 2.3082269728183746e-01</leafValues></_>
    <_>
      <internalNodes>
        0 -1 41221 -2.4778336286544800e-02</internalNodes>
      <leafValues>
        2.1435624361038208e-01 -9.5024421811103821e-02</leafValues></_>
    <_>
      <internalNodes>
        0 -1 35896 1.6780164092779160e-02</internalNodes>
      <leafValues>
        -1.1150398850440979e-01 2.0924709737300873e-01</leafValues></_>
    <_>
      <internalNodes>
        0 -1 32963 9.1282073408365250e-03</internalNodes>
      <leafValues>
        3.3504620194435120e-02 -6.8807387351989746e-01</leafValues></_>
    <_>
      <internalNodes>
        0 -1 53279 6.0975416563451290e-03</internalNodes>
      <leafValues>
        -1.0886722058057785e-01 2.0144134759902954e-01</leafValues></_>
    <_>
      <internalNodes>
        0 -1 73309 -9.8872766830027103e-04</internalNodes>
      <leafValues>
        2.2072109580039978e-01 -1.0362867265939713e-01</leafValues></_>
    <_>
      <internalNodes>
        0 -1 54195 -2.0097377710044384e-03</internalNodes>
      <leafValues>
        -3.0691257119178772e-01 6.9885596632957458e-02</leafValues></_>
    <_>
      <internalNodes>
        0 -1 50244 -7.4015714228153229e-02</internalNodes>
      <leafValues>
        -2.5986996293067932e-01 8.7365671992301941e-02</leafValues></_>
    <_>
      <internalNodes>
        0 -1 43539 1.4685800997540355e-03</internalNodes>
      <leafValues>
        -1.0710158944129944e-01 1.9156450033187866e-01</leafValues></_>
    <_>
      <internalNodes>
        0 -1 30475 6.0223467648029327e-02</internalNodes>
      <leafValues>
        6.7797683179378510e-02 -3.0550205707550049e-01</leafValues></_>
    <_>
      <internalNodes>
        0 -1 42578 2.3818511515855789e-02</internalNodes>
      <leafValues>
        3.9426147937774658e-02 -5.4951888322830200e-01</leafValues></_>
    <_>
      <internalNodes>
        0 -1 5312 -2.0451112650334835e-03</internalNodes>
      <leafValues>
        -1.8798457086086273e-01 1.0962795466184616e-01</leafValues></_>
    <_>
      <internalNodes>
        0 -1 32641 8.3901989273726940e-04</internalNodes>
      <leafValues>
        -1.5099067986011505e-01 1.3469436764717102e-01</leafValues></_>
    <_>
      <internalNodes>
        0 -1 70988 -4.6680415980517864e-03</internalNodes>
      <leafValues>
        -3.8260787725448608e-01 5.3907167166471481e-02</leafValues></_>
    <_>
      <internalNodes>
        0 -1 77169 -4.4759446755051613e-03</internalNodes>
      <leafValues>
        -6.3565927743911743e-01 2.8538867831230164e-02</leafValues></_>
    <_>
      <internalNodes>
        0 -1 15184 -5.7916585355997086e-02</internalNodes>
      <leafValues>
        1.9640396535396576e-01 -1.0500091314315796e-01</leafValues></_>
    <_>
      <internalNodes>
        0 -1 51852 8.3116650581359863e-02</internalNodes>
      <leafValues>
        -6.0176100581884384e-02 3.4200185537338257e-01</leafValues></_>
    <_>
      <internalNodes>
        0 -1 35884 4.8039726912975311e-02</internalNodes>
      <leafValues>
        3.9819907397031784e-02 -5.9191489219665527e-01</leafValues></_>
    <_>
      <internalNodes>
        0 -1 71393 2.3952177725732327e-03</internalNodes>
      <leafValues>
        -1.0177306830883026e-01 1.9221138954162598e-01</leafValues></_>
    <_>
      <internalNodes>
        0 -1 20957 4.4360786676406860e-02</internalNodes>
      <leafValues>
        -3.7178095430135727e-02 5.5158591270446777e-01</leafValues></_>
    <_>
      <internalNodes>
        0 -1 53249 -3.8608342409133911e-02</internalNodes>
      <leafValues>
        -7.8307783603668213e-01 2.8364032506942749e-02</leafValues></_>
    <_>
      <internalNodes>
        0 -1 57199 1.5149553306400776e-02</internalNodes>
      <leafValues>
        -4.3702047318220139e-02 4.6516281366348267e-01</leafValues></_>
    <_>
      <internalNodes>
        0 -1 60790 2.4862317368388176e-03</internalNodes>
      <leafValues>
        -1.1822608113288879e-01 1.8225269019603729e-01</leafValues></_>
    <_>
      <internalNodes>
        0 -1 48378 -2.3060046136379242e-02</internalNodes>
      <leafValues>
        -5.8863329887390137e-01 3.4021686762571335e-02</leafValues></_>
    <_>
      <internalNodes>
        0 -1 54192 1.7185993492603302e-03</internalNodes>
      <leafValues>
        5.4358400404453278e-02 -3.6186581850051880e-01</leafValues></_>
    <_>
      <internalNodes>
        0 -1 44095 -6.7021194845438004e-03</internalNodes>
      <leafValues>
        3.7429597973823547e-01 -5.3797621279954910e-02</leafValues></_>
    <_>
      <internalNodes>
        0 -1 60795 1.0546788573265076e-02</internalNodes>
      <leafValues>
        -7.8083507716655731e-02 2.4805651605129242e-01</leafValues></_>
    <_>
      <internalNodes>
        0 -1 65350 -7.6190161053091288e-04</internalNodes>
      <leafValues>
        1.7999613285064697e-01 -1.1404779553413391e-01</leafValues></_>
    <_>
      <internalNodes>
        0 -1 78133 -2.9919402673840523e-02</internalNodes>
      <leafValues>
        7.6280063390731812e-01 -1.8019283190369606e-02</leafValues></_>
    <_>
      <internalNodes>
        0 -1 65350 -3.8196330424398184e-03</internalNodes>
      <leafValues>
        -3.5394629836082458e-01 5.8185189962387085e-02</leafValues></_>
    <_>
      <internalNodes>
        0 -1 71017 -2.4491827934980392e-02</internalNodes>
      <leafValues>
        4.0793603658676147e-01 -5.0648584961891174e-02</leafValues></_>
    <_>
      <internalNodes>
        0 -1 29211 2.4639072362333536e-03</internalNodes>
      <leafValues>
        5.3767986595630646e-02 -3.7127742171287537e-01</leafValues></_>
    <_>
      <internalNodes>
        0 -1 58506 -8.8315061293542385e-04</internalNodes>
      <leafValues>
        2.1458218991756439e-01 -8.2736760377883911e-02</leafValues></_>
    <_>
      <internalNodes>
        0 -1 62322 -4.4729746878147125e-03</internalNodes>
      <leafValues>
        4.2117178440093994e-01 -5.2689075469970703e-02</leafValues></_>
    <_>
      <internalNodes>
        0 -1 78196 5.7627802016213536e-04</internalNodes>
      <leafValues>
        1.0010679066181183e-01 -1.9403541088104248e-01</leafValues></_>
    <_>
      <internalNodes>
        0 -1 78417 -3.4252745099365711e-03</internalNodes>
      <leafValues>
        -1.9345644116401672e-01 1.1253277957439423e-01</leafValues></_>
    <_>
      <internalNodes>
        0 -1 78085 2.7522116433829069e-03</internalNodes>
      <leafValues>
        9.9884681403636932e-02 -1.9039039313793182e-01</leafValues></_>
    <_>
      <internalNodes>
        0 -1 73110 -1.3359346427023411e-02</internalNodes>
      <leafValues>
        3.1116667389869690e-01 -6.2724091112613678e-02</leafValues></_>
    <_>
      <internalNodes>
        0 -1 19985 -7.5782393105328083e-04</internalNodes>
      <leafValues>
        2.1933107078075409e-01 -8.5292354226112366e-02</leafValues></_>
    <_>
      <internalNodes>
        0 -1 19636 6.3968909671530128e-04</internalNodes>
      <leafValues>
        -1.2695632874965668e-01 1.4436304569244385e-01</leafValues></_>
    <_>
      <internalNodes>
        0 -1 67252 4.0762899443507195e-03</internalNodes>
      <leafValues>
        3.0743993818759918e-02 -6.3987040519714355e-01</leafValues></_>
    <_>
      <internalNodes>
        0 -1 19985 5.5320505052804947e-03</internalNodes>
      <leafValues>
        2.2492384538054466e-02 -7.2621256113052368e-01</leafValues></_>
    <_>
      <internalNodes>
        0 -1 67811 1.8142655026167631e-03</internalNodes>
      <leafValues>
        -7.2666093707084656e-02 2.7173823118209839e-01</leafValues></_>
    <_>
      <internalNodes>
        0 -1 60109 6.2412060797214508e-02</internalNodes>
      <leafValues>
        6.6821731626987457e-02 -3.2032310962677002e-01</leafValues></_>
    <_>
      <internalNodes>
        0 -1 33427 6.7914772080257535e-04</internalNodes>
      <leafValues>
        -1.0738176107406616e-01 1.7553044855594635e-01</leafValues></_>
    <_>
      <internalNodes>
        0 -1 19230 3.1475122086703777e-03</internalNodes>
      <leafValues>
        -9.2071793973445892e-02 1.8586099147796631e-01</leafValues></_>
    <_>
      <internalNodes>
        0 -1 26767 4.2682369239628315e-03</internalNodes>
      <leafValues>
        3.4243416041135788e-02 -5.1884341239929199e-01</leafValues></_>
    <_>
      <internalNodes>
        0 -1 25791 -1.1408978141844273e-02</internalNodes>
      <leafValues>
        3.4757292270660400e-01 -5.5415567010641098e-02</leafValues></_>
    <_>
      <internalNodes>
        0 -1 53807 8.7553290650248528e-03</internalNodes>
      <leafValues>
        -7.1667760610580444e-02 2.5131425261497498e-01</leafValues></_>
    <_>
      <internalNodes>
        0 -1 67998 -8.5845841094851494e-03</internalNodes>
      <leafValues>
        3.2787308096885681e-01 -5.5986188352108002e-02</leafValues></_>
    <_>
      <internalNodes>
        0 -1 36759 9.6926549449563026e-03</internalNodes>
      <leafValues>
        4.4962491840124130e-02 -4.4142651557922363e-01</leafValues></_>
    <_>
      <internalNodes>
        0 -1 62476 1.3813827186822891e-02</internalNodes>
      <leafValues>
        -3.4896649420261383e-02 6.0069489479064941e-01</leafValues></_></weakClassifiers></stage19>
</opencv_storage>
