<?xml version="1.0"?>
<opencv_storage>
<stage8>
  <maxWeakCount>85</maxWeakCount>
  <stageThreshold>-7.5280505418777466e-01</stageThreshold>
  <weakClassifiers>
    <_>
      <internalNodes>
        0 -1 37891 -3.0712254345417023e-02</internalNodes>
      <leafValues>
        6.4518696069717407e-01 2.0013591647148132e-01</leafValues></_>
    <_>
      <internalNodes>
        0 -1 54478 -1.3854401186108589e-02</internalNodes>
      <leafValues>
        4.0105435252189636e-01 -8.1671617925167084e-02</leafValues></_>
    <_>
      <internalNodes>
        0 -1 73235 -7.6006114250048995e-04</internalNodes>
      <leafValues>
        1.7053733766078949e-01 -1.7311325669288635e-01</leafValues></_>
    <_>
      <internalNodes>
        0 -1 38759 4.1719186119735241e-03</internalNodes>
      <leafValues>
        -1.5802463889122009e-01 1.6789939999580383e-01</leafValues></_>
    <_>
      <internalNodes>
        0 -1 56930 -1.8759045749902725e-02</internalNodes>
      <leafValues>
        -5.0821304321289062e-01 4.8820003867149353e-02</leafValues></_>
    <_>
      <internalNodes>
        0 -1 43539 6.3986564055085182e-04</internalNodes>
      <leafValues>
        -1.6834953427314758e-01 1.3890983164310455e-01</leafValues></_>
    <_>
      <internalNodes>
        0 -1 48218 4.4208867475390434e-03</internalNodes>
      <leafValues>
        4.4976055622100830e-02 -4.7060453891754150e-01</leafValues></_>
    <_>
      <internalNodes>
        0 -1 36775 -3.2316330820322037e-02</internalNodes>
      <leafValues>
        3.9692053198814392e-01 -6.2480375170707703e-02</leafValues></_>
    <_>
      <internalNodes>
        0 -1 56746 4.2863857001066208e-02</internalNodes>
      <leafValues>
        -7.5417257845401764e-02 2.9252573847770691e-01</leafValues></_>
    <_>
      <internalNodes>
        0 -1 67630 -1.0958380298689008e-03</internalNodes>
      <leafValues>
        1.8761037290096283e-01 -1.1821492761373520e-01</leafValues></_>
    <_>
      <internalNodes>
        0 -1 39331 1.0036593303084373e-03</internalNodes>
      <leafValues>
        -1.0711586475372314e-01 2.2658072412014008e-01</leafValues></_>
    <_>
      <internalNodes>
        0 -1 65445 5.3722113370895386e-03</internalNodes>
      <leafValues>
        6.4856387674808502e-02 -3.7144282460212708e-01</leafValues></_>
    <_>
      <internalNodes>
        0 -1 33030 -3.6017499864101410e-02</internalNodes>
      <leafValues>
        -6.5945625305175781e-01 3.3292271196842194e-02</leafValues></_>
    <_>
      <internalNodes>
        0 -1 64744 -1.6813058406114578e-02</internalNodes>
      <leafValues>
        -6.1995893716812134e-01 2.9801789671182632e-02</leafValues></_>
    <_>
      <internalNodes>
        0 -1 43227 3.9285989478230476e-03</internalNodes>
      <leafValues>
        4.4516298919916153e-02 -4.3801021575927734e-01</leafValues></_>
    <_>
      <internalNodes>
        0 -1 52749 3.6654192954301834e-03</internalNodes>
      <leafValues>
        7.7149346470832825e-02 -2.6828092336654663e-01</leafValues></_>
    <_>
      <internalNodes>
        0 -1 48090 1.4686085283756256e-02</internalNodes>
      <leafValues>
        -7.8587003052234650e-02 2.4479196965694427e-01</leafValues></_>
    <_>
      <internalNodes>
        0 -1 19559 -5.7345144450664520e-02</internalNodes>
      <leafValues>
        -5.3837996721267700e-01 4.3720323592424393e-02</leafValues></_>
    <_>
      <internalNodes>
        0 -1 18556 3.7720080465078354e-02</internalNodes>
      <leafValues>
        6.5492115914821625e-02 -3.1972944736480713e-01</leafValues></_>
    <_>
      <internalNodes>
        0 -1 73237 5.7037698570638895e-04</internalNodes>
      <leafValues>
        -1.0641474276781082e-01 1.8209783732891083e-01</leafValues></_>
    <_>
      <internalNodes>
        0 -1 70970 5.0557749345898628e-03</internalNodes>
      <leafValues>
        3.9857886731624603e-02 -4.9211028218269348e-01</leafValues></_>
    <_>
      <internalNodes>
        0 -1 27675 2.2671236656606197e-03</internalNodes>
      <leafValues>
        -8.5526064038276672e-02 2.2851835191249847e-01</leafValues></_>
    <_>
      <internalNodes>
        0 -1 40713 -1.4670658856630325e-02</internalNodes>
      <leafValues>
        1.1249806731939316e-01 -1.6857716441154480e-01</leafValues></_>
    <_>
      <internalNodes>
        0 -1 57280 -1.8036752939224243e-02</internalNodes>
      <leafValues>
        3.2924026250839233e-01 -7.2091646492481232e-02</leafValues></_>
    <_>
      <internalNodes>
        0 -1 61027 -2.5907766539603472e-03</internalNodes>
      <leafValues>
        1.5214450657367706e-01 -1.3852216303348541e-01</leafValues></_>
    <_>
      <internalNodes>
        0 -1 65334 -2.7747368440032005e-03</internalNodes>
      <leafValues>
        -2.7867859601974487e-01 6.7063771188259125e-02</leafValues></_>
    <_>
      <internalNodes>
        0 -1 47483 -2.0472824573516846e-02</internalNodes>
      <leafValues>
        2.3020201921463013e-01 -8.3743706345558167e-02</leafValues></_>
    <_>
      <internalNodes>
        0 -1 47648 3.5778810270130634e-03</internalNodes>
      <leafValues>
        -1.1934102326631546e-01 1.5047928690910339e-01</leafValues></_>
    <_>
      <internalNodes>
        0 -1 25591 6.5010890364646912e-02</internalNodes>
      <leafValues>
        2.6406917721033096e-02 -7.1425485610961914e-01</leafValues></_>
    <_>
      <internalNodes>
        0 -1 55925 8.0656848847866058e-02</internalNodes>
      <leafValues>
        -5.9865333139896393e-02 2.9814875125885010e-01</leafValues></_>
    <_>
      <internalNodes>
        0 -1 70895 7.8381113708019257e-03</internalNodes>
      <leafValues>
        4.0273148566484451e-02 -4.6524894237518311e-01</leafValues></_>
    <_>
      <internalNodes>
        0 -1 44817 -1.5896634431555867e-03</internalNodes>
      <leafValues>
        1.9221307337284088e-01 -8.7767742574214935e-02</leafValues></_>
    <_>
      <internalNodes>
        0 -1 25764 -5.0522387027740479e-04</internalNodes>
      <leafValues>
        1.3824976980686188e-01 -1.2011842429637909e-01</leafValues></_>
    <_>
      <internalNodes>
        0 -1 24980 5.0180768594145775e-03</internalNodes>
      <leafValues>
        -8.1004187464714050e-02 2.4433340132236481e-01</leafValues></_>
    <_>
      <internalNodes>
        0 -1 46496 -2.2900518029928207e-02</internalNodes>
      <leafValues>
        -5.9755200147628784e-01 2.9986849054694176e-02</leafValues></_>
    <_>
      <internalNodes>
        0 -1 26156 3.4382776357233524e-03</internalNodes>
      <leafValues>
        -1.0100512951612473e-01 1.6416527330875397e-01</leafValues></_>
    <_>
      <internalNodes>
        0 -1 62028 2.8979528695344925e-02</internalNodes>
      <leafValues>
        2.2068025544285774e-02 -7.2714096307754517e-01</leafValues></_>
    <_>
      <internalNodes>
        0 -1 65259 9.7429472953081131e-03</internalNodes>
      <leafValues>
        -7.6726004481315613e-02 2.3381175100803375e-01</leafValues></_>
    <_>
      <internalNodes>
        0 -1 65434 -4.2452180059626698e-04</internalNodes>
      <leafValues>
        1.7913894355297089e-01 -1.2232600897550583e-01</leafValues></_>
    <_>
      <internalNodes>
        0 -1 68227 -2.7368997689336538e-04</internalNodes>
      <leafValues>
        1.6856698691844940e-01 -1.2412783503532410e-01</leafValues></_>
    <_>
      <internalNodes>
        0 -1 64329 -4.5503533328883350e-04</internalNodes>
      <leafValues>
        1.5140622854232788e-01 -1.1012272536754608e-01</leafValues></_>
    <_>
      <internalNodes>
        0 -1 64329 -5.2141849882900715e-03</internalNodes>
      <leafValues>
        -7.0330178737640381e-01 2.3659294471144676e-02</leafValues></_>
    <_>
      <internalNodes>
        0 -1 67808 -8.6315367370843887e-03</internalNodes>
      <leafValues>
        -7.0488077402114868e-01 1.8863556906580925e-02</leafValues></_>
    <_>
      <internalNodes>
        0 -1 67806 -8.7313354015350342e-04</internalNodes>
      <leafValues>
        1.6009630262851715e-01 -1.1165387928485870e-01</leafValues></_>
    <_>
      <internalNodes>
        0 -1 76634 6.0148397460579872e-03</internalNodes>
      <leafValues>
        5.6223716586828232e-02 -2.8851217031478882e-01</leafValues></_>
    <_>
      <internalNodes>
        0 -1 57591 2.9059214284643531e-04</internalNodes>
      <leafValues>
        -8.1042170524597168e-02 2.1899916231632233e-01</leafValues></_>
    <_>
      <internalNodes>
        0 -1 5619 2.0822800695896149e-02</internalNodes>
      <leafValues>
        -6.3858166337013245e-02 3.0551782250404358e-01</leafValues></_>
    <_>
      <internalNodes>
        0 -1 30414 -3.2412325963377953e-03</internalNodes>
      <leafValues>
        -2.0750527083873749e-01 8.4297537803649902e-02</leafValues></_>
    <_>
      <internalNodes>
        0 -1 42299 9.3731433153152466e-02</internalNodes>
      <leafValues>
        5.1023669540882111e-02 -3.3541122078895569e-01</leafValues></_>
    <_>
      <internalNodes>
        0 -1 68520 -3.1669868621975183e-04</internalNodes>
      <leafValues>
        1.4175067842006683e-01 -1.2923780083656311e-01</leafValues></_>
    <_>
      <internalNodes>
        0 -1 25465 -8.1698875874280930e-03</internalNodes>
      <leafValues>
        -5.8621346950531006e-01 2.8915736824274063e-02</leafValues></_>
    <_>
      <internalNodes>
        0 -1 48781 4.0634730830788612e-03</internalNodes>
      <leafValues>
        -9.9928475916385651e-02 1.6533970832824707e-01</leafValues></_>
    <_>
      <internalNodes>
        0 -1 52734 -6.3196709379553795e-03</internalNodes>
      <leafValues>
        1.9847130775451660e-01 -9.4441786408424377e-02</leafValues></_>
    <_>
      <internalNodes>
        0 -1 48299 -1.7189726233482361e-02</internalNodes>
      <leafValues>
        -7.2356957197189331e-01 2.5768375024199486e-02</leafValues></_>
    <_>
      <internalNodes>
        0 -1 49670 4.9774553626775742e-03</internalNodes>
      <leafValues>
        4.0742695331573486e-02 -3.5841381549835205e-01</leafValues></_>
    <_>
      <internalNodes>
        0 -1 42920 6.0103004798293114e-03</internalNodes>
      <leafValues>
        -8.2364141941070557e-02 2.1015381813049316e-01</leafValues></_>
    <_>
      <internalNodes>
        0 -1 49199 -1.0664347559213638e-02</internalNodes>
      <leafValues>
        -7.6640230417251587e-01 2.0785419270396233e-02</leafValues></_>
    <_>
      <internalNodes>
        0 -1 37471 3.7808604538440704e-03</internalNodes>
      <leafValues>
        -8.9579805731773376e-02 1.8588879704475403e-01</leafValues></_>
    <_>
      <internalNodes>
        0 -1 76118 -5.4129636846482754e-03</internalNodes>
      <leafValues>
        -7.4957913160324097e-01 2.5348672643303871e-02</leafValues></_>
    <_>
      <internalNodes>
        0 -1 76118 4.0453625842928886e-03</internalNodes>
      <leafValues>
        2.4598296731710434e-02 -5.4496777057647705e-01</leafValues></_>
    <_>
      <internalNodes>
        0 -1 65328 -1.0081386426463723e-03</internalNodes>
      <leafValues>
        2.1449072659015656e-01 -7.7452898025512695e-02</leafValues></_>
    <_>
      <internalNodes>
        0 -1 54286 -2.5960076600313187e-02</internalNodes>
      <leafValues>
        -6.2519770860671997e-01 3.1333725899457932e-02</leafValues></_>
    <_>
      <internalNodes>
        0 -1 33866 1.0452711954712868e-02</internalNodes>
      <leafValues>
        -5.6390784680843353e-02 3.1100144982337952e-01</leafValues></_>
    <_>
      <internalNodes>
        0 -1 39744 1.9391793757677078e-02</internalNodes>
      <leafValues>
        -3.3812087029218674e-02 4.1158074140548706e-01</leafValues></_>
    <_>
      <internalNodes>
        0 -1 44955 -6.5793539397418499e-03</internalNodes>
      <leafValues>
        3.2161644101142883e-01 -5.0243750214576721e-02</leafValues></_>
    <_>
      <internalNodes>
        0 -1 52476 -2.0640458911657333e-02</internalNodes>
      <leafValues>
        3.8830122351646423e-01 -3.9263542741537094e-02</leafValues></_>
    <_>
      <internalNodes>
        0 -1 49685 9.5618143677711487e-03</internalNodes>
      <leafValues>
        5.5859092622995377e-02 -2.9880118370056152e-01</leafValues></_>
    <_>
      <internalNodes>
        0 -1 48436 2.8383716940879822e-02</internalNodes>
      <leafValues>
        3.1790260225534439e-02 -5.2242118120193481e-01</leafValues></_>
    <_>
      <internalNodes>
        0 -1 37633 -4.3929129838943481e-02</internalNodes>
      <leafValues>
        -3.5505872964859009e-01 4.3542347848415375e-02</leafValues></_>
    <_>
      <internalNodes>
        0 -1 32639 -4.2399461381137371e-03</internalNodes>
      <leafValues>
        -6.0108709335327148e-01 2.5405101478099823e-02</leafValues></_>
    <_>
      <internalNodes>
        0 -1 77406 -5.1916606025770307e-05</internalNodes>
      <leafValues>
        -1.3162383437156677e-01 1.1690815538167953e-01</leafValues></_>
    <_>
      <internalNodes>
        0 -1 74681 -1.4901148388162255e-03</internalNodes>
      <leafValues>
        1.7681385576725006e-01 -8.9437052607536316e-02</leafValues></_>
    <_>
      <internalNodes>
        0 -1 34260 5.8760144747793674e-03</internalNodes>
      <leafValues>
        3.7638653069734573e-02 -4.4983786344528198e-01</leafValues></_>
    <_>
      <internalNodes>
        0 -1 12786 -6.5509572625160217e-02</internalNodes>
      <leafValues>
        5.7387155294418335e-01 -2.8826957568526268e-02</leafValues></_>
    <_>
      <internalNodes>
        0 -1 67630 7.7374849934130907e-04</internalNodes>
      <leafValues>
        -6.8284839391708374e-02 2.2206482291221619e-01</leafValues></_>
    <_>
      <internalNodes>
        0 -1 49667 5.0505879335105419e-04</internalNodes>
      <leafValues>
        -9.3515597283840179e-02 1.6907036304473877e-01</leafValues></_>
    <_>
      <internalNodes>
        0 -1 44833 -1.7707729712128639e-03</internalNodes>
      <leafValues>
        2.1311293542385101e-01 -9.0581849217414856e-02</leafValues></_>
    <_>
      <internalNodes>
        0 -1 42904 -3.3905357122421265e-03</internalNodes>
      <leafValues>
        -5.4335254430770874e-01 3.1510919332504272e-02</leafValues></_>
    <_>
      <internalNodes>
        0 -1 47764 -5.7501692324876785e-02</internalNodes>
      <leafValues>
        -3.5209995508193970e-01 4.4441815465688705e-02</leafValues></_>
    <_>
      <internalNodes>
        0 -1 62081 -1.0644465684890747e-02</internalNodes>
      <leafValues>
        3.3078363537788391e-01 -5.4833393543958664e-02</leafValues></_>
    <_>
      <internalNodes>
        0 -1 68435 6.6474853083491325e-03</internalNodes>
      <leafValues>
        2.6893401518464088e-02 -7.1975898742675781e-01</leafValues></_>
    <_>
      <internalNodes>
        0 -1 26654 -5.7564876042306423e-03</internalNodes>
      <leafValues>
        -1.8879105150699615e-01 9.2767141759395599e-02</leafValues></_>
    <_>
      <internalNodes>
        0 -1 45096 4.0192296728491783e-03</internalNodes>
      <leafValues>
        2.9874149709939957e-02 -5.6494724750518799e-01</leafValues></_>
    <_>
      <internalNodes>
        0 -1 12662 -1.5760418027639389e-02</internalNodes>
      <leafValues>
        1.5849317610263824e-01 -1.0074114799499512e-01</leafValues></_>
    <_>
      <internalNodes>
        0 -1 6094 1.4814645983278751e-03</internalNodes>
      <leafValues>
        -1.0781784355640411e-01 1.5429267287254333e-01</leafValues></_></weakClassifiers></stage8>
</opencv_storage>
