<?xml version="1.0"?>
<opencv_storage>
<stage0>
  <maxWeakCount>74</maxWeakCount>
  <stageThreshold>-9.6837973594665527e-01</stageThreshold>
  <weakClassifiers>
    <_>
      <internalNodes>
        0 -1 185857 1.2182231992483139e-02</internalNodes>
      <leafValues>
        -5.0436681509017944e-01 1.0902255773544312e-01</leafValues></_>
    <_>
      <internalNodes>
        0 -1 139123 7.7642230316996574e-03</internalNodes>
      <leafValues>
        -2.1750806272029877e-01 2.9853749275207520e-01</leafValues></_>
    <_>
      <internalNodes>
        0 -1 191486 1.7743393778800964e-02</internalNodes>
      <leafValues>
        -1.3032451272010803e-01 3.5306870937347412e-01</leafValues></_>
    <_>
      <internalNodes>
        0 -1 30849 8.1627666950225830e-03</internalNodes>
      <leafValues>
        -1.5092746913433075e-01 2.8341159224510193e-01</leafValues></_>
    <_>
      <internalNodes>
        0 -1 229813 1.0907901450991631e-03</internalNodes>
      <leafValues>
        -1.3949556648731232e-01 2.9574009776115417e-01</leafValues></_>
    <_>
      <internalNodes>
        0 -1 300040 -7.5691714882850647e-03</internalNodes>
      <leafValues>
        2.6131877303123474e-01 -1.4742045104503632e-01</leafValues></_>
    <_>
      <internalNodes>
        0 -1 65098 -9.1066844761371613e-03</internalNodes>
      <leafValues>
        2.6137796044349670e-01 -1.2558338046073914e-01</leafValues></_>
    <_>
      <internalNodes>
        0 -1 51760 5.4621554911136627e-02</internalNodes>
      <leafValues>
        8.5950449109077454e-02 -5.3602361679077148e-01</leafValues></_>
    <_>
      <internalNodes>
        0 -1 189824 -4.1123074479401112e-03</internalNodes>
      <leafValues>
        3.2903039455413818e-01 -9.7042046487331390e-02</leafValues></_>
    <_>
      <internalNodes>
        0 -1 189221 -8.7149813771247864e-04</internalNodes>
      <leafValues>
        2.7085396647453308e-01 -1.2329498678445816e-01</leafValues></_>
    <_>
      <internalNodes>
        0 -1 48018 -1.4579364657402039e-01</internalNodes>
      <leafValues>
        -3.9535290002822876e-01 6.8157903850078583e-02</leafValues></_>
    <_>
      <internalNodes>
        0 -1 258143 8.3963591605424881e-03</internalNodes>
      <leafValues>
        -1.0964164882898331e-01 2.5998225808143616e-01</leafValues></_>
    <_>
      <internalNodes>
        0 -1 187761 -4.2270074482075870e-04</internalNodes>
      <leafValues>
        2.4246910214424133e-01 -1.1200511455535889e-01</leafValues></_>
    <_>
      <internalNodes>
        0 -1 70523 -7.5486022979021072e-03</internalNodes>
      <leafValues>
        3.5227754712104797e-01 -8.0396860837936401e-02</leafValues></_>
    <_>
      <internalNodes>
        0 -1 190951 -6.7790029570460320e-03</internalNodes>
      <leafValues>
        2.9358577728271484e-01 -8.4933102130889893e-02</leafValues></_>
    <_>
      <internalNodes>
        0 -1 190126 -1.2249184772372246e-02</internalNodes>
      <leafValues>
        3.5039398074150085e-01 -6.5095096826553345e-02</leafValues></_>
    <_>
      <internalNodes>
        0 -1 63727 -4.7867847606539726e-03</internalNodes>
      <leafValues>
        2.2087727487087250e-01 -1.1211012303829193e-01</leafValues></_>
    <_>
      <internalNodes>
        0 -1 172472 9.5232797320932150e-04</internalNodes>
      <leafValues>
        -1.1357673257589340e-01 2.2354933619499207e-01</leafValues></_>
    <_>
      <internalNodes>
        0 -1 282643 4.9272857606410980e-02</internalNodes>
      <leafValues>
        -4.0619850158691406e-02 5.3941226005554199e-01</leafValues></_>
    <_>
      <internalNodes>
        0 -1 163194 2.7319218963384628e-02</internalNodes>
      <leafValues>
        4.5576650649309158e-02 -5.7053023576736450e-01</leafValues></_>
    <_>
      <internalNodes>
        0 -1 103284 1.2814918160438538e-01</internalNodes>
      <leafValues>
        4.0340047329664230e-02 -4.9432483315467834e-01</leafValues></_>
    <_>
      <internalNodes>
        0 -1 273266 4.4837646186351776e-02</internalNodes>
      <leafValues>
        4.3357037007808685e-02 -5.2220958471298218e-01</leafValues></_>
    <_>
      <internalNodes>
        0 -1 198217 1.4725570566952229e-02</internalNodes>
      <leafValues>
        5.4767433553934097e-02 -3.7952554225921631e-01</leafValues></_>
    <_>
      <internalNodes>
        0 -1 266467 -5.2410792559385300e-03</internalNodes>
      <leafValues>
        -4.3144685029983521e-01 4.6766705811023712e-02</leafValues></_>
    <_>
      <internalNodes>
        0 -1 216873 -6.8545911926776171e-04</internalNodes>
      <leafValues>
        2.0735880732536316e-01 -1.1258067190647125e-01</leafValues></_>
    <_>
      <internalNodes>
        0 -1 283597 -7.6234322041273117e-03</internalNodes>
      <leafValues>
        3.1582015752792358e-01 -6.6192373633384705e-02</leafValues></_>
    <_>
      <internalNodes>
        0 -1 274690 -8.4310267120599747e-03</internalNodes>
      <leafValues>
        -8.7297099828720093e-01 2.6618946343660355e-02</leafValues></_>
    <_>
      <internalNodes>
        0 -1 255998 -6.0384033713489771e-04</internalNodes>
      <leafValues>
        1.9788068532943726e-01 -1.0800940543413162e-01</leafValues></_>
    <_>
      <internalNodes>
        0 -1 192123 -3.1145657412707806e-03</internalNodes>
      <leafValues>
        -5.5043917894363403e-01 4.3274801224470139e-02</leafValues></_>
    <_>
      <internalNodes>
        0 -1 70963 8.8946986943483353e-03</internalNodes>
      <leafValues>
        -8.7539732456207275e-02 2.4962052702903748e-01</leafValues></_>
    <_>
      <internalNodes>
        0 -1 174264 4.5820228755474091e-02</internalNodes>
      <leafValues>
        -4.7852467745542526e-02 4.3813169002532959e-01</leafValues></_>
    <_>
      <internalNodes>
        0 -1 190352 -2.0607947371900082e-03</internalNodes>
      <leafValues>
        2.1002994477748871e-01 -9.8642379045486450e-02</leafValues></_>
    <_>
      <internalNodes>
        0 -1 164657 9.8253786563873291e-03</internalNodes>
      <leafValues>
        -1.0203602910041809e-01 2.0680634677410126e-01</leafValues></_>
    <_>
      <internalNodes>
        0 -1 121024 -4.4063091278076172e-02</internalNodes>
      <leafValues>
        -3.3750373125076294e-01 6.3706561923027039e-02</leafValues></_>
    <_>
      <internalNodes>
        0 -1 215753 -9.9253957159817219e-04</internalNodes>
      <leafValues>
        2.1421775221824646e-01 -9.3271277844905853e-02</leafValues></_>
    <_>
      <internalNodes>
        0 -1 250769 -2.8757588006556034e-03</internalNodes>
      <leafValues>
        2.1288192272186279e-01 -1.0420067608356476e-01</leafValues></_>
    <_>
      <internalNodes>
        0 -1 28701 -6.6633541136980057e-03</internalNodes>
      <leafValues>
        -2.1675091981887817e-01 8.9775212109088898e-02</leafValues></_>
    <_>
      <internalNodes>
        0 -1 78401 -2.2315340116620064e-02</internalNodes>
      <leafValues>
        3.6754491925239563e-01 -5.4824445396661758e-02</leafValues></_>
    <_>
      <internalNodes>
        0 -1 126252 3.1960150226950645e-03</internalNodes>
      <leafValues>
        -1.1997540295124054e-01 1.5666478872299194e-01</leafValues></_>
    <_>
      <internalNodes>
        0 -1 44689 5.0159800052642822e-01</internalNodes>
      <leafValues>
        4.1855677962303162e-02 -5.4603785276412964e-01</leafValues></_>
    <_>
      <internalNodes>
        0 -1 107074 -1.1668926104903221e-02</internalNodes>
      <leafValues>
        2.6209175586700439e-01 -9.2804998159408569e-02</leafValues></_>
    <_>
      <internalNodes>
        0 -1 140568 -1.2319354340434074e-02</internalNodes>
      <leafValues>
        -6.4874243736267090e-01 3.5766568034887314e-02</leafValues></_>
    <_>
      <internalNodes>
        0 -1 229423 -3.0300194397568703e-02</internalNodes>
      <leafValues>
        2.4538606405258179e-01 -8.6011700332164764e-02</leafValues></_>
    <_>
      <internalNodes>
        0 -1 274875 5.0192237831652164e-03</internalNodes>
      <leafValues>
        -7.7106282114982605e-02 2.6288887858390808e-01</leafValues></_>
    <_>
      <internalNodes>
        0 -1 97304 -5.3724683821201324e-03</internalNodes>
      <leafValues>
        1.4675712585449219e-01 -1.2196046113967896e-01</leafValues></_>
    <_>
      <internalNodes>
        0 -1 273933 8.2420208491384983e-04</internalNodes>
      <leafValues>
        -1.1421179771423340e-01 1.7128881812095642e-01</leafValues></_>
    <_>
      <internalNodes>
        0 -1 296157 -6.2031368725001812e-03</internalNodes>
      <leafValues>
        -5.4678690433502197e-01 3.7275586277246475e-02</leafValues></_>
    <_>
      <internalNodes>
        0 -1 203461 2.5133322924375534e-02</internalNodes>
      <leafValues>
        2.0547602325677872e-02 -7.5295472145080566e-01</leafValues></_>
    <_>
      <internalNodes>
        0 -1 242166 1.7376385629177094e-02</internalNodes>
      <leafValues>
        -8.7747335433959961e-02 2.2657506167888641e-01</leafValues></_>
    <_>
      <internalNodes>
        0 -1 31473 1.6134718060493469e-01</internalNodes>
      <leafValues>
        4.1709613054990768e-02 -5.3398472070693970e-01</leafValues></_>
    <_>
      <internalNodes>
        0 -1 71181 -3.5837979521602392e-03</internalNodes>
      <leafValues>
        3.4310859441757202e-01 -5.6346461176872253e-02</leafValues></_>
    <_>
      <internalNodes>
        0 -1 129243 2.8827488422393799e-03</internalNodes>
      <leafValues>
        7.1065083146095276e-02 -2.6713675260543823e-01</leafValues></_>
    <_>
      <internalNodes>
        0 -1 294742 -6.9485083222389221e-03</internalNodes>
      <leafValues>
        2.5643748044967651e-01 -7.7511832118034363e-02</leafValues></_>
    <_>
      <internalNodes>
        0 -1 129471 7.9484801972284913e-05</internalNodes>
      <leafValues>
        1.2995690107345581e-01 -1.4371946454048157e-01</leafValues></_>
    <_>
      <internalNodes>
        0 -1 18931 1.7717227339744568e-02</internalNodes>
      <leafValues>
        -7.8079476952552795e-02 2.4825121462345123e-01</leafValues></_>
    <_>
      <internalNodes>
        0 -1 87263 -8.2922708243131638e-03</internalNodes>
      <leafValues>
        -4.8571261763572693e-01 4.0489330887794495e-02</leafValues></_>
    <_>
      <internalNodes>
        0 -1 283709 4.3869967339560390e-04</internalNodes>
      <leafValues>
        -1.3023944199085236e-01 1.4815866947174072e-01</leafValues></_>
    <_>
      <internalNodes>
        0 -1 79592 2.4880569428205490e-02</internalNodes>
      <leafValues>
        -3.2764632254838943e-02 6.1311769485473633e-01</leafValues></_>
    <_>
      <internalNodes>
        0 -1 124392 -2.2010793909430504e-02</internalNodes>
      <leafValues>
        5.4175961017608643e-01 -3.0295716598629951e-02</leafValues></_>
    <_>
      <internalNodes>
        0 -1 199964 -6.0385870747268200e-03</internalNodes>
      <leafValues>
        2.2568264603614807e-01 -8.3504647016525269e-02</leafValues></_>
    <_>
      <internalNodes>
        0 -1 171553 -7.3821796104311943e-04</internalNodes>
      <leafValues>
        2.0136474072933197e-01 -1.0431867837905884e-01</leafValues></_>
    <_>
      <internalNodes>
        0 -1 140543 -7.7876867726445198e-03</internalNodes>
      <leafValues>
        -6.7818689346313477e-01 3.0484739691019058e-02</leafValues></_>
    <_>
      <internalNodes>
        0 -1 172980 1.5330491587519646e-02</internalNodes>
      <leafValues>
        -1.0627660900354385e-01 1.9574744999408722e-01</leafValues></_>
    <_>
      <internalNodes>
        0 -1 104843 1.3953246176242828e-01</internalNodes>
      <leafValues>
        4.6454217284917831e-02 -4.7331908345222473e-01</leafValues></_>
    <_>
      <internalNodes>
        0 -1 142579 2.0993330690544099e-04</internalNodes>
      <leafValues>
        -1.1512418091297150e-01 1.8209284543991089e-01</leafValues></_>
    <_>
      <internalNodes>
        0 -1 172420 -8.7221134454011917e-03</internalNodes>
      <leafValues>
        -6.0304278135299683e-01 3.1379077583551407e-02</leafValues></_>
    <_>
      <internalNodes>
        0 -1 110819 -5.1966689527034760e-02</internalNodes>
      <leafValues>
        3.3270063996315002e-01 -5.9318613260984421e-02</leafValues></_>
    <_>
      <internalNodes>
        0 -1 230852 1.1221147142350674e-02</internalNodes>
      <leafValues>
        4.0260538458824158e-02 -4.7274026274681091e-01</leafValues></_>
    <_>
      <internalNodes>
        0 -1 254655 -7.1930768899619579e-04</internalNodes>
      <leafValues>
        2.3027421534061432e-01 -7.5803242623806000e-02</leafValues></_>
    <_>
      <internalNodes>
        0 -1 293841 -7.2814445011317730e-03</internalNodes>
      <leafValues>
        -3.9739859104156494e-01 5.0401981920003891e-02</leafValues></_>
    <_>
      <internalNodes>
        0 -1 185789 7.0696398615837097e-02</internalNodes>
      <leafValues>
        4.0306255221366882e-02 -4.4771143794059753e-01</leafValues></_>
    <_>
      <internalNodes>
        0 -1 146310 -6.8562500178813934e-02</internalNodes>
      <leafValues>
        4.8479285836219788e-01 -4.0207710117101669e-02</leafValues></_>
    <_>
      <internalNodes>
        0 -1 241350 -2.1415814757347107e-02</internalNodes>
      <leafValues>
        -4.9150967597961426e-01 3.6027755588293076e-02</leafValues></_>
    <_>
      <internalNodes>
        0 -1 265168 5.6053383741527796e-04</internalNodes>
      <leafValues>
        -9.7638167440891266e-02 1.8225575983524323e-01</leafValues></_></weakClassifiers></stage0>
</opencv_storage>
