<?xml version="1.0"?>
<opencv_storage>
<stage0>
  <maxWeakCount>7</maxWeakCount>
  <stageThreshold>-1.7742817401885986e+00</stageThreshold>
  <weakClassifiers>
    <_>
      <internalNodes>
        0 -1 52476 1.3400339521467686e-02</internalNodes>
      <leafValues>
        -6.2821948528289795e-01 7.7777779102325439e-01</leafValues></_>
    <_>
      <internalNodes>
        0 -1 32099 -2.3215435445308685e-02</internalNodes>
      <leafValues>
        6.1942952871322632e-01 -4.9346926808357239e-01</leafValues></_>
    <_>
      <internalNodes>
        0 -1 62318 -6.7239929921925068e-04</internalNodes>
      <leafValues>
        5.5585306882858276e-01 -3.0004039406776428e-01</leafValues></_>
    <_>
      <internalNodes>
        0 -1 11828 -1.2986860238015652e-02</internalNodes>
      <leafValues>
        4.0614330768585205e-01 -4.0132051706314087e-01</leafValues></_>
    <_>
      <internalNodes>
        0 -1 49685 -6.7759193480014801e-03</internalNodes>
      <leafValues>
        -8.3685028553009033e-01 1.9437082111835480e-01</leafValues></_>
    <_>
      <internalNodes>
        0 -1 61253 -7.9173687845468521e-04</internalNodes>
      <leafValues>
        2.6247122883796692e-01 -5.5226600170135498e-01</leafValues></_>
    <_>
      <internalNodes>
        0 -1 32640 9.2938600573688745e-04</internalNodes>
      <leafValues>
        -4.4923037290573120e-01 3.7829044461250305e-01</leafValues></_></weakClassifiers></stage0>
</opencv_storage>
