<?xml version="1.0"?>
<opencv_storage>
<stage11>
  <maxWeakCount>30</maxWeakCount>
  <stageThreshold>-9.6065419912338257e-01</stageThreshold>
  <weakClassifiers>
    <_>
      <internalNodes>
        0 -1 70987 -1.8124618800356984e-03</internalNodes>
      <leafValues>
        5.4086178541183472e-01 -7.0652171969413757e-02</leafValues></_>
    <_>
      <internalNodes>
        0 -1 64326 7.7588931890204549e-04</internalNodes>
      <leafValues>
        -3.4800940752029419e-01 2.4050647020339966e-01</leafValues></_>
    <_>
      <internalNodes>
        0 -1 44319 -2.2941096685826778e-03</internalNodes>
      <leafValues>
        3.7237018346786499e-01 -2.0407380163669586e-01</leafValues></_>
    <_>
      <internalNodes>
        0 -1 54215 -3.1884924974292517e-03</internalNodes>
      <leafValues>
        -5.1215118169784546e-01 1.3091140985488892e-01</leafValues></_>
    <_>
      <internalNodes>
        0 -1 61104 1.7067838925868273e-03</internalNodes>
      <leafValues>
        -3.5304513573646545e-01 1.6707052290439606e-01</leafValues></_>
    <_>
      <internalNodes>
        0 -1 54330 -1.6519001219421625e-03</internalNodes>
      <leafValues>
        -7.5956439971923828e-01 3.4887153655290604e-02</leafValues></_>
    <_>
      <internalNodes>
        0 -1 54328 8.3079177420586348e-04</internalNodes>
      <leafValues>
        8.5251539945602417e-02 -6.0533595085144043e-01</leafValues></_>
    <_>
      <internalNodes>
        0 -1 48748 1.0683985892683268e-03</internalNodes>
      <leafValues>
        -2.1516707539558411e-01 2.5477224588394165e-01</leafValues></_>
    <_>
      <internalNodes>
        0 -1 19543 -7.3867231607437134e-02</internalNodes>
      <leafValues>
        -6.1328923702239990e-01 8.1135489046573639e-02</leafValues></_>
    <_>
      <internalNodes>
        0 -1 53035 3.5896882414817810e-02</internalNodes>
      <leafValues>
        6.7471921443939209e-02 -6.8350267410278320e-01</leafValues></_>
    <_>
      <internalNodes>
        0 -1 49541 -4.9188211560249329e-03</internalNodes>
      <leafValues>
        -9.4923710823059082e-01 4.5469790697097778e-02</leafValues></_>
    <_>
      <internalNodes>
        0 -1 55793 1.2261254712939262e-02</internalNodes>
      <leafValues>
        4.9657024443149567e-02 -7.1335774660110474e-01</leafValues></_>
    <_>
      <internalNodes>
        0 -1 61939 5.3545711562037468e-03</internalNodes>
      <leafValues>
        -1.7319297790527344e-01 2.8791207075119019e-01</leafValues></_>
    <_>
      <internalNodes>
        0 -1 68554 1.5882670879364014e-02</internalNodes>
      <leafValues>
        -1.3286949694156647e-01 5.2376371622085571e-01</leafValues></_>
    <_>
      <internalNodes>
        0 -1 7010 5.2632227540016174e-02</internalNodes>
      <leafValues>
        -1.2056887149810791e-01 3.7685832381248474e-01</leafValues></_>
    <_>
      <internalNodes>
        0 -1 70968 -5.1580718718469143e-04</internalNodes>
      <leafValues>
        2.4288086593151093e-01 -2.0869547128677368e-01</leafValues></_>
    <_>
      <internalNodes>
        0 -1 44843 -6.1052474193274975e-03</internalNodes>
      <leafValues>
        3.4669581055641174e-01 -1.5448178350925446e-01</leafValues></_>
    <_>
      <internalNodes>
        0 -1 61445 -5.6215552613139153e-03</internalNodes>
      <leafValues>
        -8.6712563037872314e-01 6.3003785908222198e-02</leafValues></_>
    <_>
      <internalNodes>
        0 -1 68343 -5.5614131269976497e-04</internalNodes>
      <leafValues>
        2.5180923938751221e-01 -2.0435184240341187e-01</leafValues></_>
    <_>
      <internalNodes>
        0 -1 39530 6.2770578078925610e-03</internalNodes>
      <leafValues>
        1.1402370780706406e-01 -4.7817844152450562e-01</leafValues></_>
    <_>
      <internalNodes>
        0 -1 33685 5.5182250216603279e-03</internalNodes>
      <leafValues>
        -1.4808447659015656e-01 3.7293708324432373e-01</leafValues></_>
    <_>
      <internalNodes>
        0 -1 68342 -8.5541867883875966e-04</internalNodes>
      <leafValues>
        2.8754585981369019e-01 -1.8577906489372253e-01</leafValues></_>
    <_>
      <internalNodes>
        0 -1 18415 1.7196634784340858e-02</internalNodes>
      <leafValues>
        1.0562090575695038e-01 -5.2983897924423218e-01</leafValues></_>
    <_>
      <internalNodes>
        0 -1 49565 3.2406314276158810e-03</internalNodes>
      <leafValues>
        9.8373673856258392e-02 -4.7401940822601318e-01</leafValues></_>
    <_>
      <internalNodes>
        0 -1 44865 4.6340096741914749e-03</internalNodes>
      <leafValues>
        -2.0403037965297699e-01 2.5782456994056702e-01</leafValues></_>
    <_>
      <internalNodes>
        0 -1 71042 -5.0750811351463199e-04</internalNodes>
      <leafValues>
        2.7135133743286133e-01 -2.3144806921482086e-01</leafValues></_>
    <_>
      <internalNodes>
        0 -1 48216 6.2723830342292786e-04</internalNodes>
      <leafValues>
        -3.1126847863197327e-01 1.6741941869258881e-01</leafValues></_>
    <_>
      <internalNodes>
        0 -1 48218 6.0280249454081059e-03</internalNodes>
      <leafValues>
        5.6604236364364624e-02 -8.3078849315643311e-01</leafValues></_>
    <_>
      <internalNodes>
        0 -1 36708 -1.0841736802831292e-03</internalNodes>
      <leafValues>
        2.8477960824966431e-01 -2.0416797697544098e-01</leafValues></_>
    <_>
      <internalNodes>
        0 -1 56959 3.1940564513206482e-02</internalNodes>
      <leafValues>
        -8.3670124411582947e-02 5.1294529438018799e-01</leafValues></_></weakClassifiers></stage11>
</opencv_storage>
