<?xml version="1.0"?>
<opencv_storage>
<stage0>
  <maxWeakCount>16</maxWeakCount>
  <stageThreshold>-1.1012407541275024e+00</stageThreshold>
  <weakClassifiers>
    <_>
      <internalNodes>
        0 -1 52200 1.6182564198970795e-02</internalNodes>
      <leafValues>
        -2.9579287767410278e-01 6.9943505525588989e-01</leafValues></_>
    <_>
      <internalNodes>
        0 -1 31724 3.5441699437797070e-03</internalNodes>
      <leafValues>
        -4.8286160826683044e-01 3.8587036728858948e-01</leafValues></_>
    <_>
      <internalNodes>
        0 -1 60790 1.6423249617218971e-03</internalNodes>
      <leafValues>
        -2.6183444261550903e-01 4.2108273506164551e-01</leafValues></_>
    <_>
      <internalNodes>
        0 -1 39020 4.7137383371591568e-03</internalNodes>
      <leafValues>
        -2.5507482886314392e-01 3.8259255886077881e-01</leafValues></_>
    <_>
      <internalNodes>
        0 -1 17970 8.7359976023435593e-03</internalNodes>
      <leafValues>
        -3.0237179994583130e-01 2.5484079122543335e-01</leafValues></_>
    <_>
      <internalNodes>
        0 -1 74905 -4.5453716302290559e-04</internalNodes>
      <leafValues>
        3.7714675068855286e-01 -2.1069353818893433e-01</leafValues></_>
    <_>
      <internalNodes>
        0 -1 52707 -3.1381331384181976e-02</internalNodes>
      <leafValues>
        -6.6313081979751587e-01 9.2521041631698608e-02</leafValues></_>
    <_>
      <internalNodes>
        0 -1 56680 -1.8348608165979385e-02</internalNodes>
      <leafValues>
        -7.0826023817062378e-01 7.8133448958396912e-02</leafValues></_>
    <_>
      <internalNodes>
        0 -1 65328 -4.2807322461158037e-04</internalNodes>
      <leafValues>
        3.7325355410575867e-01 -1.9798643887042999e-01</leafValues></_>
    <_>
      <internalNodes>
        0 -1 43729 9.7811901941895485e-03</internalNodes>
      <leafValues>
        -1.7137967050075531e-01 4.5805007219314575e-01</leafValues></_>
    <_>
      <internalNodes>
        0 -1 53347 -2.4765948764979839e-03</internalNodes>
      <leafValues>
        3.3810460567474365e-01 -1.8839807808399200e-01</leafValues></_>
    <_>
      <internalNodes>
        0 -1 57280 -1.9069731235504150e-02</internalNodes>
      <leafValues>
        5.8677434921264648e-01 -1.1435588449239731e-01</leafValues></_>
    <_>
      <internalNodes>
        0 -1 57803 1.5842881053686142e-02</internalNodes>
      <leafValues>
        8.5507251322269440e-02 -8.5119813680648804e-01</leafValues></_>
    <_>
      <internalNodes>
        0 -1 62185 -1.3461878988891840e-03</internalNodes>
      <leafValues>
        2.8355073928833008e-01 -2.5116753578186035e-01</leafValues></_>
    <_>
      <internalNodes>
        0 -1 49521 -5.0841964548453689e-04</internalNodes>
      <leafValues>
        3.4260597825050354e-01 -1.8532340228557587e-01</leafValues></_>
    <_>
      <internalNodes>
        0 -1 14007 -1.7117583751678467e-01</internalNodes>
      <leafValues>
        7.2062432765960693e-01 -7.2623327374458313e-02</leafValues></_></weakClassifiers></stage0>
</opencv_storage>
