<?xml version="1.0"?>
<opencv_storage>
<stage9>
  <maxWeakCount>29</maxWeakCount>
  <stageThreshold>-1.0421839952468872e+00</stageThreshold>
  <weakClassifiers>
    <_>
      <internalNodes>
        0 -1 32087 6.8504936993122101e-02</internalNodes>
      <leafValues>
        1.7230376601219177e-02 7.0554924011230469e-01</leafValues></_>
    <_>
      <internalNodes>
        0 -1 73309 -4.7869113041087985e-04</internalNodes>
      <leafValues>
        3.5625049471855164e-01 -2.8584027290344238e-01</leafValues></_>
    <_>
      <internalNodes>
        0 -1 53972 -6.9220503792166710e-03</internalNodes>
      <leafValues>
        3.7776693701744080e-01 -2.0120169222354889e-01</leafValues></_>
    <_>
      <internalNodes>
        0 -1 71065 5.6269336491823196e-03</internalNodes>
      <leafValues>
        -2.1293720602989197e-01 3.5524266958236694e-01</leafValues></_>
    <_>
      <internalNodes>
        0 -1 56411 3.0255094170570374e-02</internalNodes>
      <leafValues>
        -5.2716352045536041e-02 7.0336896181106567e-01</leafValues></_>
    <_>
      <internalNodes>
        0 -1 57432 1.2636622413992882e-03</internalNodes>
      <leafValues>
        1.0468031466007233e-01 -6.2519145011901855e-01</leafValues></_>
    <_>
      <internalNodes>
        0 -1 39377 1.1617093347012997e-02</internalNodes>
      <leafValues>
        1.0202368348836899e-01 -6.7400628328323364e-01</leafValues></_>
    <_>
      <internalNodes>
        0 -1 61249 4.3830717913806438e-04</internalNodes>
      <leafValues>
        -3.1360033154487610e-01 1.8863059580326080e-01</leafValues></_>
    <_>
      <internalNodes>
        0 -1 54516 1.1520120315253735e-03</internalNodes>
      <leafValues>
        -1.8772970139980316e-01 3.2929307222366333e-01</leafValues></_>
    <_>
      <internalNodes>
        0 -1 33630 1.2427897891029716e-03</internalNodes>
      <leafValues>
        -1.9065816700458527e-01 2.8276190161705017e-01</leafValues></_>
    <_>
      <internalNodes>
        0 -1 58508 -4.0370720671489835e-04</internalNodes>
      <leafValues>
        2.6751819252967834e-01 -2.1713240444660187e-01</leafValues></_>
    <_>
      <internalNodes>
        0 -1 49693 3.1835637055337429e-03</internalNodes>
      <leafValues>
        9.0148791670799255e-02 -7.7656340599060059e-01</leafValues></_>
    <_>
      <internalNodes>
        0 -1 68345 7.8089097514748573e-03</internalNodes>
      <leafValues>
        5.3227465599775314e-02 -9.3184667825698853e-01</leafValues></_>
    <_>
      <internalNodes>
        0 -1 31737 -1.9593902397900820e-03</internalNodes>
      <leafValues>
        -5.2650356292724609e-01 9.5187343657016754e-02</leafValues></_>
    <_>
      <internalNodes>
        0 -1 44658 -2.1164769714232534e-04</internalNodes>
      <leafValues>
        2.6814094185829163e-01 -2.2093006968498230e-01</leafValues></_>
    <_>
      <internalNodes>
        0 -1 42695 2.3191742599010468e-02</internalNodes>
      <leafValues>
        1.0445427149534225e-01 -5.5907320976257324e-01</leafValues></_>
    <_>
      <internalNodes>
        0 -1 21340 5.0620045512914658e-03</internalNodes>
      <leafValues>
        -1.7475128173828125e-01 3.4155079722404480e-01</leafValues></_>
    <_>
      <internalNodes>
        0 -1 21375 -1.9951140508055687e-02</internalNodes>
      <leafValues>
        5.3195822238922119e-01 -1.2312737107276917e-01</leafValues></_>
    <_>
      <internalNodes>
        0 -1 58348 -2.3583425208926201e-03</internalNodes>
      <leafValues>
        -8.4420281648635864e-01 8.3078227937221527e-02</leafValues></_>
    <_>
      <internalNodes>
        0 -1 58277 -9.0338028967380524e-03</internalNodes>
      <leafValues>
        2.8462859988212585e-01 -1.9385071098804474e-01</leafValues></_>
    <_>
      <internalNodes>
        0 -1 36658 -4.7490990255028009e-04</internalNodes>
      <leafValues>
        2.8611302375793457e-01 -1.9071470201015472e-01</leafValues></_>
    <_>
      <internalNodes>
        0 -1 68520 -2.0228388893883675e-04</internalNodes>
      <leafValues>
        2.0197337865829468e-01 -2.6319384574890137e-01</leafValues></_>
    <_>
      <internalNodes>
        0 -1 12600 2.9161707498133183e-03</internalNodes>
      <leafValues>
        -1.2565287947654724e-01 4.3507352471351624e-01</leafValues></_>
    <_>
      <internalNodes>
        0 -1 22451 -3.1815085560083389e-02</internalNodes>
      <leafValues>
        4.0807619690895081e-01 -1.2611748278141022e-01</leafValues></_>
    <_>
      <internalNodes>
        0 -1 27031 8.7903346866369247e-04</internalNodes>
      <leafValues>
        -1.4812082052230835e-01 3.5793480277061462e-01</leafValues></_>
    <_>
      <internalNodes>
        0 -1 44816 2.7689945418387651e-03</internalNodes>
      <leafValues>
        5.8339096605777740e-02 -8.9304530620574951e-01</leafValues></_>
    <_>
      <internalNodes>
        0 -1 48502 5.7285174261778593e-04</internalNodes>
      <leafValues>
        -3.1058871746063232e-01 1.6815201938152313e-01</leafValues></_>
    <_>
      <internalNodes>
        0 -1 52773 1.2210903689265251e-02</internalNodes>
      <leafValues>
        -1.5585458278656006e-01 3.6466187238693237e-01</leafValues></_>
    <_>
      <internalNodes>
        0 -1 70894 -7.1541923098266125e-03</internalNodes>
      <leafValues>
        -7.6194047927856445e-01 7.1170724928379059e-02</leafValues></_></weakClassifiers></stage9>
</opencv_storage>
