<?xml version="1.0"?>
<opencv_storage>
<stage8>
  <maxWeakCount>100</maxWeakCount>
  <stageThreshold>-1.0497114658355713e+00</stageThreshold>
  <weakClassifiers>
    <_>
      <internalNodes>
        0 -1 107749 1.8793918192386627e-02</internalNodes>
      <leafValues>
        -5.4276829957962036e-01 3.1746033579111099e-02</leafValues></_>
    <_>
      <internalNodes>
        0 -1 187127 -8.7167108431458473e-03</internalNodes>
      <leafValues>
        2.1621809899806976e-01 -1.3114482164382935e-01</leafValues></_>
    <_>
      <internalNodes>
        0 -1 128357 -2.3332763463258743e-02</internalNodes>
      <leafValues>
        4.3611264228820801e-01 -3.0249992385506630e-02</leafValues></_>
    <_>
      <internalNodes>
        0 -1 231910 6.9818564224988222e-04</internalNodes>
      <leafValues>
        -6.8566918373107910e-02 1.7680984735488892e-01</leafValues></_>
    <_>
      <internalNodes>
        0 -1 262947 -6.6303476691246033e-02</internalNodes>
      <leafValues>
        4.1881886124610901e-01 -2.9564734548330307e-02</leafValues></_>
    <_>
      <internalNodes>
        0 -1 306863 1.7732942476868629e-02</internalNodes>
      <leafValues>
        -2.9737437143921852e-02 4.2178016901016235e-01</leafValues></_>
    <_>
      <internalNodes>
        0 -1 265867 -2.7387843001633883e-03</internalNodes>
      <leafValues>
        -6.2678664922714233e-01 2.2236242890357971e-02</leafValues></_>
    <_>
      <internalNodes>
        0 -1 187003 9.0574193745851517e-03</internalNodes>
      <leafValues>
        2.3345684632658958e-02 -8.5397410392761230e-01</leafValues></_>
    <_>
      <internalNodes>
        0 -1 288892 -1.7564643174409866e-02</internalNodes>
      <leafValues>
        -7.4410271644592285e-01 1.9513122737407684e-02</leafValues></_>
    <_>
      <internalNodes>
        0 -1 304130 1.7761489376425743e-02</internalNodes>
      <leafValues>
        -1.6443438827991486e-02 6.1923354864120483e-01</leafValues></_>
    <_>
      <internalNodes>
        0 -1 4752 3.3333439379930496e-02</internalNodes>
      <leafValues>
        -8.5953563451766968e-02 1.5905377268791199e-01</leafValues></_>
    <_>
      <internalNodes>
        0 -1 48572 -5.2334449719637632e-04</internalNodes>
      <leafValues>
        1.4170762896537781e-01 -9.8589889705181122e-02</leafValues></_>
    <_>
      <internalNodes>
        0 -1 265942 -4.9202553927898407e-03</internalNodes>
      <leafValues>
        -4.2430639266967773e-01 2.9806623235344887e-02</leafValues></_>
    <_>
      <internalNodes>
        0 -1 28556 -5.3259190171957016e-03</internalNodes>
      <leafValues>
        1.6377496719360352e-01 -8.1449054181575775e-02</leafValues></_>
    <_>
      <internalNodes>
        0 -1 159776 -4.4805491343140602e-03</internalNodes>
      <leafValues>
        1.8086378276348114e-01 -8.3463959395885468e-02</leafValues></_>
    <_>
      <internalNodes>
        0 -1 151367 3.6328464746475220e-02</internalNodes>
      <leafValues>
        -2.3203413933515549e-02 3.5914641618728638e-01</leafValues></_>
    <_>
      <internalNodes>
        0 -1 269157 3.1901717185974121e-02</internalNodes>
      <leafValues>
        3.4334294497966766e-02 -3.9322254061698914e-01</leafValues></_>
    <_>
      <internalNodes>
        0 -1 240281 -2.4571266025304794e-02</internalNodes>
      <leafValues>
        -7.3447912931442261e-01 -1.8373468192294240e-03</leafValues></_>
    <_>
      <internalNodes>
        0 -1 115935 -1.4200890436768532e-02</internalNodes>
      <leafValues>
        -4.4251686334609985e-01 3.1303785741329193e-02</leafValues></_>
    <_>
      <internalNodes>
        0 -1 119005 -5.5031515657901764e-03</internalNodes>
      <leafValues>
        3.1021958589553833e-01 -3.6996785551309586e-02</leafValues></_>
    <_>
      <internalNodes>
        0 -1 13266 -1.6057211905717850e-04</internalNodes>
      <leafValues>
        -1.3249109685420990e-01 9.7140751779079437e-02</leafValues></_>
    <_>
      <internalNodes>
        0 -1 50263 7.2745680809020996e-02</internalNodes>
      <leafValues>
        2.7987258508801460e-02 -6.2282663583755493e-01</leafValues></_>
    <_>
      <internalNodes>
        0 -1 286866 5.9745751321315765e-02</internalNodes>
      <leafValues>
        1.4520253054797649e-02 -6.9567698240280151e-01</leafValues></_>
    <_>
      <internalNodes>
        0 -1 215525 3.1670268625020981e-02</internalNodes>
      <leafValues>
        -3.4441154450178146e-02 4.1198053956031799e-01</leafValues></_>
    <_>
      <internalNodes>
        0 -1 218918 4.2530440259724855e-04</internalNodes>
      <leafValues>
        -8.3452075719833374e-02 1.5890836715698242e-01</leafValues></_>
    <_>
      <internalNodes>
        0 -1 218500 -1.1121181305497885e-03</internalNodes>
      <leafValues>
        1.7518095672130585e-01 -8.0971077084541321e-02</leafValues></_>
    <_>
      <internalNodes>
        0 -1 191704 4.2551252990961075e-02</internalNodes>
      <leafValues>
        7.4874810874462128e-02 -1.7496667802333832e-01</leafValues></_>
    <_>
      <internalNodes>
        0 -1 291437 1.9012343138456345e-02</internalNodes>
      <leafValues>
        -2.0814582705497742e-02 6.9549268484115601e-01</leafValues></_>
    <_>
      <internalNodes>
        0 -1 284242 2.1117022261023521e-03</internalNodes>
      <leafValues>
        2.9396630823612213e-02 -5.1502239704132080e-01</leafValues></_>
    <_>
      <internalNodes>
        0 -1 284510 6.0948771424591541e-03</internalNodes>
      <leafValues>
        -8.0878056585788727e-02 1.6213138401508331e-01</leafValues></_>
    <_>
      <internalNodes>
        0 -1 70729 -1.7691895365715027e-02</internalNodes>
      <leafValues>
        4.2437362670898438e-01 -3.2531015574932098e-02</leafValues></_>
    <_>
      <internalNodes>
        0 -1 112583 1.6109099611639977e-02</internalNodes>
      <leafValues>
        -7.0075891911983490e-02 2.0497886836528778e-01</leafValues></_>
    <_>
      <internalNodes>
        0 -1 42565 -6.8482369184494019e-02</internalNodes>
      <leafValues>
        -4.4383677840232849e-01 3.2425224781036377e-02</leafValues></_>
    <_>
      <internalNodes>
        0 -1 199186 1.4591218903660774e-02</internalNodes>
      <leafValues>
        4.9050036817789078e-02 -2.8957033157348633e-01</leafValues></_>
    <_>
      <internalNodes>
        0 -1 51283 5.8890860527753830e-03</internalNodes>
      <leafValues>
        1.3743454590439796e-02 -8.0422461032867432e-01</leafValues></_>
    <_>
      <internalNodes>
        0 -1 265743 1.8477987498044968e-02</internalNodes>
      <leafValues>
        -5.6566398590803146e-02 2.3930902779102325e-01</leafValues></_>
    <_>
      <internalNodes>
        0 -1 204468 -3.7733845412731171e-02</internalNodes>
      <leafValues>
        -4.0197685360908508e-01 3.7988282740116119e-02</leafValues></_>
    <_>
      <internalNodes>
        0 -1 143336 5.5195376276969910e-02</internalNodes>
      <leafValues>
        5.6053977459669113e-02 -2.4718782305717468e-01</leafValues></_>
    <_>
      <internalNodes>
        0 -1 131372 -4.7705776989459991e-02</internalNodes>
      <leafValues>
        -2.3631066083908081e-01 5.5367387831211090e-02</leafValues></_>
    <_>
      <internalNodes>
        0 -1 104150 -5.3655132651329041e-02</internalNodes>
      <leafValues>
        -2.3088030517101288e-01 6.0582432895898819e-02</leafValues></_>
    <_>
      <internalNodes>
        0 -1 33427 9.2031443491578102e-03</internalNodes>
      <leafValues>
        3.8111034780740738e-02 -3.4659981727600098e-01</leafValues></_>
    <_>
      <internalNodes>
        0 -1 71275 4.1539482772350311e-02</internalNodes>
      <leafValues>
        -2.7853280305862427e-02 5.9055060148239136e-01</leafValues></_>
    <_>
      <internalNodes>
        0 -1 14309 3.6988280713558197e-02</internalNodes>
      <leafValues>
        3.4524530172348022e-02 -4.7236999869346619e-01</leafValues></_>
    <_>
      <internalNodes>
        0 -1 264541 1.9427303224802017e-02</internalNodes>
      <leafValues>
        1.0420557111501694e-02 -9.5960760116577148e-01</leafValues></_>
    <_>
      <internalNodes>
        0 -1 232956 -1.8865529447793961e-02</internalNodes>
      <leafValues>
        3.5144898295402527e-01 -4.0423788130283356e-02</leafValues></_>
    <_>
      <internalNodes>
        0 -1 233199 -1.6237495467066765e-02</internalNodes>
      <leafValues>
        -7.7685922384262085e-01 2.0328154787421227e-02</leafValues></_>
    <_>
      <internalNodes>
        0 -1 48845 -3.0758781358599663e-02</internalNodes>
      <leafValues>
        3.0780810117721558e-01 -4.7622747719287872e-02</leafValues></_>
    <_>
      <internalNodes>
        0 -1 53679 -7.5387746095657349e-02</internalNodes>
      <leafValues>
        -8.2179057598114014e-01 1.6586951911449432e-02</leafValues></_>
    <_>
      <internalNodes>
        0 -1 266224 -6.4183711074292660e-03</internalNodes>
      <leafValues>
        -6.1360359191894531e-01 1.9224604591727257e-02</leafValues></_>
    <_>
      <internalNodes>
        0 -1 303069 3.3881995826959610e-02</internalNodes>
      <leafValues>
        -4.8989649862051010e-02 3.0889514088630676e-01</leafValues></_>
    <_>
      <internalNodes>
        0 -1 234857 9.7157259006053209e-04</internalNodes>
      <leafValues>
        7.8720279037952423e-02 -1.7315937578678131e-01</leafValues></_>
    <_>
      <internalNodes>
        0 -1 130067 -3.2902569510042667e-03</internalNodes>
      <leafValues>
        1.7329020798206329e-01 -8.5326299071311951e-02</leafValues></_>
    <_>
      <internalNodes>
        0 -1 67258 -2.4246852262876928e-04</internalNodes>
      <leafValues>
        1.1600416153669357e-01 -1.2678387761116028e-01</leafValues></_>
    <_>
      <internalNodes>
        0 -1 151587 -4.4572056503966451e-04</internalNodes>
      <leafValues>
        1.5576088428497314e-01 -1.0119621455669403e-01</leafValues></_>
    <_>
      <internalNodes>
        0 -1 218241 -7.2241827845573425e-02</internalNodes>
      <leafValues>
        -5.5776232481002808e-01 2.2831734269857407e-02</leafValues></_>
    <_>
      <internalNodes>
        0 -1 206936 2.0233196846675128e-04</internalNodes>
      <leafValues>
        9.8726235330104828e-02 -1.3197529315948486e-01</leafValues></_>
    <_>
      <internalNodes>
        0 -1 229270 5.3659360855817795e-03</internalNodes>
      <leafValues>
        -9.0503245592117310e-02 1.6071116924285889e-01</leafValues></_>
    <_>
      <internalNodes>
        0 -1 190427 1.3023791834712029e-02</internalNodes>
      <leafValues>
        -3.6622926592826843e-02 4.0948134660720825e-01</leafValues></_>
    <_>
      <internalNodes>
        0 -1 213291 3.0986685305833817e-02</internalNodes>
      <leafValues>
        1.8760491162538528e-02 -7.5766444206237793e-01</leafValues></_>
    <_>
      <internalNodes>
        0 -1 35762 -3.7738937884569168e-02</internalNodes>
      <leafValues>
        2.8539893031120300e-01 -5.0738789141178131e-02</leafValues></_>
    <_>
      <internalNodes>
        0 -1 244071 -7.5328879756852984e-04</internalNodes>
      <leafValues>
        1.2330026179552078e-01 -1.1304165422916412e-01</leafValues></_>
    <_>
      <internalNodes>
        0 -1 232136 4.6594519517384470e-04</internalNodes>
      <leafValues>
        -9.8926097154617310e-02 1.3386718928813934e-01</leafValues></_>
    <_>
      <internalNodes>
        0 -1 126865 2.0495809614658356e-02</internalNodes>
      <leafValues>
        -2.3628260940313339e-02 5.5365943908691406e-01</leafValues></_>
    <_>
      <internalNodes>
        0 -1 285629 1.9887734204530716e-02</internalNodes>
      <leafValues>
        1.7073668539524078e-02 -8.2379055023193359e-01</leafValues></_>
    <_>
      <internalNodes>
        0 -1 277897 4.0228776633739471e-02</internalNodes>
      <leafValues>
        -4.3081719428300858e-02 3.2328319549560547e-01</leafValues></_>
    <_>
      <internalNodes>
        0 -1 244829 1.4163298532366753e-02</internalNodes>
      <leafValues>
        -4.1548237204551697e-02 3.1897550821304321e-01</leafValues></_>
    <_>
      <internalNodes>
        0 -1 256723 -3.2346609979867935e-02</internalNodes>
      <leafValues>
        5.6971156597137451e-01 -2.3603554815053940e-02</leafValues></_>
    <_>
      <internalNodes>
        0 -1 260153 1.0420219972729683e-02</internalNodes>
      <leafValues>
        3.5157550126314163e-02 -4.0823093056678772e-01</leafValues></_>
    <_>
      <internalNodes>
        0 -1 233886 -1.4503223355859518e-03</internalNodes>
      <leafValues>
        -1.7367176711559296e-01 7.9500675201416016e-02</leafValues></_>
    <_>
      <internalNodes>
        0 -1 130630 1.0609252005815506e-01</internalNodes>
      <leafValues>
        -2.0970396697521210e-02 6.8207490444183350e-01</leafValues></_>
    <_>
      <internalNodes>
        0 -1 230907 2.2482216358184814e-02</internalNodes>
      <leafValues>
        1.7067587003111839e-02 -9.2224311828613281e-01</leafValues></_>
    <_>
      <internalNodes>
        0 -1 216259 1.8962042406201363e-02</internalNodes>
      <leafValues>
        -2.9296213760972023e-02 5.4341393709182739e-01</leafValues></_>
    <_>
      <internalNodes>
        0 -1 263363 -4.3800859712064266e-03</internalNodes>
      <leafValues>
        -1.8018445372581482e-01 8.3525337278842926e-02</leafValues></_>
    <_>
      <internalNodes>
        0 -1 16423 -7.7159702777862549e-03</internalNodes>
      <leafValues>
        2.3017218708992004e-01 -6.1354346573352814e-02</leafValues></_>
    <_>
      <internalNodes>
        0 -1 35228 -1.0736959520727396e-03</internalNodes>
      <leafValues>
        1.3165801763534546e-01 -1.0431595891714096e-01</leafValues></_>
    <_>
      <internalNodes>
        0 -1 142579 3.4567870898172259e-04</internalNodes>
      <leafValues>
        -8.7507300078868866e-02 1.5425278246402740e-01</leafValues></_>
    <_>
      <internalNodes>
        0 -1 233338 1.5095670241862535e-03</internalNodes>
      <leafValues>
        -6.7812785506248474e-02 1.9242890179157257e-01</leafValues></_>
    <_>
      <internalNodes>
        0 -1 307559 8.9426885824650526e-04</internalNodes>
      <leafValues>
        5.0205677747726440e-02 -2.6463401317596436e-01</leafValues></_>
    <_>
      <internalNodes>
        0 -1 287779 6.4081265591084957e-03</internalNodes>
      <leafValues>
        -4.4069699943065643e-02 3.0202987790107727e-01</leafValues></_>
    <_>
      <internalNodes>
        0 -1 156507 4.7370713204145432e-02</internalNodes>
      <leafValues>
        2.0227340981364250e-02 -6.8889027833938599e-01</leafValues></_>
    <_>
      <internalNodes>
        0 -1 265006 -4.5718010514974594e-02</internalNodes>
      <leafValues>
        3.2671752572059631e-01 -4.9652822315692902e-02</leafValues></_>
    <_>
      <internalNodes>
        0 -1 275326 -2.7210803236812353e-03</internalNodes>
      <leafValues>
        -2.1922533214092255e-01 6.3439548015594482e-02</leafValues></_>
    <_>
      <internalNodes>
        0 -1 288472 5.2753191441297531e-02</internalNodes>
      <leafValues>
        -6.0367312282323837e-02 2.2908152639865875e-01</leafValues></_>
    <_>
      <internalNodes>
        0 -1 291127 -1.5955226263031363e-03</internalNodes>
      <leafValues>
        2.0900903642177582e-01 -6.7651391029357910e-02</leafValues></_>
    <_>
      <internalNodes>
        0 -1 264379 1.2645606882870197e-02</internalNodes>
      <leafValues>
        2.5301735848188400e-02 -5.5377471446990967e-01</leafValues></_>
    <_>
      <internalNodes>
        0 -1 70465 4.6532373875379562e-02</internalNodes>
      <leafValues>
        -3.4756161272525787e-02 4.5129817724227905e-01</leafValues></_>
    <_>
      <internalNodes>
        0 -1 113747 -1.5716783702373505e-01</internalNodes>
      <leafValues>
        -8.7727177143096924e-01 1.8263520672917366e-02</leafValues></_>
    <_>
      <internalNodes>
        0 -1 164708 -8.2144156098365784e-02</internalNodes>
      <leafValues>
        4.3895679712295532e-01 -3.6599516868591309e-02</leafValues></_>
    <_>
      <internalNodes>
        0 -1 169937 7.7306702733039856e-03</internalNodes>
      <leafValues>
        -1.2815514206886292e-01 1.3692556321620941e-01</leafValues></_>
    <_>
      <internalNodes>
        0 -1 79759 -4.6350561082363129e-02</internalNodes>
      <leafValues>
        -3.6358755826950073e-01 4.3916430324316025e-02</leafValues></_>
    <_>
      <internalNodes>
        0 -1 117057 6.5804742276668549e-02</internalNodes>
      <leafValues>
        2.3393070325255394e-02 -5.9655553102493286e-01</leafValues></_>
    <_>
      <internalNodes>
        0 -1 216347 -7.9500314313918352e-04</internalNodes>
      <leafValues>
        1.6506937146186829e-01 -8.8552355766296387e-02</leafValues></_>
    <_>
      <internalNodes>
        0 -1 215651 6.7607788369059563e-03</internalNodes>
      <leafValues>
        -5.7089574635028839e-02 2.9550117254257202e-01</leafValues></_>
    <_>
      <internalNodes>
        0 -1 175455 1.0835664346814156e-02</internalNodes>
      <leafValues>
        -5.7932171970605850e-02 2.6511105895042419e-01</leafValues></_>
    <_>
      <internalNodes>
        0 -1 35534 -2.8953324072062969e-03</internalNodes>
      <leafValues>
        -8.4899860620498657e-01 1.6538009047508240e-02</leafValues></_>
    <_>
      <internalNodes>
        0 -1 68587 1.6325747966766357e-01</internalNodes>
      <leafValues>
        2.3509243503212929e-02 -5.1385450363159180e-01</leafValues></_>
    <_>
      <internalNodes>
        0 -1 199034 -6.1991205438971519e-03</internalNodes>
      <leafValues>
        2.3703581094741821e-01 -5.7876724749803543e-02</leafValues></_>
    <_>
      <internalNodes>
        0 -1 307754 1.5399465337395668e-02</internalNodes>
      <leafValues>
        3.8301218301057816e-02 -3.6687862873077393e-01</leafValues></_>
    <_>
      <internalNodes>
        0 -1 272863 -1.6397520899772644e-02</internalNodes>
      <leafValues>
        1.2801745533943176e-01 -1.0743669420480728e-01</leafValues></_>
    <_>
      <internalNodes>
        0 -1 289757 1.1717914603650570e-03</internalNodes>
      <leafValues>
        -1.1522010713815689e-01 1.4779366552829742e-01</leafValues></_></weakClassifiers></stage8>
</opencv_storage>
