<?xml version="1.0"?>
<opencv_storage>
<stage12>
  <maxWeakCount>53</maxWeakCount>
  <stageThreshold>-7.8796958923339844e-01</stageThreshold>
  <weakClassifiers>
    <_>
      <internalNodes>
        0 -1 86396 -1.4823943376541138e-02</internalNodes>
      <leafValues>
        5.0408399105072021e-01 9.1659784317016602e-02</leafValues></_>
    <_>
      <internalNodes>
        0 -1 186391 -2.1130096167325974e-02</internalNodes>
      <leafValues>
        3.4824219346046448e-01 -1.1720325052738190e-01</leafValues></_>
    <_>
      <internalNodes>
        0 -1 142458 1.5129441395401955e-02</internalNodes>
      <leafValues>
        -1.0836306959390640e-01 3.7766149640083313e-01</leafValues></_>
    <_>
      <internalNodes>
        0 -1 135644 -1.7212379723787308e-02</internalNodes>
      <leafValues>
        3.6909395456314087e-01 -1.6139784455299377e-01</leafValues></_>
    <_>
      <internalNodes>
        0 -1 23216 1.4956586062908173e-02</internalNodes>
      <leafValues>
        -1.5281794965267181e-01 2.1994791924953461e-01</leafValues></_>
    <_>
      <internalNodes>
        0 -1 71906 -2.3708264343440533e-03</internalNodes>
      <leafValues>
        1.5761239826679230e-01 -2.0934189856052399e-01</leafValues></_>
    <_>
      <internalNodes>
        0 -1 49284 4.5749470591545105e-02</internalNodes>
      <leafValues>
        -8.3123333752155304e-02 4.2295715212821960e-01</leafValues></_>
    <_>
      <internalNodes>
        0 -1 54608 4.7367336228489876e-03</internalNodes>
      <leafValues>
        -1.9025406241416931e-01 2.4325984716415405e-01</leafValues></_>
    <_>
      <internalNodes>
        0 -1 121113 3.6984466016292572e-02</internalNodes>
      <leafValues>
        4.5374289155006409e-02 -6.8429416418075562e-01</leafValues></_>
    <_>
      <internalNodes>
        0 -1 22661 2.0173467695713043e-02</internalNodes>
      <leafValues>
        -1.3665698468685150e-01 2.3489443957805634e-01</leafValues></_>
    <_>
      <internalNodes>
        0 -1 91007 4.7376484144479036e-04</internalNodes>
      <leafValues>
        -1.5385703742504120e-01 1.7819510400295258e-01</leafValues></_>
    <_>
      <internalNodes>
        0 -1 90352 9.3263424932956696e-03</internalNodes>
      <leafValues>
        -1.1451951414346695e-01 2.6384466886520386e-01</leafValues></_>
    <_>
      <internalNodes>
        0 -1 184797 2.4541830644011497e-03</internalNodes>
      <leafValues>
        5.8957196772098541e-02 -4.9650934338569641e-01</leafValues></_>
    <_>
      <internalNodes>
        0 -1 175057 1.5533822588622570e-03</internalNodes>
      <leafValues>
        -1.3745316863059998e-01 2.0672906935214996e-01</leafValues></_>
    <_>
      <internalNodes>
        0 -1 189878 -1.4617620036005974e-02</internalNodes>
      <leafValues>
        3.2972270250320435e-01 -7.9476192593574524e-02</leafValues></_>
    <_>
      <internalNodes>
        0 -1 135907 1.0622726753354073e-02</internalNodes>
      <leafValues>
        -9.1758340597152710e-02 2.8126516938209534e-01</leafValues></_>
    <_>
      <internalNodes>
        0 -1 110692 3.6713726818561554e-02</internalNodes>
      <leafValues>
        4.8374090343713760e-02 -5.8612561225891113e-01</leafValues></_>
    <_>
      <internalNodes>
        0 -1 111419 -7.9757708590477705e-04</internalNodes>
      <leafValues>
        -1.9970300793647766e-01 1.4941869676113129e-01</leafValues></_>
    <_>
      <internalNodes>
        0 -1 52105 -2.3966111242771149e-02</internalNodes>
      <leafValues>
        2.2764569520950317e-01 -1.2629169225692749e-01</leafValues></_>
    <_>
      <internalNodes>
        0 -1 86835 -2.0250808447599411e-03</internalNodes>
      <leafValues>
        -4.3388536572456360e-01 6.6846042871475220e-02</leafValues></_>
    <_>
      <internalNodes>
        0 -1 109874 6.7045865580439568e-03</internalNodes>
      <leafValues>
        5.3904987871646881e-02 -4.6786704659461975e-01</leafValues></_>
    <_>
      <internalNodes>
        0 -1 60298 2.1349948644638062e-01</internalNodes>
      <leafValues>
        3.6423988640308380e-02 -7.5604712963104248e-01</leafValues></_>
    <_>
      <internalNodes>
        0 -1 79111 -2.8079913929104805e-02</internalNodes>
      <leafValues>
        -6.9412964582443237e-01 3.3370912075042725e-02</leafValues></_>
    <_>
      <internalNodes>
        0 -1 111393 -4.5559862628579140e-03</internalNodes>
      <leafValues>
        2.2386762499809265e-01 -1.3064497709274292e-01</leafValues></_>
    <_>
      <internalNodes>
        0 -1 67457 -9.6014263108372688e-03</internalNodes>
      <leafValues>
        3.2979288697242737e-01 -8.6086601018905640e-02</leafValues></_>
    <_>
      <internalNodes>
        0 -1 79075 9.5633126329630613e-04</internalNodes>
      <leafValues>
        -1.2825001776218414e-01 1.9843192398548126e-01</leafValues></_>
    <_>
      <internalNodes>
        0 -1 146204 7.9982867464423180e-04</internalNodes>
      <leafValues>
        -1.2508171796798706e-01 2.0946273207664490e-01</leafValues></_>
    <_>
      <internalNodes>
        0 -1 63574 1.8831306695938110e-01</internalNodes>
      <leafValues>
        4.8925045877695084e-02 -6.0250210762023926e-01</leafValues></_>
    <_>
      <internalNodes>
        0 -1 184909 -1.4335300074890256e-03</internalNodes>
      <leafValues>
        -4.9774134159088135e-01 5.0796385854482651e-02</leafValues></_>
    <_>
      <internalNodes>
        0 -1 136910 -1.5713206958025694e-03</internalNodes>
      <leafValues>
        2.8375449776649475e-01 -1.0051652789115906e-01</leafValues></_>
    <_>
      <internalNodes>
        0 -1 182710 4.2694048024713993e-03</internalNodes>
      <leafValues>
        5.4407749325037003e-02 -5.5135118961334229e-01</leafValues></_>
    <_>
      <internalNodes>
        0 -1 79729 -1.9556455314159393e-02</internalNodes>
      <leafValues>
        3.3698791265487671e-01 -8.9594081044197083e-02</leafValues></_>
    <_>
      <internalNodes>
        0 -1 135414 7.4144271202385426e-03</internalNodes>
      <leafValues>
        5.2536338567733765e-02 -5.3002852201461792e-01</leafValues></_>
    <_>
      <internalNodes>
        0 -1 118488 -1.4579731505364180e-03</internalNodes>
      <leafValues>
        1.8151994049549103e-01 -1.4922457933425903e-01</leafValues></_>
    <_>
      <internalNodes>
        0 -1 126957 2.0448444411158562e-03</internalNodes>
      <leafValues>
        -2.0545864105224609e-01 1.4933152496814728e-01</leafValues></_>
    <_>
      <internalNodes>
        0 -1 108618 3.2744028139859438e-03</internalNodes>
      <leafValues>
        -1.2857505679130554e-01 2.4928355216979980e-01</leafValues></_>
    <_>
      <internalNodes>
        0 -1 66511 -8.1620514392852783e-03</internalNodes>
      <leafValues>
        -4.7059875726699829e-01 6.3271269202232361e-02</leafValues></_>
    <_>
      <internalNodes>
        0 -1 89963 -3.2443583477288485e-03</internalNodes>
      <leafValues>
        -6.9404995441436768e-01 3.6145918071269989e-02</leafValues></_>
    <_>
      <internalNodes>
        0 -1 91166 7.6146703213453293e-04</internalNodes>
      <leafValues>
        -1.5366348624229431e-01 1.9444121420383453e-01</leafValues></_>
    <_>
      <internalNodes>
        0 -1 143933 -2.8416647110134363e-03</internalNodes>
      <leafValues>
        -6.3370406627655029e-01 4.4149193912744522e-02</leafValues></_>
    <_>
      <internalNodes>
        0 -1 88441 -3.8950620219111443e-03</internalNodes>
      <leafValues>
        2.8835541009902954e-01 -1.0224960744380951e-01</leafValues></_>
    <_>
      <internalNodes>
        0 -1 45717 1.1102108284831047e-02</internalNodes>
      <leafValues>
        -7.0446185767650604e-02 3.9476639032363892e-01</leafValues></_>
    <_>
      <internalNodes>
        0 -1 89969 6.4137778244912624e-03</internalNodes>
      <leafValues>
        -6.8802721798419952e-02 3.7506559491157532e-01</leafValues></_>
    <_>
      <internalNodes>
        0 -1 143218 6.2498925253748894e-03</internalNodes>
      <leafValues>
        4.9122851341962814e-02 -5.8196473121643066e-01</leafValues></_>
    <_>
      <internalNodes>
        0 -1 167953 7.9190067481249571e-04</internalNodes>
      <leafValues>
        -1.5479290485382080e-01 1.7028814554214478e-01</leafValues></_>
    <_>
      <internalNodes>
        0 -1 153152 -1.8407099414616823e-03</internalNodes>
      <leafValues>
        2.7337425947189331e-01 -9.0367019176483154e-02</leafValues></_>
    <_>
      <internalNodes>
        0 -1 165431 1.1597068514674902e-03</internalNodes>
      <leafValues>
        -1.4468958973884583e-01 2.0208218693733215e-01</leafValues></_>
    <_>
      <internalNodes>
        0 -1 172523 7.4008491355925798e-04</internalNodes>
      <leafValues>
        1.2060999125242233e-01 -2.1631455421447754e-01</leafValues></_>
    <_>
      <internalNodes>
        0 -1 153875 -5.0853751599788666e-02</internalNodes>
      <leafValues>
        7.6083743572235107e-01 -3.3908113837242126e-02</leafValues></_>
    <_>
      <internalNodes>
        0 -1 179014 -4.9083866178989410e-03</internalNodes>
      <leafValues>
        3.1059443950653076e-01 -7.6221585273742676e-02</leafValues></_>
    <_>
      <internalNodes>
        0 -1 159426 9.6359886229038239e-03</internalNodes>
      <leafValues>
        -9.0723119676113129e-02 2.6865887641906738e-01</leafValues></_>
    <_>
      <internalNodes>
        0 -1 170267 8.8777709752321243e-03</internalNodes>
      <leafValues>
        -1.0974073410034180e-01 2.3186570405960083e-01</leafValues></_>
    <_>
      <internalNodes>
        0 -1 178661 8.6480695754289627e-03</internalNodes>
      <leafValues>
        4.4849317520856857e-02 -6.4124202728271484e-01</leafValues></_></weakClassifiers></stage12>
</opencv_storage>
