<?xml version="1.0"?>
<opencv_storage>
<stage4>
  <maxWeakCount>41</maxWeakCount>
  <stageThreshold>-8.8102144002914429e-01</stageThreshold>
  <weakClassifiers>
    <_>
      <internalNodes>
        0 -1 75614 2.7722708880901337e-02</internalNodes>
      <leafValues>
        -3.3856317400932312e-02 5.9276545047760010e-01</leafValues></_>
    <_>
      <internalNodes>
        0 -1 117587 2.2647850215435028e-02</internalNodes>
      <leafValues>
        -1.4743605256080627e-01 4.2033767700195312e-01</leafValues></_>
    <_>
      <internalNodes>
        0 -1 127591 2.7250092476606369e-02</internalNodes>
      <leafValues>
        -1.3755518198013306e-01 5.5186122655868530e-01</leafValues></_>
    <_>
      <internalNodes>
        0 -1 143689 -5.2280565723776817e-03</internalNodes>
      <leafValues>
        2.7398285269737244e-01 -2.2656543552875519e-01</leafValues></_>
    <_>
      <internalNodes>
        0 -1 3442 1.5394201502203941e-02</internalNodes>
      <leafValues>
        -1.2546652555465698e-01 3.8919252157211304e-01</leafValues></_>
    <_>
      <internalNodes>
        0 -1 90214 2.1821640431880951e-02</internalNodes>
      <leafValues>
        -2.3786054551601410e-01 2.1917010843753815e-01</leafValues></_>
    <_>
      <internalNodes>
        0 -1 17244 -7.9288743436336517e-03</internalNodes>
      <leafValues>
        2.3923859000205994e-01 -1.9463935494422913e-01</leafValues></_>
    <_>
      <internalNodes>
        0 -1 96398 -5.7653494179248810e-02</internalNodes>
      <leafValues>
        -4.9373009800910950e-01 7.9031392931938171e-02</leafValues></_>
    <_>
      <internalNodes>
        0 -1 182617 5.2677886560559273e-03</internalNodes>
      <leafValues>
        5.0083160400390625e-02 -7.7615875005722046e-01</leafValues></_>
    <_>
      <internalNodes>
        0 -1 67210 -1.5912719536572695e-03</internalNodes>
      <leafValues>
        1.8406817317008972e-01 -2.3740305006504059e-01</leafValues></_>
    <_>
      <internalNodes>
        0 -1 144343 3.8230801001191139e-03</internalNodes>
      <leafValues>
        -1.1336302012205124e-01 3.2289007306098938e-01</leafValues></_>
    <_>
      <internalNodes>
        0 -1 135398 -2.5424922350794077e-03</internalNodes>
      <leafValues>
        -5.3863060474395752e-01 7.6641224324703217e-02</leafValues></_>
    <_>
      <internalNodes>
        0 -1 135400 6.5929023548960686e-03</internalNodes>
      <leafValues>
        5.6979078799486160e-02 -6.7419964075088501e-01</leafValues></_>
    <_>
      <internalNodes>
        0 -1 138600 1.1103342287242413e-02</internalNodes>
      <leafValues>
        -8.9378900825977325e-02 5.2316623926162720e-01</leafValues></_>
    <_>
      <internalNodes>
        0 -1 54608 5.1224157214164734e-03</internalNodes>
      <leafValues>
        -1.5245613455772400e-01 2.4461184442043304e-01</leafValues></_>
    <_>
      <internalNodes>
        0 -1 79181 -1.9613642245531082e-02</internalNodes>
      <leafValues>
        5.3393185138702393e-01 -7.4551932513713837e-02</leafValues></_>
    <_>
      <internalNodes>
        0 -1 144026 4.4840825721621513e-03</internalNodes>
      <leafValues>
        -1.0112548619508743e-01 3.8465785980224609e-01</leafValues></_>
    <_>
      <internalNodes>
        0 -1 130050 -5.3346613422036171e-03</internalNodes>
      <leafValues>
        2.9098016023635864e-01 -1.2416252493858337e-01</leafValues></_>
    <_>
      <internalNodes>
        0 -1 65326 -1.0195678472518921e-01</internalNodes>
      <leafValues>
        -5.7843941450119019e-01 7.3994122445583344e-02</leafValues></_>
    <_>
      <internalNodes>
        0 -1 186586 -1.4476168435066938e-03</internalNodes>
      <leafValues>
        2.4291576445102692e-01 -1.6064679622650146e-01</leafValues></_>
    <_>
      <internalNodes>
        0 -1 153006 -1.0015309089794755e-03</internalNodes>
      <leafValues>
        2.6666045188903809e-01 -1.4203308522701263e-01</leafValues></_>
    <_>
      <internalNodes>
        0 -1 145728 -9.5569738186895847e-04</internalNodes>
      <leafValues>
        2.5624364614486694e-01 -1.5369430184364319e-01</leafValues></_>
    <_>
      <internalNodes>
        0 -1 143238 -7.4970531277358532e-03</internalNodes>
      <leafValues>
        -5.7896310091018677e-01 7.1786858141422272e-02</leafValues></_>
    <_>
      <internalNodes>
        0 -1 90826 -1.7023485852405429e-03</internalNodes>
      <leafValues>
        2.5379228591918945e-01 -1.3809424638748169e-01</leafValues></_>
    <_>
      <internalNodes>
        0 -1 115113 8.0907270312309265e-02</internalNodes>
      <leafValues>
        4.6550974249839783e-02 -7.7407962083816528e-01</leafValues></_>
    <_>
      <internalNodes>
        0 -1 145136 1.7344942316412926e-02</internalNodes>
      <leafValues>
        4.0473829954862595e-02 -7.1605718135833740e-01</leafValues></_>
    <_>
      <internalNodes>
        0 -1 111597 1.8166468944400549e-03</internalNodes>
      <leafValues>
        -1.3620012998580933e-01 2.5394320487976074e-01</leafValues></_>
    <_>
      <internalNodes>
        0 -1 66509 1.0269014164805412e-02</internalNodes>
      <leafValues>
        3.9177861064672470e-02 -8.8734465837478638e-01</leafValues></_>
    <_>
      <internalNodes>
        0 -1 98882 -1.3591097667813301e-03</internalNodes>
      <leafValues>
        2.5775599479675293e-01 -1.3622410595417023e-01</leafValues></_>
    <_>
      <internalNodes>
        0 -1 40312 -7.5259663164615631e-02</internalNodes>
      <leafValues>
        -7.6780593395233154e-01 4.9208004027605057e-02</leafValues></_>
    <_>
      <internalNodes>
        0 -1 22741 -9.3433372676372528e-03</internalNodes>
      <leafValues>
        2.2245797514915466e-01 -1.6958624124526978e-01</leafValues></_>
    <_>
      <internalNodes>
        0 -1 6449 3.4381821751594543e-02</internalNodes>
      <leafValues>
        -1.1025929450988770e-01 3.6745691299438477e-01</leafValues></_>
    <_>
      <internalNodes>
        0 -1 145715 4.4210990890860558e-03</internalNodes>
      <leafValues>
        5.7325240224599838e-02 -6.4943259954452515e-01</leafValues></_>
    <_>
      <internalNodes>
        0 -1 143379 1.9064871594309807e-02</internalNodes>
      <leafValues>
        -1.1218553036451340e-01 3.2777324318885803e-01</leafValues></_>
    <_>
      <internalNodes>
        0 -1 163825 -6.5214181086048484e-04</internalNodes>
      <leafValues>
        3.4447824954986572e-01 -1.0876099020242691e-01</leafValues></_>
    <_>
      <internalNodes>
        0 -1 164080 8.3975365851074457e-04</internalNodes>
      <leafValues>
        -1.1792396008968353e-01 2.9137527942657471e-01</leafValues></_>
    <_>
      <internalNodes>
        0 -1 153222 -7.7960686758160591e-03</internalNodes>
      <leafValues>
        3.5188627243041992e-01 -1.0090118646621704e-01</leafValues></_>
    <_>
      <internalNodes>
        0 -1 59684 -9.1311428695917130e-03</internalNodes>
      <leafValues>
        2.5675392150878906e-01 -1.3129661977291107e-01</leafValues></_>
    <_>
      <internalNodes>
        0 -1 58765 2.9242884367704391e-02</internalNodes>
      <leafValues>
        -4.5063894242048264e-02 7.0792263746261597e-01</leafValues></_>
    <_>
      <internalNodes>
        0 -1 23498 -3.2248470932245255e-02</internalNodes>
      <leafValues>
        2.4201174080371857e-01 -1.3986878097057343e-01</leafValues></_>
    <_>
      <internalNodes>
        0 -1 138137 2.1379431709647179e-03</internalNodes>
      <leafValues>
        7.4253715574741364e-02 -4.7918057441711426e-01</leafValues></_></weakClassifiers></stage4>
</opencv_storage>
