<?xml version="1.0"?>
<opencv_storage>
<stage12>
  <maxWeakCount>95</maxWeakCount>
  <stageThreshold>-9.5681798458099365e-01</stageThreshold>
  <weakClassifiers>
    <_>
      <internalNodes>
        0 -1 32195 1.8119272589683533e-01</internalNodes>
      <leafValues>
        -5.3044003248214722e-01 8.2608693838119507e-01</leafValues></_>
    <_>
      <internalNodes>
        0 -1 61340 4.9835694953799248e-03</internalNodes>
      <leafValues>
        -1.6283303499221802e-01 1.2735651433467865e-01</leafValues></_>
    <_>
      <internalNodes>
        0 -1 219433 2.0939824171364307e-03</internalNodes>
      <leafValues>
        -1.0871341824531555e-01 1.6494941711425781e-01</leafValues></_>
    <_>
      <internalNodes>
        0 -1 110635 3.5491932183504105e-02</internalNodes>
      <leafValues>
        -4.1831441223621368e-02 3.8870090246200562e-01</leafValues></_>
    <_>
      <internalNodes>
        0 -1 244236 4.5410143211483955e-03</internalNodes>
      <leafValues>
        -7.2388835251331329e-02 2.0914725959300995e-01</leafValues></_>
    <_>
      <internalNodes>
        0 -1 282418 6.8886340595781803e-03</internalNodes>
      <leafValues>
        3.7515990436077118e-02 -4.1316479444503784e-01</leafValues></_>
    <_>
      <internalNodes>
        0 -1 289883 8.0625973641872406e-03</internalNodes>
      <leafValues>
        -5.6956186890602112e-03 6.2316834926605225e-01</leafValues></_>
    <_>
      <internalNodes>
        0 -1 282463 1.1740535497665405e-02</internalNodes>
      <leafValues>
        5.4437671788036823e-03 -5.5794733762741089e-01</leafValues></_>
    <_>
      <internalNodes>
        0 -1 278335 1.4336557127535343e-02</internalNodes>
      <leafValues>
        -3.4790191799402237e-02 3.2636597752571106e-01</leafValues></_>
    <_>
      <internalNodes>
        0 -1 300089 -9.4011314213275909e-03</internalNodes>
      <leafValues>
        3.9520540833473206e-01 -4.1193645447492599e-02</leafValues></_>
    <_>
      <internalNodes>
        0 -1 158352 5.2725449204444885e-03</internalNodes>
      <leafValues>
        3.7261638790369034e-02 -3.6678057909011841e-01</leafValues></_>
    <_>
      <internalNodes>
        0 -1 159995 -3.6126170307397842e-03</internalNodes>
      <leafValues>
        2.9934874176979065e-01 -3.3854302018880844e-02</leafValues></_>
    <_>
      <internalNodes>
        0 -1 298106 -7.3267787229269743e-05</internalNodes>
      <leafValues>
        -1.4357620477676392e-01 1.0284060984849930e-01</leafValues></_>
    <_>
      <internalNodes>
        0 -1 136301 -4.1535727679729462e-02</internalNodes>
      <leafValues>
        5.5829095840454102e-01 -4.0313161909580231e-02</leafValues></_>
    <_>
      <internalNodes>
        0 -1 295881 -7.9204225912690163e-03</internalNodes>
      <leafValues>
        -3.0471786856651306e-01 5.5849630385637283e-02</leafValues></_>
    <_>
      <internalNodes>
        0 -1 289283 1.0069092968478799e-03</internalNodes>
      <leafValues>
        -6.5384767949581146e-02 2.1796114742755890e-01</leafValues></_>
    <_>
      <internalNodes>
        0 -1 87107 3.3345031552016735e-03</internalNodes>
      <leafValues>
        -1.2313998490571976e-01 1.3523507118225098e-01</leafValues></_>
    <_>
      <internalNodes>
        0 -1 271602 6.3321664929389954e-02</internalNodes>
      <leafValues>
        4.4337343424558640e-02 -6.0884910821914673e-01</leafValues></_>
    <_>
      <internalNodes>
        0 -1 202293 1.9986003637313843e-02</internalNodes>
      <leafValues>
        -6.9932155311107635e-02 2.7562168240547180e-01</leafValues></_>
    <_>
      <internalNodes>
        0 -1 149548 -2.5845373049378395e-02</internalNodes>
      <leafValues>
        2.2113442420959473e-01 -7.9184174537658691e-02</leafValues></_>
    <_>
      <internalNodes>
        0 -1 182361 -2.4226297682616860e-04</internalNodes>
      <leafValues>
        1.4947472512722015e-01 -1.1773508787155151e-01</leafValues></_>
    <_>
      <internalNodes>
        0 -1 279501 -8.7678134441375732e-03</internalNodes>
      <leafValues>
        -7.0051866769790649e-01 2.1102271974086761e-02</leafValues></_>
    <_>
      <internalNodes>
        0 -1 130345 9.0697951614856720e-02</internalNodes>
      <leafValues>
        1.6434086486697197e-02 -7.0479434728622437e-01</leafValues></_>
    <_>
      <internalNodes>
        0 -1 299527 1.5126543585211039e-03</internalNodes>
      <leafValues>
        -8.6080312728881836e-02 1.8876698613166809e-01</leafValues></_>
    <_>
      <internalNodes>
        0 -1 266845 2.6478637009859085e-02</internalNodes>
      <leafValues>
        -2.3067949339747429e-02 6.3541752099990845e-01</leafValues></_>
    <_>
      <internalNodes>
        0 -1 267050 5.1673282869160175e-03</internalNodes>
      <leafValues>
        -2.4074429646134377e-02 6.1241173744201660e-01</leafValues></_>
    <_>
      <internalNodes>
        0 -1 293836 7.3519973084330559e-03</internalNodes>
      <leafValues>
        -4.7883726656436920e-02 3.3511713147163391e-01</leafValues></_>
    <_>
      <internalNodes>
        0 -1 183855 -5.3608495742082596e-02</internalNodes>
      <leafValues>
        -3.1791001558303833e-01 4.8049412667751312e-02</leafValues></_>
    <_>
      <internalNodes>
        0 -1 19348 4.8171024769544601e-02</internalNodes>
      <leafValues>
        2.2065924480557442e-02 -6.3345450162887573e-01</leafValues></_>
    <_>
      <internalNodes>
        0 -1 44569 -4.9434445798397064e-02</internalNodes>
      <leafValues>
        6.9689285755157471e-01 -2.7588037773966789e-02</leafValues></_>
    <_>
      <internalNodes>
        0 -1 303501 2.3588467389345169e-02</internalNodes>
      <leafValues>
        4.7768555581569672e-02 -3.5992994904518127e-01</leafValues></_>
    <_>
      <internalNodes>
        0 -1 240896 5.0191894173622131e-02</internalNodes>
      <leafValues>
        -3.0473103746771812e-02 6.1682033538818359e-01</leafValues></_>
    <_>
      <internalNodes>
        0 -1 278680 -9.6380310133099556e-03</internalNodes>
      <leafValues>
        -1.5643490850925446e-01 9.6769914031028748e-02</leafValues></_>
    <_>
      <internalNodes>
        0 -1 204710 -8.6296964436769485e-03</internalNodes>
      <leafValues>
        -3.2113221287727356e-01 5.2265547215938568e-02</leafValues></_>
    <_>
      <internalNodes>
        0 -1 183902 -1.0043890774250031e-01</internalNodes>
      <leafValues>
        -3.6395126581192017e-01 4.5717280358076096e-02</leafValues></_>
    <_>
      <internalNodes>
        0 -1 133182 1.6955574974417686e-02</internalNodes>
      <leafValues>
        2.6000060141086578e-02 -5.6085020303726196e-01</leafValues></_>
    <_>
      <internalNodes>
        0 -1 301530 9.2516392469406128e-03</internalNodes>
      <leafValues>
        -5.7112261652946472e-02 3.0582150816917419e-01</leafValues></_>
    <_>
      <internalNodes>
        0 -1 167721 -2.9907119460403919e-03</internalNodes>
      <leafValues>
        -2.2393049299716949e-01 7.3491767048835754e-02</leafValues></_>
    <_>
      <internalNodes>
        0 -1 153011 1.5021976083517075e-02</internalNodes>
      <leafValues>
        3.1410463154315948e-02 -4.7529003024101257e-01</leafValues></_>
    <_>
      <internalNodes>
        0 -1 196122 5.1068444736301899e-03</internalNodes>
      <leafValues>
        -3.3917944878339767e-02 5.3040796518325806e-01</leafValues></_>
    <_>
      <internalNodes>
        0 -1 244452 -4.5066984603181481e-04</internalNodes>
      <leafValues>
        1.5812823176383972e-01 -1.0440326482057571e-01</leafValues></_>
    <_>
      <internalNodes>
        0 -1 255166 2.3086918517947197e-03</internalNodes>
      <leafValues>
        -8.8988117873668671e-02 1.8065729737281799e-01</leafValues></_>
    <_>
      <internalNodes>
        0 -1 262902 -2.6989065110683441e-02</internalNodes>
      <leafValues>
        -3.3670535683631897e-01 5.6463439017534256e-02</leafValues></_>
    <_>
      <internalNodes>
        0 -1 305072 -7.0494646206498146e-03</internalNodes>
      <leafValues>
        2.6388093829154968e-01 -6.1881039291620255e-02</leafValues></_>
    <_>
      <internalNodes>
        0 -1 275076 1.0895956307649612e-02</internalNodes>
      <leafValues>
        2.7439009398221970e-02 -6.2420779466629028e-01</leafValues></_>
    <_>
      <internalNodes>
        0 -1 99760 -1.5332875773310661e-02</internalNodes>
      <leafValues>
        -3.8795253634452820e-01 3.8199223577976227e-02</leafValues></_>
    <_>
      <internalNodes>
        0 -1 229860 1.3035157695412636e-02</internalNodes>
      <leafValues>
        -8.3024412393569946e-02 2.3042899370193481e-01</leafValues></_>
    <_>
      <internalNodes>
        0 -1 272156 -2.7166851796209812e-03</internalNodes>
      <leafValues>
        -2.0629799365997314e-01 1.0165584832429886e-01</leafValues></_>
    <_>
      <internalNodes>
        0 -1 298222 -1.6413897275924683e-02</internalNodes>
      <leafValues>
        3.2645434141159058e-01 -5.3897593170404434e-02</leafValues></_>
    <_>
      <internalNodes>
        0 -1 187663 1.5549285337328911e-02</internalNodes>
      <leafValues>
        5.0941754132509232e-02 -3.5046008229255676e-01</leafValues></_>
    <_>
      <internalNodes>
        0 -1 304780 1.0051995515823364e-02</internalNodes>
      <leafValues>
        -8.1321842968463898e-02 2.0913821458816528e-01</leafValues></_>
    <_>
      <internalNodes>
        0 -1 169735 4.5550899812951684e-04</internalNodes>
      <leafValues>
        -9.1574840247631073e-02 2.0357154309749603e-01</leafValues></_>
    <_>
      <internalNodes>
        0 -1 298601 -1.9194569438695908e-02</internalNodes>
      <leafValues>
        -5.2552103996276855e-01 3.2275252044200897e-02</leafValues></_>
    <_>
      <internalNodes>
        0 -1 219930 9.6177798695862293e-04</internalNodes>
      <leafValues>
        8.6199291050434113e-02 -1.8598313629627228e-01</leafValues></_>
    <_>
      <internalNodes>
        0 -1 261644 -3.2779477536678314e-02</internalNodes>
      <leafValues>
        -8.3625137805938721e-01 1.8145762383937836e-02</leafValues></_>
    <_>
      <internalNodes>
        0 -1 241742 -1.8312688916921616e-02</internalNodes>
      <leafValues>
        4.6080562472343445e-01 -3.8953062146902084e-02</leafValues></_>
    <_>
      <internalNodes>
        0 -1 253640 1.8264066427946091e-02</internalNodes>
      <leafValues>
        -4.0492549538612366e-02 4.2514479160308838e-01</leafValues></_>
    <_>
      <internalNodes>
        0 -1 160269 1.7227061092853546e-02</internalNodes>
      <leafValues>
        2.0211461931467056e-02 -8.0119383335113525e-01</leafValues></_>
    <_>
      <internalNodes>
        0 -1 185275 -3.0533404788002372e-04</internalNodes>
      <leafValues>
        1.3807982206344604e-01 -1.2735719978809357e-01</leafValues></_>
    <_>
      <internalNodes>
        0 -1 12390 -3.1282551586627960e-02</internalNodes>
      <leafValues>
        7.0794945955276489e-01 -2.2580718621611595e-02</leafValues></_>
    <_>
      <internalNodes>
        0 -1 203970 2.1384704858064651e-02</internalNodes>
      <leafValues>
        -6.1540491878986359e-02 2.5348067283630371e-01</leafValues></_>
    <_>
      <internalNodes>
        0 -1 157583 -4.2861189693212509e-02</internalNodes>
      <leafValues>
        2.4116089940071106e-01 -7.2323627769947052e-02</leafValues></_>
    <_>
      <internalNodes>
        0 -1 18851 -5.8876816183328629e-03</internalNodes>
      <leafValues>
        -3.3108711242675781e-01 4.6604353934526443e-02</leafValues></_>
    <_>
      <internalNodes>
        0 -1 127290 4.7475911676883698e-02</internalNodes>
      <leafValues>
        -2.8359221294522285e-02 6.6805076599121094e-01</leafValues></_>
    <_>
      <internalNodes>
        0 -1 120903 -1.1702282354235649e-03</internalNodes>
      <leafValues>
        1.6089586913585663e-01 -9.7260259091854095e-02</leafValues></_>
    <_>
      <internalNodes>
        0 -1 87342 -2.1939355880022049e-02</internalNodes>
      <leafValues>
        -4.2042395472526550e-01 3.9589803665876389e-02</leafValues></_>
    <_>
      <internalNodes>
        0 -1 83317 7.1529834531247616e-03</internalNodes>
      <leafValues>
        2.0675115287303925e-02 -6.9504064321517944e-01</leafValues></_>
    <_>
      <internalNodes>
        0 -1 203197 7.4720665812492371e-02</internalNodes>
      <leafValues>
        -3.0108412727713585e-02 6.3368499279022217e-01</leafValues></_>
    <_>
      <internalNodes>
        0 -1 110898 -1.9600209780037403e-03</internalNodes>
      <leafValues>
        1.6183264553546906e-01 -1.0069098323583603e-01</leafValues></_>
    <_>
      <internalNodes>
        0 -1 38380 1.1570846661925316e-02</internalNodes>
      <leafValues>
        4.1676536202430725e-02 -4.2331191897392273e-01</leafValues></_>
    <_>
      <internalNodes>
        0 -1 151634 -1.1094973888248205e-03</internalNodes>
      <leafValues>
        1.5679161250591278e-01 -1.0132232308387756e-01</leafValues></_>
    <_>
      <internalNodes>
        0 -1 61357 -7.2255380451679230e-02</internalNodes>
      <leafValues>
        6.6945397853851318e-01 -2.3169856518507004e-02</leafValues></_>
    <_>
      <internalNodes>
        0 -1 275753 5.1181349903345108e-02</internalNodes>
      <leafValues>
        -2.3676466196775436e-02 5.6496608257293701e-01</leafValues></_>
    <_>
      <internalNodes>
        0 -1 229465 6.4181074500083923e-02</internalNodes>
      <leafValues>
        2.1512135863304138e-02 -7.5628030300140381e-01</leafValues></_>
    <_>
      <internalNodes>
        0 -1 84296 4.8391027376055717e-03</internalNodes>
      <leafValues>
        -5.3652562201023102e-02 2.9262855648994446e-01</leafValues></_>
    <_>
      <internalNodes>
        0 -1 305603 -4.4938689097762108e-04</internalNodes>
      <leafValues>
        -2.1084938943386078e-01 7.6999202370643616e-02</leafValues></_>
    <_>
      <internalNodes>
        0 -1 244453 4.3361214920878410e-03</internalNodes>
      <leafValues>
        1.8901500850915909e-02 -7.5259172916412354e-01</leafValues></_>
    <_>
      <internalNodes>
        0 -1 29888 1.0406928136944771e-02</internalNodes>
      <leafValues>
        -4.3530758470296860e-02 3.9435511827468872e-01</leafValues></_>
    <_>
      <internalNodes>
        0 -1 307223 -1.5446114121004939e-03</internalNodes>
      <leafValues>
        -1.4839833974838257e-01 1.0532259941101074e-01</leafValues></_>
    <_>
      <internalNodes>
        0 -1 308112 9.1623479966074228e-04</internalNodes>
      <leafValues>
        7.4242889881134033e-02 -2.3329423367977142e-01</leafValues></_>
    <_>
      <internalNodes>
        0 -1 301672 -6.7577008157968521e-03</internalNodes>
      <leafValues>
        5.3631734848022461e-01 -3.0402757227420807e-02</leafValues></_>
    <_>
      <internalNodes>
        0 -1 11835 1.0799960792064667e-01</internalNodes>
      <leafValues>
        -4.1761942207813263e-02 3.5150906443595886e-01</leafValues></_>
    <_>
      <internalNodes>
        0 -1 10812 4.7503098845481873e-02</internalNodes>
      <leafValues>
        2.4472733959555626e-02 -7.1194088459014893e-01</leafValues></_>
    <_>
      <internalNodes>
        0 -1 303449 1.8774691969156265e-02</internalNodes>
      <leafValues>
        3.4384544938802719e-02 -3.8420122861862183e-01</leafValues></_>
    <_>
      <internalNodes>
        0 -1 250727 -3.1658113002777100e-02</internalNodes>
      <leafValues>
        6.4503490924835205e-01 -2.5171533226966858e-02</leafValues></_>
    <_>
      <internalNodes>
        0 -1 9310 -4.3452810496091843e-03</internalNodes>
      <leafValues>
        -5.0970011949539185e-01 3.3244144171476364e-02</leafValues></_>
    <_>
      <internalNodes>
        0 -1 1235 7.0552125573158264e-02</internalNodes>
      <leafValues>
        -5.8214701712131500e-02 2.7700817584991455e-01</leafValues></_>
    <_>
      <internalNodes>
        0 -1 86394 3.6974095273762941e-03</internalNodes>
      <leafValues>
        3.4204989671707153e-02 -4.4732508063316345e-01</leafValues></_>
    <_>
      <internalNodes>
        0 -1 40232 3.6247424781322479e-02</internalNodes>
      <leafValues>
        -3.8811009377241135e-02 4.4883757829666138e-01</leafValues></_>
    <_>
      <internalNodes>
        0 -1 203090 -2.4247938767075539e-02</internalNodes>
      <leafValues>
        4.6857130527496338e-01 -3.3519323915243149e-02</leafValues></_>
    <_>
      <internalNodes>
        0 -1 189854 -5.0115451216697693e-02</internalNodes>
      <leafValues>
        -7.8533357381820679e-01 2.1654110401868820e-02</leafValues></_>
    <_>
      <internalNodes>
        0 -1 173127 3.7401844747364521e-03</internalNodes>
      <leafValues>
        -6.5783224999904633e-02 2.4443314969539642e-01</leafValues></_>
    <_>
      <internalNodes>
        0 -1 139202 -8.2408916205167770e-03</internalNodes>
      <leafValues>
        -2.8319826722145081e-01 6.3243061304092407e-02</leafValues></_>
    <_>
      <internalNodes>
        0 -1 85392 1.3799332082271576e-02</internalNodes>
      <leafValues>
        3.1155068427324295e-02 -4.9011138081550598e-01</leafValues></_>
    <_>
      <internalNodes>
        0 -1 171771 -1.2443879619240761e-02</internalNodes>
      <leafValues>
        4.9450388550758362e-01 -3.8462720811367035e-02</leafValues></_></weakClassifiers></stage12>
</opencv_storage>
