<?xml version="1.0"?>
<opencv_storage>
<cascade>
  <stageType>BOOST</stageType>
  <featureType>HAAR</featureType>
  <height>25</height>
  <width>25</width>
  <stageParams>
    <boostType>GAB</boostType>
    <minHitRate>9.9500000476837158e-01</minHitRate>
    <maxFalseAlarm>5.0000000000000000e-01</maxFalseAlarm>
    <weightTrimRate>9.4999999999999996e-01</weightTrimRate>
    <maxDepth>1</maxDepth>
    <maxWeakCount>100</maxWeakCount></stageParams>
  <featureParams>
    <maxCatCount>0</maxCatCount>
    <featSize>1</featSize>
    <mode>BASIC</mode></featureParams>
  <stageNum>5</stageNum>
  <stages>
    <!-- stage 0 -->
    <_>
      <maxWeakCount>14</maxWeakCount>
      <stageThreshold>-9.9454343318939209e-01</stageThreshold>
      <weakClassifiers>
        <_>
          <internalNodes>
            0 -1 10 1.6035936772823334e-02</internalNodes>
          <leafValues>
            -2.0966485142707825e-01 7.5761264562606812e-01</leafValues></_>
        <_>
          <internalNodes>
            0 -1 54 2.5748603045940399e-02</internalNodes>
          <leafValues>
            -2.5959390401840210e-01 5.6051689386367798e-01</leafValues></_>
        <_>
          <internalNodes>
            0 -1 119 5.3949458524584770e-03</internalNodes>
          <leafValues>
            -2.7489849925041199e-01 4.7783380746841431e-01</leafValues></_>
        <_>
          <internalNodes>
            0 -1 78 2.0051389932632446e-02</internalNodes>
          <leafValues>
            -1.3254487514495850e-01 7.6248592138290405e-01</leafValues></_>
        <_>
          <internalNodes>
            0 -1 23 -1.2040934525430202e-02</internalNodes>
          <leafValues>
            4.6639651060104370e-01 -2.9553157091140747e-01</leafValues></_>
        <_>
          <internalNodes>
            0 -1 53 7.0238835178315639e-03</internalNodes>
          <leafValues>
            -2.8704351186752319e-01 3.0075013637542725e-01</leafValues></_>
        <_>
          <internalNodes>
            0 -1 83 -1.9977225456386805e-03</internalNodes>
          <leafValues>
            4.2880535125732422e-01 -1.8551598489284515e-01</leafValues></_>
        <_>
          <internalNodes>
            0 -1 32 -1.3299444690346718e-02</internalNodes>
          <leafValues>
            6.2008559703826904e-01 -1.1353150010108948e-01</leafValues></_>
        <_>
          <internalNodes>
            0 -1 35 1.7344858497381210e-02</internalNodes>
          <leafValues>
            -1.3980486989021301e-01 5.7034862041473389e-01</leafValues></_>
        <_>
          <internalNodes>
            0 -1 74 -3.8903402164578438e-03</internalNodes>
          <leafValues>
            -8.0777025222778320e-01 1.0726057738065720e-01</leafValues></_>
        <_>
          <internalNodes>
            0 -1 42 -2.5233775377273560e-02</internalNodes>
          <leafValues>
            5.7238405942916870e-01 -1.2950065732002258e-01</leafValues></_>
        <_>
          <internalNodes>
            0 -1 36 1.4525095000863075e-02</internalNodes>
          <leafValues>
            9.6272483468055725e-02 -7.0210748910903931e-01</leafValues></_>
        <_>
          <internalNodes>
            0 -1 73 -1.2159987352788448e-02</internalNodes>
          <leafValues>
            4.6458470821380615e-01 -1.4788536727428436e-01</leafValues></_>
        <_>
          <internalNodes>
            0 -1 58 -1.4660499291494489e-03</internalNodes>
          <leafValues>
            3.8964542746543884e-01 -1.8276290595531464e-01</leafValues></_></weakClassifiers></_>
    <!-- stage 1 -->
    <_>
      <maxWeakCount>21</maxWeakCount>
      <stageThreshold>-9.6421122550964355e-01</stageThreshold>
      <weakClassifiers>
        <_>
          <internalNodes>
            0 -1 21 -1.9269626587629318e-02</internalNodes>
          <leafValues>
            7.3281949758529663e-01 -1.2134502828121185e-01</leafValues></_>
        <_>
          <internalNodes>
            0 -1 79 -7.7692763879895210e-03</internalNodes>
          <leafValues>
            5.0795692205429077e-01 -2.4673087894916534e-01</leafValues></_>
        <_>
          <internalNodes>
            0 -1 124 1.2063267640769482e-03</internalNodes>
          <leafValues>
            -3.4411764144897461e-01 3.2539993524551392e-01</leafValues></_>
        <_>
          <internalNodes>
            0 -1 37 2.2770585492253304e-03</internalNodes>
          <leafValues>
            -3.0876776576042175e-01 3.3776491880416870e-01</leafValues></_>
        <_>
          <internalNodes>
            0 -1 59 -4.2022271081805229e-03</internalNodes>
          <leafValues>
            4.8088529706001282e-01 -1.8575632572174072e-01</leafValues></_>
        <_>
          <internalNodes>
            0 -1 70 4.8714179545640945e-02</internalNodes>
          <leafValues>
            1.0664200037717819e-01 -7.5121217966079712e-01</leafValues></_>
        <_>
          <internalNodes>
            0 -1 97 -1.5585327055305243e-03</internalNodes>
          <leafValues>
            3.2050234079360962e-01 -2.5162240862846375e-01</leafValues></_>
        <_>
          <internalNodes>
            0 -1 86 1.0972443036735058e-02</internalNodes>
          <leafValues>
            -1.5163655579090118e-01 4.7058829665184021e-01</leafValues></_>
        <_>
          <internalNodes>
            0 -1 84 -4.6125482767820358e-03</internalNodes>
          <leafValues>
            4.8725715279579163e-01 -1.6321268677711487e-01</leafValues></_>
        <_>
          <internalNodes>
            0 -1 51 -3.0506225302815437e-03</internalNodes>
          <leafValues>
            2.8921687602996826e-01 -3.1359156966209412e-01</leafValues></_>
        <_>
          <internalNodes>
            0 -1 130 1.7061321996152401e-03</internalNodes>
          <leafValues>
            -2.1373246610164642e-01 3.4701117873191833e-01</leafValues></_>
        <_>
          <internalNodes>
            0 -1 127 -8.0103650689125061e-03</internalNodes>
          <leafValues>
            4.9683719873428345e-01 -1.5231202542781830e-01</leafValues></_>
        <_>
          <internalNodes>
            0 -1 11 -7.5851050205528736e-03</internalNodes>
          <leafValues>
            3.6011341214179993e-01 -1.8687684834003448e-01</leafValues></_>
        <_>
          <internalNodes>
            0 -1 15 6.2019210308790207e-03</internalNodes>
          <leafValues>
            -1.8424786627292633e-01 3.4689676761627197e-01</leafValues></_>
        <_>
          <internalNodes>
            0 -1 102 -5.2060494199395180e-03</internalNodes>
          <leafValues>
            -6.1808973550796509e-01 1.0720471292734146e-01</leafValues></_>
        <_>
          <internalNodes>
            0 -1 122 5.4292962886393070e-04</internalNodes>
          <leafValues>
            -1.8182177841663361e-01 3.2911041378974915e-01</leafValues></_>
        <_>
          <internalNodes>
            0 -1 56 -9.2286756262183189e-03</internalNodes>
          <leafValues>
            -8.6673629283905029e-01 7.3532953858375549e-02</leafValues></_>
        <_>
          <internalNodes>
            0 -1 13 -2.1507140249013901e-02</internalNodes>
          <leafValues>
            5.3131741285324097e-01 -1.2555156648159027e-01</leafValues></_>
        <_>
          <internalNodes>
            0 -1 26 5.3583912085741758e-04</internalNodes>
          <leafValues>
            -1.3440445065498352e-01 3.9558887481689453e-01</leafValues></_>
        <_>
          <internalNodes>
            0 -1 77 2.0820056088268757e-03</internalNodes>
          <leafValues>
            -1.1363922804594040e-01 4.3818423151969910e-01</leafValues></_>
        <_>
          <internalNodes>
            0 -1 47 -1.1348806321620941e-02</internalNodes>
          <leafValues>
            4.6533116698265076e-01 -1.1382419615983963e-01</leafValues></_></weakClassifiers></_>
    <!-- stage 2 -->
    <_>
      <maxWeakCount>26</maxWeakCount>
      <stageThreshold>-1.0353964567184448e+00</stageThreshold>
      <weakClassifiers>
        <_>
          <internalNodes>
            0 -1 29 1.3170037418603897e-02</internalNodes>
          <leafValues>
            -6.7599065601825714e-02 6.4835166931152344e-01</leafValues></_>
        <_>
          <internalNodes>
            0 -1 88 1.2523887678980827e-02</internalNodes>
          <leafValues>
            -1.3388819992542267e-01 6.6853868961334229e-01</leafValues></_>
        <_>
          <internalNodes>
            0 -1 93 1.4241521246731281e-02</internalNodes>
          <leafValues>
            -2.8618744015693665e-01 3.7406527996063232e-01</leafValues></_>
        <_>
          <internalNodes>
            0 -1 2 1.7548838630318642e-02</internalNodes>
          <leafValues>
            -1.8263016641139984e-01 5.4934233427047729e-01</leafValues></_>
        <_>
          <internalNodes>
            0 -1 71 3.0264548957347870e-02</internalNodes>
          <leafValues>
            -1.1541672050952911e-01 6.3262963294982910e-01</leafValues></_>
        <_>
          <internalNodes>
            0 -1 6 -1.9800278823822737e-03</internalNodes>
          <leafValues>
            2.4826364219188690e-01 -3.1213477253913879e-01</leafValues></_>
        <_>
          <internalNodes>
            0 -1 39 8.7578681996092200e-04</internalNodes>
          <leafValues>
            -2.5537711381912231e-01 2.7738559246063232e-01</leafValues></_>
        <_>
          <internalNodes>
            0 -1 18 2.0474035292863846e-02</internalNodes>
          <leafValues>
            -1.6489438712596893e-01 3.8666027784347534e-01</leafValues></_>
        <_>
          <internalNodes>
            0 -1 82 -5.4420176893472672e-02</internalNodes>
          <leafValues>
            -7.9414510726928711e-01 7.7938862144947052e-02</leafValues></_>
        <_>
          <internalNodes>
            0 -1 100 5.8258743956685066e-03</internalNodes>
          <leafValues>
            5.4864086210727692e-02 -7.4630677700042725e-01</leafValues></_>
        <_>
          <internalNodes>
            0 -1 69 2.4882435798645020e-02</internalNodes>
          <leafValues>
            9.5452345907688141e-02 -5.0472640991210938e-01</leafValues></_>
        <_>
          <internalNodes>
            0 -1 33 3.6719711497426033e-03</internalNodes>
          <leafValues>
            -1.8586024641990662e-01 3.2041531801223755e-01</leafValues></_>
        <_>
          <internalNodes>
            0 -1 125 2.2278330288827419e-03</internalNodes>
          <leafValues>
            -1.5738217532634735e-01 3.4602501988410950e-01</leafValues></_>
        <_>
          <internalNodes>
            0 -1 128 1.2859547277912498e-03</internalNodes>
          <leafValues>
            -2.2347716987133026e-01 2.4008999764919281e-01</leafValues></_>
        <_>
          <internalNodes>
            0 -1 61 8.1483367830514908e-03</internalNodes>
          <leafValues>
            -1.0492771863937378e-01 4.6940049529075623e-01</leafValues></_>
        <_>
          <internalNodes>
            0 -1 107 3.6741700023412704e-04</internalNodes>
          <leafValues>
            -2.2194907069206238e-01 2.2009906172752380e-01</leafValues></_>
        <_>
          <internalNodes>
            0 -1 67 -1.7539154738187790e-02</internalNodes>
          <leafValues>
            5.3570711612701416e-01 -9.7886666655540466e-02</leafValues></_>
        <_>
          <internalNodes>
            0 -1 68 -3.1611174345016479e-03</internalNodes>
          <leafValues>
            3.0494415760040283e-01 -1.6288694739341736e-01</leafValues></_>
        <_>
          <internalNodes>
            0 -1 121 -1.7106391489505768e-02</internalNodes>
          <leafValues>
            2.9871124029159546e-01 -1.6550987958908081e-01</leafValues></_>
        <_>
          <internalNodes>
            0 -1 55 6.6851722076535225e-03</internalNodes>
          <leafValues>
            5.4692305624485016e-02 -8.3739024400711060e-01</leafValues></_>
        <_>
          <internalNodes>
            0 -1 12 1.5314534539356828e-03</internalNodes>
          <leafValues>
            -1.3302147388458252e-01 3.5184744000434875e-01</leafValues></_>
        <_>
          <internalNodes>
            0 -1 129 1.9764946773648262e-03</internalNodes>
          <leafValues>
            -1.8128515779972076e-01 2.4431873857975006e-01</leafValues></_>
        <_>
          <internalNodes>
            0 -1 52 -2.8136312030255795e-03</internalNodes>
          <leafValues>
            3.6147275567054749e-01 -1.3282096385955811e-01</leafValues></_>
        <_>
          <internalNodes>
            0 -1 120 -2.6545904111117125e-03</internalNodes>
          <leafValues>
            -7.4973189830780029e-01 6.5298199653625488e-02</leafValues></_>
        <_>
          <internalNodes>
            0 -1 40 -1.4206598512828350e-02</internalNodes>
          <leafValues>
            5.8308947086334229e-01 -8.6476802825927734e-02</leafValues></_>
        <_>
          <internalNodes>
            0 -1 94 9.1154756955802441e-04</internalNodes>
          <leafValues>
            -1.7053705453872681e-01 2.5724539160728455e-01</leafValues></_></weakClassifiers></_>
    <!-- stage 3 -->
    <_>
      <maxWeakCount>34</maxWeakCount>
      <stageThreshold>-1.0052976608276367e+00</stageThreshold>
      <weakClassifiers>
        <_>
          <internalNodes>
            0 -1 30 -1.6336992383003235e-02</internalNodes>
          <leafValues>
            5.9009009599685669e-01 -6.3533507287502289e-02</leafValues></_>
        <_>
          <internalNodes>
            0 -1 105 -1.6739040613174438e-02</internalNodes>
          <leafValues>
            4.5551735162734985e-01 -1.9155298173427582e-01</leafValues></_>
        <_>
          <internalNodes>
            0 -1 78 1.7787573859095573e-02</internalNodes>
          <leafValues>
            -1.5059152245521545e-01 5.3042113780975342e-01</leafValues></_>
        <_>
          <internalNodes>
            0 -1 8 2.2156143561005592e-02</internalNodes>
          <leafValues>
            -1.5212312340736389e-01 5.4858452081680298e-01</leafValues></_>
        <_>
          <internalNodes>
            0 -1 118 6.0222931206226349e-03</internalNodes>
          <leafValues>
            -1.8175339698791504e-01 3.2204020023345947e-01</leafValues></_>
        <_>
          <internalNodes>
            0 -1 106 1.4481445774435997e-02</internalNodes>
          <leafValues>
            -1.5600273013114929e-01 4.0621000528335571e-01</leafValues></_>
        <_>
          <internalNodes>
            0 -1 49 1.4554334804415703e-02</internalNodes>
          <leafValues>
            -9.3605920672416687e-02 4.9053657054901123e-01</leafValues></_>
        <_>
          <internalNodes>
            0 -1 3 1.2748074717819691e-02</internalNodes>
          <leafValues>
            -1.5400959551334381e-01 3.0365961790084839e-01</leafValues></_>
        <_>
          <internalNodes>
            0 -1 109 2.7490563225001097e-03</internalNodes>
          <leafValues>
            8.0886095762252808e-02 -6.1719787120819092e-01</leafValues></_>
        <_>
          <internalNodes>
            0 -1 50 4.0077708661556244e-02</internalNodes>
          <leafValues>
            7.6205745339393616e-02 -5.6850159168243408e-01</leafValues></_>
        <_>
          <internalNodes>
            0 -1 108 7.6984502375125885e-03</internalNodes>
          <leafValues>
            7.7623270452022552e-02 -6.0552769899368286e-01</leafValues></_>
        <_>
          <internalNodes>
            0 -1 64 -7.9529639333486557e-04</internalNodes>
          <leafValues>
            2.6049318909645081e-01 -1.9151441752910614e-01</leafValues></_>
        <_>
          <internalNodes>
            0 -1 104 3.8519368972629309e-03</internalNodes>
          <leafValues>
            -2.0697703957557678e-01 2.6157748699188232e-01</leafValues></_>
        <_>
          <internalNodes>
            0 -1 132 -4.6161273494362831e-03</internalNodes>
          <leafValues>
            3.7955534458160400e-01 -1.6750892996788025e-01</leafValues></_>
        <_>
          <internalNodes>
            0 -1 48 -7.6127857901155949e-03</internalNodes>
          <leafValues>
            3.3412319421768188e-01 -1.2300781160593033e-01</leafValues></_>
        <_>
          <internalNodes>
            0 -1 75 4.6201692894101143e-03</internalNodes>
          <leafValues>
            7.3966979980468750e-02 -6.3660025596618652e-01</leafValues></_>
        <_>
          <internalNodes>
            0 -1 24 -8.2533270120620728e-02</internalNodes>
          <leafValues>
            -6.1309731006622314e-01 5.9726022183895111e-02</leafValues></_>
        <_>
          <internalNodes>
            0 -1 98 -3.4974459558725357e-03</internalNodes>
          <leafValues>
            2.8074356913566589e-01 -1.5976113080978394e-01</leafValues></_>
        <_>
          <internalNodes>
            0 -1 126 4.3423351598903537e-04</internalNodes>
          <leafValues>
            -1.9034077227115631e-01 2.0873671770095825e-01</leafValues></_>
        <_>
          <internalNodes>
            0 -1 66 -2.8627393767237663e-03</internalNodes>
          <leafValues>
            3.5613384842872620e-01 -1.1491771042346954e-01</leafValues></_>
        <_>
          <internalNodes>
            0 -1 89 8.0962674692273140e-03</internalNodes>
          <leafValues>
            6.2578171491622925e-02 -6.9574654102325439e-01</leafValues></_>
        <_>
          <internalNodes>
            0 -1 45 1.8801225349307060e-02</internalNodes>
          <leafValues>
            4.8396792262792587e-02 -7.1309989690780640e-01</leafValues></_>
        <_>
          <internalNodes>
            0 -1 14 1.0434247087687254e-03</internalNodes>
          <leafValues>
            -1.6977170109748840e-01 2.4151395261287689e-01</leafValues></_>
        <_>
          <internalNodes>
            0 -1 133 -2.0217547193169594e-02</internalNodes>
          <leafValues>
            3.5694712400436401e-01 -1.1304283887147903e-01</leafValues></_>
        <_>
          <internalNodes>
            0 -1 46 2.0154014229774475e-02</internalNodes>
          <leafValues>
            6.3200928270816803e-02 -6.1261737346649170e-01</leafValues></_>
        <_>
          <internalNodes>
            0 -1 113 -1.0744381695985794e-02</internalNodes>
          <leafValues>
            -8.2762748003005981e-01 4.0908738970756531e-02</leafValues></_>
        <_>
          <internalNodes>
            0 -1 116 5.6822272017598152e-03</internalNodes>
          <leafValues>
            -1.0885269194841385e-01 3.9974913001060486e-01</leafValues></_>
        <_>
          <internalNodes>
            0 -1 28 -6.4167743548750877e-03</internalNodes>
          <leafValues>
            2.3514768481254578e-01 -1.7384448647499084e-01</leafValues></_>
        <_>
          <internalNodes>
            0 -1 57 3.4737749956548214e-03</internalNodes>
          <leafValues>
            -1.2245565652847290e-01 3.2373061776161194e-01</leafValues></_>
        <_>
          <internalNodes>
            0 -1 65 -2.5661159306764603e-03</internalNodes>
          <leafValues>
            3.1545636057853699e-01 -1.3443545997142792e-01</leafValues></_>
        <_>
          <internalNodes>
            0 -1 117 7.7997422777116299e-03</internalNodes>
          <leafValues>
            6.7661494016647339e-02 -6.7894858121871948e-01</leafValues></_>
        <_>
          <internalNodes>
            0 -1 123 -9.6712110098451376e-04</internalNodes>
          <leafValues>
            2.5726938247680664e-01 -1.5790113806724548e-01</leafValues></_>
        <_>
          <internalNodes>
            0 -1 110 -1.0997015051543713e-03</internalNodes>
          <leafValues>
            2.7912545204162598e-01 -1.3813662528991699e-01</leafValues></_>
        <_>
          <internalNodes>
            0 -1 16 1.7878860235214233e-02</internalNodes>
          <leafValues>
            -7.7333502471446991e-02 4.6725013852119446e-01</leafValues></_></weakClassifiers></_>
    <!-- stage 4 -->
    <_>
      <maxWeakCount>41</maxWeakCount>
      <stageThreshold>-8.8102144002914429e-01</stageThreshold>
      <weakClassifiers>
        <_>
          <internalNodes>
            0 -1 31 2.7722708880901337e-02</internalNodes>
          <leafValues>
            -3.3856317400932312e-02 5.9276545047760010e-01</leafValues></_>
        <_>
          <internalNodes>
            0 -1 63 2.2647850215435028e-02</internalNodes>
          <leafValues>
            -1.4743605256080627e-01 4.2033767700195312e-01</leafValues></_>
        <_>
          <internalNodes>
            0 -1 72 2.7250092476606369e-02</internalNodes>
          <leafValues>
            -1.3755518198013306e-01 5.5186122655868530e-01</leafValues></_>
        <_>
          <internalNodes>
            0 -1 92 -5.2280565723776817e-03</internalNodes>
          <leafValues>
            2.7398285269737244e-01 -2.2656543552875519e-01</leafValues></_>
        <_>
          <internalNodes>
            0 -1 0 1.5394201502203941e-02</internalNodes>
          <leafValues>
            -1.2546652555465698e-01 3.8919252157211304e-01</leafValues></_>
        <_>
          <internalNodes>
            0 -1 38 2.1821640431880951e-02</internalNodes>
          <leafValues>
            -2.3786054551601410e-01 2.1917010843753815e-01</leafValues></_>
        <_>
          <internalNodes>
            0 -1 4 -7.9288743436336517e-03</internalNodes>
          <leafValues>
            2.3923859000205994e-01 -1.9463935494422913e-01</leafValues></_>
        <_>
          <internalNodes>
            0 -1 43 -5.7653494179248810e-02</internalNodes>
          <leafValues>
            -4.9373009800910950e-01 7.9031392931938171e-02</leafValues></_>
        <_>
          <internalNodes>
            0 -1 131 5.2677886560559273e-03</internalNodes>
          <leafValues>
            5.0083160400390625e-02 -7.7615875005722046e-01</leafValues></_>
        <_>
          <internalNodes>
            0 -1 27 -1.5912719536572695e-03</internalNodes>
          <leafValues>
            1.8406817317008972e-01 -2.3740305006504059e-01</leafValues></_>
        <_>
          <internalNodes>
            0 -1 96 3.8230801001191139e-03</internalNodes>
          <leafValues>
            -1.1336302012205124e-01 3.2289007306098938e-01</leafValues></_>
        <_>
          <internalNodes>
            0 -1 80 -2.5424922350794077e-03</internalNodes>
          <leafValues>
            -5.3863060474395752e-01 7.6641224324703217e-02</leafValues></_>
        <_>
          <internalNodes>
            0 -1 81 6.5929023548960686e-03</internalNodes>
          <leafValues>
            5.6979078799486160e-02 -6.7419964075088501e-01</leafValues></_>
        <_>
          <internalNodes>
            0 -1 87 1.1103342287242413e-02</internalNodes>
          <leafValues>
            -8.9378900825977325e-02 5.2316623926162720e-01</leafValues></_>
        <_>
          <internalNodes>
            0 -1 17 5.1224157214164734e-03</internalNodes>
          <leafValues>
            -1.5245613455772400e-01 2.4461184442043304e-01</leafValues></_>
        <_>
          <internalNodes>
            0 -1 34 -1.9613642245531082e-02</internalNodes>
          <leafValues>
            5.3393185138702393e-01 -7.4551932513713837e-02</leafValues></_>
        <_>
          <internalNodes>
            0 -1 95 4.4840825721621513e-03</internalNodes>
          <leafValues>
            -1.0112548619508743e-01 3.8465785980224609e-01</leafValues></_>
        <_>
          <internalNodes>
            0 -1 76 -5.3346613422036171e-03</internalNodes>
          <leafValues>
            2.9098016023635864e-01 -1.2416252493858337e-01</leafValues></_>
        <_>
          <internalNodes>
            0 -1 22 -1.0195678472518921e-01</internalNodes>
          <leafValues>
            -5.7843941450119019e-01 7.3994122445583344e-02</leafValues></_>
        <_>
          <internalNodes>
            0 -1 134 -1.4476168435066938e-03</internalNodes>
          <leafValues>
            2.4291576445102692e-01 -1.6064679622650146e-01</leafValues></_>
        <_>
          <internalNodes>
            0 -1 111 -1.0015309089794755e-03</internalNodes>
          <leafValues>
            2.6666045188903809e-01 -1.4203308522701263e-01</leafValues></_>
        <_>
          <internalNodes>
            0 -1 103 -9.5569738186895847e-04</internalNodes>
          <leafValues>
            2.5624364614486694e-01 -1.5369430184364319e-01</leafValues></_>
        <_>
          <internalNodes>
            0 -1 90 -7.4970531277358532e-03</internalNodes>
          <leafValues>
            -5.7896310091018677e-01 7.1786858141422272e-02</leafValues></_>
        <_>
          <internalNodes>
            0 -1 41 -1.7023485852405429e-03</internalNodes>
          <leafValues>
            2.5379228591918945e-01 -1.3809424638748169e-01</leafValues></_>
        <_>
          <internalNodes>
            0 -1 62 8.0907270312309265e-02</internalNodes>
          <leafValues>
            4.6550974249839783e-02 -7.7407962083816528e-01</leafValues></_>
        <_>
          <internalNodes>
            0 -1 99 1.7344942316412926e-02</internalNodes>
          <leafValues>
            4.0473829954862595e-02 -7.1605718135833740e-01</leafValues></_>
        <_>
          <internalNodes>
            0 -1 60 1.8166468944400549e-03</internalNodes>
          <leafValues>
            -1.3620012998580933e-01 2.5394320487976074e-01</leafValues></_>
        <_>
          <internalNodes>
            0 -1 25 1.0269014164805412e-02</internalNodes>
          <leafValues>
            3.9177861064672470e-02 -8.8734465837478638e-01</leafValues></_>
        <_>
          <internalNodes>
            0 -1 44 -1.3591097667813301e-03</internalNodes>
          <leafValues>
            2.5775599479675293e-01 -1.3622410595417023e-01</leafValues></_>
        <_>
          <internalNodes>
            0 -1 9 -7.5259663164615631e-02</internalNodes>
          <leafValues>
            -7.6780593395233154e-01 4.9208004027605057e-02</leafValues></_>
        <_>
          <internalNodes>
            0 -1 5 -9.3433372676372528e-03</internalNodes>
          <leafValues>
            2.2245797514915466e-01 -1.6958624124526978e-01</leafValues></_>
        <_>
          <internalNodes>
            0 -1 1 3.4381821751594543e-02</internalNodes>
          <leafValues>
            -1.1025929450988770e-01 3.6745691299438477e-01</leafValues></_>
        <_>
          <internalNodes>
            0 -1 101 4.4210990890860558e-03</internalNodes>
          <leafValues>
            5.7325240224599838e-02 -6.4943259954452515e-01</leafValues></_>
        <_>
          <internalNodes>
            0 -1 91 1.9064871594309807e-02</internalNodes>
          <leafValues>
            -1.1218553036451340e-01 3.2777324318885803e-01</leafValues></_>
        <_>
          <internalNodes>
            0 -1 114 -6.5214181086048484e-04</internalNodes>
          <leafValues>
            3.4447824954986572e-01 -1.0876099020242691e-01</leafValues></_>
        <_>
          <internalNodes>
            0 -1 115 8.3975365851074457e-04</internalNodes>
          <leafValues>
            -1.1792396008968353e-01 2.9137527942657471e-01</leafValues></_>
        <_>
          <internalNodes>
            0 -1 112 -7.7960686758160591e-03</internalNodes>
          <leafValues>
            3.5188627243041992e-01 -1.0090118646621704e-01</leafValues></_>
        <_>
          <internalNodes>
            0 -1 20 -9.1311428695917130e-03</internalNodes>
          <leafValues>
            2.5675392150878906e-01 -1.3129661977291107e-01</leafValues></_>
        <_>
          <internalNodes>
            0 -1 19 2.9242884367704391e-02</internalNodes>
          <leafValues>
            -4.5063894242048264e-02 7.0792263746261597e-01</leafValues></_>
        <_>
          <internalNodes>
            0 -1 7 -3.2248470932245255e-02</internalNodes>
          <leafValues>
            2.4201174080371857e-01 -1.3986878097057343e-01</leafValues></_>
        <_>
          <internalNodes>
            0 -1 85 2.1379431709647179e-03</internalNodes>
          <leafValues>
            7.4253715574741364e-02 -4.7918057441711426e-01</leafValues></_></weakClassifiers></_></stages>
  <features>
    <_>
      <rects>
        <_>
          0 3 4 16 -1.</_>
        <_>
          2 3 2 16 2.</_></rects>
      <tilted>0</tilted></_>
    <_>
      <rects>
        <_>
          0 6 8 12 -1.</_>
        <_>
          4 6 4 12 2.</_></rects>
      <tilted>0</tilted></_>
    <_>
      <rects>
        <_>
          0 15 6 4 -1.</_>
        <_>
          3 15 3 4 2.</_></rects>
      <tilted>0</tilted></_>
    <_>
      <rects>
        <_>
          0 18 10 3 -1.</_>
        <_>
          5 18 5 3 2.</_></rects>
      <tilted>0</tilted></_>
    <_>
      <rects>
        <_>
          1 2 8 8 -1.</_>
        <_>
          1 2 4 4 2.</_>
        <_>
          5 6 4 4 2.</_></rects>
      <tilted>0</tilted></_>
    <_>
      <rects>
        <_>
          1 8 8 5 -1.</_>
        <_>
          5 8 4 5 2.</_></rects>
      <tilted>0</tilted></_>
    <_>
      <rects>
        <_>
          1 8 15 3 -1.</_>
        <_>
          6 8 5 3 3.</_></rects>
      <tilted>0</tilted></_>
    <_>
      <rects>
        <_>
          1 9 12 8 -1.</_>
        <_>
          5 9 4 8 3.</_></rects>
      <tilted>0</tilted></_>
    <_>
      <rects>
        <_>
          2 9 14 4 -1.</_>
        <_>
          2 9 7 2 2.</_>
        <_>
          9 11 7 2 2.</_></rects>
      <tilted>0</tilted></_>
    <_>
      <rects>
        <_>
          2 14 18 4 -1.</_>
        <_>
          8 14 6 4 3.</_></rects>
      <tilted>0</tilted></_>
    <_>
      <rects>
        <_>
          3 5 12 8 -1.</_>
        <_>
          3 5 6 4 2.</_>
        <_>
          9 9 6 4 2.</_></rects>
      <tilted>0</tilted></_>
    <_>
      <rects>
        <_>
          3 6 6 5 -1.</_>
        <_>
          6 6 3 5 2.</_></rects>
      <tilted>0</tilted></_>
    <_>
      <rects>
        <_>
          3 9 2 4 -1.</_>
        <_>
          3 9 1 2 2.</_>
        <_>
          4 11 1 2 2.</_></rects>
      <tilted>0</tilted></_>
    <_>
      <rects>
        <_>
          3 10 12 4 -1.</_>
        <_>
          3 10 6 2 2.</_>
        <_>
          9 12 6 2 2.</_></rects>
      <tilted>0</tilted></_>
    <_>
      <rects>
        <_>
          3 13 2 6 -1.</_>
        <_>
          3 13 1 3 2.</_>
        <_>
          4 16 1 3 2.</_></rects>
      <tilted>0</tilted></_>
    <_>
      <rects>
        <_>
          3 16 6 8 -1.</_>
        <_>
          3 16 3 4 2.</_>
        <_>
          6 20 3 4 2.</_></rects>
      <tilted>0</tilted></_>
    <_>
      <rects>
        <_>
          3 16 10 4 -1.</_>
        <_>
          3 16 5 2 2.</_>
        <_>
          8 18 5 2 2.</_></rects>
      <tilted>0</tilted></_>
    <_>
      <rects>
        <_>
          3 17 6 4 -1.</_>
        <_>
          5 17 2 4 3.</_></rects>
      <tilted>0</tilted></_>
    <_>
      <rects>
        <_>
          3 19 12 6 -1.</_>
        <_>
          3 21 12 2 3.</_></rects>
      <tilted>0</tilted></_>
    <_>
      <rects>
        <_>
          4 3 1 21 -1.</_>
        <_>
          4 10 1 7 3.</_></rects>
      <tilted>0</tilted></_>
    <_>
      <rects>
        <_>
          4 4 2 10 -1.</_>
        <_>
          4 9 2 5 2.</_></rects>
      <tilted>0</tilted></_>
    <_>
      <rects>
        <_>
          4 10 10 8 -1.</_>
        <_>
          4 10 5 4 2.</_>
        <_>
          9 14 5 4 2.</_></rects>
      <tilted>0</tilted></_>
    <_>
      <rects>
        <_>
          4 12 16 11 -1.</_>
        <_>
          12 12 8 11 2.</_></rects>
      <tilted>0</tilted></_>
    <_>
      <rects>
        <_>
          4 13 12 6 -1.</_>
        <_>
          4 13 6 3 2.</_>
        <_>
          10 16 6 3 2.</_></rects>
      <tilted>0</tilted></_>
    <_>
      <rects>
        <_>
          4 14 21 5 -1.</_>
        <_>
          11 14 7 5 3.</_></rects>
      <tilted>0</tilted></_>
    <_>
      <rects>
        <_>
          4 15 5 2 -1.</_>
        <_>
          4 16 5 1 2.</_></rects>
      <tilted>0</tilted></_>
    <_>
      <rects>
        <_>
          4 16 2 2 -1.</_>
        <_>
          4 16 1 1 2.</_>
        <_>
          5 17 1 1 2.</_></rects>
      <tilted>0</tilted></_>
    <_>
      <rects>
        <_>
          4 17 15 1 -1.</_>
        <_>
          9 17 5 1 3.</_></rects>
      <tilted>0</tilted></_>
    <_>
      <rects>
        <_>
          5 4 5 6 -1.</_>
        <_>
          5 7 5 3 2.</_></rects>
      <tilted>0</tilted></_>
    <_>
      <rects>
        <_>
          5 5 8 8 -1.</_>
        <_>
          5 5 4 4 2.</_>
        <_>
          9 9 4 4 2.</_></rects>
      <tilted>0</tilted></_>
    <_>
      <rects>
        <_>
          5 9 8 10 -1.</_>
        <_>
          5 9 4 5 2.</_>
        <_>
          9 14 4 5 2.</_></rects>
      <tilted>0</tilted></_>
    <_>
      <rects>
        <_>
          5 9 15 4 -1.</_>
        <_>
          10 9 5 4 3.</_></rects>
      <tilted>0</tilted></_>
    <_>
      <rects>
        <_>
          5 10 10 4 -1.</_>
        <_>
          5 10 5 2 2.</_>
        <_>
          10 12 5 2 2.</_></rects>
      <tilted>0</tilted></_>
    <_>
      <rects>
        <_>
          5 14 3 4 -1.</_>
        <_>
          5 16 3 2 2.</_></rects>
      <tilted>0</tilted></_>
    <_>
      <rects>
        <_>
          5 17 6 4 -1.</_>
        <_>
          5 19 6 2 2.</_></rects>
      <tilted>0</tilted></_>
    <_>
      <rects>
        <_>
          6 8 8 6 -1.</_>
        <_>
          6 8 4 3 2.</_>
        <_>
          10 11 4 3 2.</_></rects>
      <tilted>0</tilted></_>
    <_>
      <rects>
        <_>
          6 14 6 4 -1.</_>
        <_>
          8 14 2 4 3.</_></rects>
      <tilted>0</tilted></_>
    <_>
      <rects>
        <_>
          6 15 4 4 -1.</_>
        <_>
          6 17 4 2 2.</_></rects>
      <tilted>0</tilted></_>
    <_>
      <rects>
        <_>
          6 16 12 9 -1.</_>
        <_>
          6 19 12 3 3.</_></rects>
      <tilted>0</tilted></_>
    <_>
      <rects>
        <_>
          6 17 4 2 -1.</_>
        <_>
          6 18 4 1 2.</_></rects>
      <tilted>0</tilted></_>
    <_>
      <rects>
        <_>
          6 18 8 4 -1.</_>
        <_>
          6 18 4 2 2.</_>
        <_>
          10 20 4 2 2.</_></rects>
      <tilted>0</tilted></_>
    <_>
      <rects>
        <_>
          6 19 8 2 -1.</_>
        <_>
          6 19 4 1 2.</_>
        <_>
          10 20 4 1 2.</_></rects>
      <tilted>0</tilted></_>
    <_>
      <rects>
        <_>
          6 21 13 4 -1.</_>
        <_>
          6 23 13 2 2.</_></rects>
      <tilted>0</tilted></_>
    <_>
      <rects>
        <_>
          7 6 7 12 -1.</_>
        <_>
          7 12 7 6 2.</_></rects>
      <tilted>0</tilted></_>
    <_>
      <rects>
        <_>
          7 11 2 4 -1.</_>
        <_>
          7 11 1 2 2.</_>
        <_>
          8 13 1 2 2.</_></rects>
      <tilted>0</tilted></_>
    <_>
      <rects>
        <_>
          7 15 6 5 -1.</_>
        <_>
          9 15 2 5 3.</_></rects>
      <tilted>0</tilted></_>
    <_>
      <rects>
        <_>
          7 16 12 2 -1.</_>
        <_>
          13 16 6 2 2.</_></rects>
      <tilted>0</tilted></_>
    <_>
      <rects>
        <_>
          7 17 2 8 -1.</_>
        <_>
          7 21 2 4 2.</_></rects>
      <tilted>0</tilted></_>
    <_>
      <rects>
        <_>
          7 19 8 4 -1.</_>
        <_>
          7 19 4 2 2.</_>
        <_>
          11 21 4 2 2.</_></rects>
      <tilted>0</tilted></_>
    <_>
      <rects>
        <_>
          7 20 9 2 -1.</_>
        <_>
          10 20 3 2 3.</_></rects>
      <tilted>0</tilted></_>
    <_>
      <rects>
        <_>
          8 0 3 18 -1.</_>
        <_>
          8 6 3 6 3.</_></rects>
      <tilted>0</tilted></_>
    <_>
      <rects>
        <_>
          8 2 11 12 -1.</_>
        <_>
          8 6 11 4 3.</_></rects>
      <tilted>0</tilted></_>
    <_>
      <rects>
        <_>
          8 3 6 2 -1.</_>
        <_>
          8 4 6 1 2.</_></rects>
      <tilted>0</tilted></_>
    <_>
      <rects>
        <_>
          8 7 6 7 -1.</_>
        <_>
          11 7 3 7 2.</_></rects>
      <tilted>0</tilted></_>
    <_>
      <rects>
        <_>
          8 7 9 9 -1.</_>
        <_>
          8 10 9 3 3.</_></rects>
      <tilted>0</tilted></_>
    <_>
      <rects>
        <_>
          8 15 3 4 -1.</_>
        <_>
          9 15 1 4 3.</_></rects>
      <tilted>0</tilted></_>
    <_>
      <rects>
        <_>
          8 15 3 5 -1.</_>
        <_>
          9 15 1 5 3.</_></rects>
      <tilted>0</tilted></_>
    <_>
      <rects>
        <_>
          8 16 1 6 -1.</_>
        <_>
          8 19 1 3 2.</_></rects>
      <tilted>0</tilted></_>
    <_>
      <rects>
        <_>
          8 16 4 2 -1.</_>
        <_>
          8 17 4 1 2.</_></rects>
      <tilted>0</tilted></_>
    <_>
      <rects>
        <_>
          8 19 4 4 -1.</_>
        <_>
          8 19 2 2 2.</_>
        <_>
          10 21 2 2 2.</_></rects>
      <tilted>0</tilted></_>
    <_>
      <rects>
        <_>
          8 19 6 2 -1.</_>
        <_>
          8 19 3 1 2.</_>
        <_>
          11 20 3 1 2.</_></rects>
      <tilted>0</tilted></_>
    <_>
      <rects>
        <_>
          8 21 9 1 -1.</_>
        <_>
          11 21 3 1 3.</_></rects>
      <tilted>0</tilted></_>
    <_>
      <rects>
        <_>
          9 4 3 21 -1.</_>
        <_>
          9 11 3 7 3.</_></rects>
      <tilted>0</tilted></_>
    <_>
      <rects>
        <_>
          9 8 7 6 -1.</_>
        <_>
          9 10 7 2 3.</_></rects>
      <tilted>0</tilted></_>
    <_>
      <rects>
        <_>
          9 10 4 2 -1.</_>
        <_>
          9 10 2 1 2.</_>
        <_>
          11 11 2 1 2.</_></rects>
      <tilted>0</tilted></_>
    <_>
      <rects>
        <_>
          9 18 4 3 -1.</_>
        <_>
          9 19 4 1 3.</_></rects>
      <tilted>0</tilted></_>
    <_>
      <rects>
        <_>
          9 19 1 6 -1.</_>
        <_>
          9 21 1 2 3.</_></rects>
      <tilted>0</tilted></_>
    <_>
      <rects>
        <_>
          9 19 7 4 -1.</_>
        <_>
          9 21 7 2 2.</_></rects>
      <tilted>0</tilted></_>
    <_>
      <rects>
        <_>
          10 5 12 1 -1.</_>
        <_>
          14 5 4 1 3.</_></rects>
      <tilted>0</tilted></_>
    <_>
      <rects>
        <_>
          10 7 3 18 -1.</_>
        <_>
          10 16 3 9 2.</_></rects>
      <tilted>0</tilted></_>
    <_>
      <rects>
        <_>
          10 8 6 14 -1.</_>
        <_>
          10 15 6 7 2.</_></rects>
      <tilted>0</tilted></_>
    <_>
      <rects>
        <_>
          10 10 5 6 -1.</_>
        <_>
          10 12 5 2 3.</_></rects>
      <tilted>0</tilted></_>
    <_>
      <rects>
        <_>
          10 10 6 6 -1.</_>
        <_>
          10 12 6 2 3.</_></rects>
      <tilted>0</tilted></_>
    <_>
      <rects>
        <_>
          10 16 12 4 -1.</_>
        <_>
          10 16 6 2 2.</_>
        <_>
          16 18 6 2 2.</_></rects>
      <tilted>0</tilted></_>
    <_>
      <rects>
        <_>
          10 17 3 2 -1.</_>
        <_>
          11 17 1 2 3.</_></rects>
      <tilted>0</tilted></_>
    <_>
      <rects>
        <_>
          10 17 3 3 -1.</_>
        <_>
          11 17 1 3 3.</_></rects>
      <tilted>0</tilted></_>
    <_>
      <rects>
        <_>
          10 19 4 6 -1.</_>
        <_>
          12 19 2 6 2.</_></rects>
      <tilted>0</tilted></_>
    <_>
      <rects>
        <_>
          11 5 4 2 -1.</_>
        <_>
          11 6 4 1 2.</_></rects>
      <tilted>0</tilted></_>
    <_>
      <rects>
        <_>
          11 7 3 6 -1.</_>
        <_>
          11 9 3 2 3.</_></rects>
      <tilted>0</tilted></_>
    <_>
      <rects>
        <_>
          11 7 10 4 -1.</_>
        <_>
          11 7 5 2 2.</_>
        <_>
          16 9 5 2 2.</_></rects>
      <tilted>0</tilted></_>
    <_>
      <rects>
        <_>
          11 9 2 3 -1.</_>
        <_>
          12 9 1 3 2.</_></rects>
      <tilted>0</tilted></_>
    <_>
      <rects>
        <_>
          11 9 3 3 -1.</_>
        <_>
          12 9 1 3 3.</_></rects>
      <tilted>0</tilted></_>
    <_>
      <rects>
        <_>
          11 9 4 12 -1.</_>
        <_>
          11 15 4 6 2.</_></rects>
      <tilted>0</tilted></_>
    <_>
      <rects>
        <_>
          11 10 2 3 -1.</_>
        <_>
          11 11 2 1 3.</_></rects>
      <tilted>0</tilted></_>
    <_>
      <rects>
        <_>
          11 10 5 2 -1.</_>
        <_>
          11 11 5 1 2.</_></rects>
      <tilted>0</tilted></_>
    <_>
      <rects>
        <_>
          11 18 3 2 -1.</_>
        <_>
          12 18 1 2 3.</_></rects>
      <tilted>0</tilted></_>
    <_>
      <rects>
        <_>
          11 19 4 6 -1.</_>
        <_>
          11 21 4 2 3.</_></rects>
      <tilted>0</tilted></_>
    <_>
      <rects>
        <_>
          11 21 6 4 -1.</_>
        <_>
          11 21 3 2 2.</_>
        <_>
          14 23 3 2 2.</_></rects>
      <tilted>0</tilted></_>
    <_>
      <rects>
        <_>
          12 7 2 6 -1.</_>
        <_>
          12 9 2 2 3.</_></rects>
      <tilted>0</tilted></_>
    <_>
      <rects>
        <_>
          12 9 3 4 -1.</_>
        <_>
          13 9 1 4 3.</_></rects>
      <tilted>0</tilted></_>
    <_>
      <rects>
        <_>
          12 9 2 14 -1.</_>
        <_>
          12 9 1 7 2.</_>
        <_>
          13 16 1 7 2.</_></rects>
      <tilted>0</tilted></_>
    <_>
      <rects>
        <_>
          12 9 8 6 -1.</_>
        <_>
          12 9 4 3 2.</_>
        <_>
          16 12 4 3 2.</_></rects>
      <tilted>0</tilted></_>
    <_>
      <rects>
        <_>
          12 10 3 6 -1.</_>
        <_>
          12 12 3 2 3.</_></rects>
      <tilted>0</tilted></_>
    <_>
      <rects>
        <_>
          12 10 8 8 -1.</_>
        <_>
          12 10 4 4 2.</_>
        <_>
          16 14 4 4 2.</_></rects>
      <tilted>0</tilted></_>
    <_>
      <rects>
        <_>
          12 11 2 3 -1.</_>
        <_>
          12 12 2 1 3.</_></rects>
      <tilted>0</tilted></_>
    <_>
      <rects>
        <_>
          12 11 3 3 -1.</_>
        <_>
          12 12 3 1 3.</_></rects>
      <tilted>0</tilted></_>
    <_>
      <rects>
        <_>
          12 12 3 3 -1.</_>
        <_>
          12 13 3 1 3.</_></rects>
      <tilted>0</tilted></_>
    <_>
      <rects>
        <_>
          12 13 3 3 -1.</_>
        <_>
          12 14 3 1 3.</_></rects>
      <tilted>0</tilted></_>
    <_>
      <rects>
        <_>
          12 13 5 3 -1.</_>
        <_>
          12 14 5 1 3.</_></rects>
      <tilted>0</tilted></_>
    <_>
      <rects>
        <_>
          12 15 6 5 -1.</_>
        <_>
          14 15 2 5 3.</_></rects>
      <tilted>0</tilted></_>
    <_>
      <rects>
        <_>
          12 17 3 4 -1.</_>
        <_>
          13 17 1 4 3.</_></rects>
      <tilted>0</tilted></_>
    <_>
      <rects>
        <_>
          12 18 3 3 -1.</_>
        <_>
          13 18 1 3 3.</_></rects>
      <tilted>0</tilted></_>
    <_>
      <rects>
        <_>
          12 18 3 4 -1.</_>
        <_>
          13 18 1 4 3.</_></rects>
      <tilted>0</tilted></_>
    <_>
      <rects>
        <_>
          12 18 2 3 -1.</_>
        <_>
          12 19 2 1 3.</_></rects>
      <tilted>0</tilted></_>
    <_>
      <rects>
        <_>
          12 18 7 4 -1.</_>
        <_>
          12 20 7 2 2.</_></rects>
      <tilted>0</tilted></_>
    <_>
      <rects>
        <_>
          13 4 6 10 -1.</_>
        <_>
          13 4 3 5 2.</_>
        <_>
          16 9 3 5 2.</_></rects>
      <tilted>0</tilted></_>
    <_>
      <rects>
        <_>
          13 8 6 8 -1.</_>
        <_>
          13 8 3 4 2.</_>
        <_>
          16 12 3 4 2.</_></rects>
      <tilted>0</tilted></_>
    <_>
      <rects>
        <_>
          13 9 1 3 -1.</_>
        <_>
          13 10 1 1 3.</_></rects>
      <tilted>0</tilted></_>
    <_>
      <rects>
        <_>
          13 9 1 14 -1.</_>
        <_>
          13 16 1 7 2.</_></rects>
      <tilted>0</tilted></_>
    <_>
      <rects>
        <_>
          13 17 3 2 -1.</_>
        <_>
          14 17 1 2 3.</_></rects>
      <tilted>0</tilted></_>
    <_>
      <rects>
        <_>
          13 17 2 3 -1.</_>
        <_>
          13 18 2 1 3.</_></rects>
      <tilted>0</tilted></_>
    <_>
      <rects>
        <_>
          13 18 4 2 -1.</_>
        <_>
          13 18 2 1 2.</_>
        <_>
          15 19 2 1 2.</_></rects>
      <tilted>0</tilted></_>
    <_>
      <rects>
        <_>
          13 19 12 1 -1.</_>
        <_>
          19 19 6 1 2.</_></rects>
      <tilted>0</tilted></_>
    <_>
      <rects>
        <_>
          14 12 1 8 -1.</_>
        <_>
          14 16 1 4 2.</_></rects>
      <tilted>0</tilted></_>
    <_>
      <rects>
        <_>
          15 11 2 2 -1.</_>
        <_>
          15 11 1 1 2.</_>
        <_>
          16 12 1 1 2.</_></rects>
      <tilted>0</tilted></_>
    <_>
      <rects>
        <_>
          15 12 3 1 -1.</_>
        <_>
          16 12 1 1 3.</_></rects>
      <tilted>0</tilted></_>
    <_>
      <rects>
        <_>
          15 13 4 4 -1.</_>
        <_>
          15 13 2 2 2.</_>
        <_>
          17 15 2 2 2.</_></rects>
      <tilted>0</tilted></_>
    <_>
      <rects>
        <_>
          15 14 3 5 -1.</_>
        <_>
          16 14 1 5 3.</_></rects>
      <tilted>0</tilted></_>
    <_>
      <rects>
        <_>
          15 15 5 4 -1.</_>
        <_>
          15 17 5 2 2.</_></rects>
      <tilted>0</tilted></_>
    <_>
      <rects>
        <_>
          15 15 6 4 -1.</_>
        <_>
          15 17 6 2 2.</_></rects>
      <tilted>0</tilted></_>
    <_>
      <rects>
        <_>
          15 17 2 2 -1.</_>
        <_>
          16 17 1 2 2.</_></rects>
      <tilted>0</tilted></_>
    <_>
      <rects>
        <_>
          15 17 10 5 -1.</_>
        <_>
          20 17 5 5 2.</_></rects>
      <tilted>0</tilted></_>
    <_>
      <rects>
        <_>
          16 13 2 2 -1.</_>
        <_>
          16 13 1 1 2.</_>
        <_>
          17 14 1 1 2.</_></rects>
      <tilted>0</tilted></_>
    <_>
      <rects>
        <_>
          17 9 2 4 -1.</_>
        <_>
          17 9 1 2 2.</_>
        <_>
          18 11 1 2 2.</_></rects>
      <tilted>0</tilted></_>
    <_>
      <rects>
        <_>
          17 15 4 4 -1.</_>
        <_>
          17 17 4 2 2.</_></rects>
      <tilted>0</tilted></_>
    <_>
      <rects>
        <_>
          17 17 1 6 -1.</_>
        <_>
          17 20 1 3 2.</_></rects>
      <tilted>0</tilted></_>
    <_>
      <rects>
        <_>
          17 17 3 2 -1.</_>
        <_>
          17 18 3 1 2.</_></rects>
      <tilted>0</tilted></_>
    <_>
      <rects>
        <_>
          18 11 4 8 -1.</_>
        <_>
          18 11 2 4 2.</_>
        <_>
          20 15 2 4 2.</_></rects>
      <tilted>0</tilted></_>
    <_>
      <rects>
        <_>
          19 14 3 4 -1.</_>
        <_>
          19 16 3 2 2.</_></rects>
      <tilted>0</tilted></_>
    <_>
      <rects>
        <_>
          19 15 6 2 -1.</_>
        <_>
          21 15 2 2 3.</_></rects>
      <tilted>0</tilted></_>
    <_>
      <rects>
        <_>
          19 16 6 1 -1.</_>
        <_>
          21 16 2 1 3.</_></rects>
      <tilted>0</tilted></_>
    <_>
      <rects>
        <_>
          19 16 3 2 -1.</_>
        <_>
          19 17 3 1 2.</_></rects>
      <tilted>0</tilted></_>
    <_>
      <rects>
        <_>
          20 15 1 10 -1.</_>
        <_>
          20 20 1 5 2.</_></rects>
      <tilted>0</tilted></_>
    <_>
      <rects>
        <_>
          21 5 4 16 -1.</_>
        <_>
          23 5 2 16 2.</_></rects>
      <tilted>0</tilted></_>
    <_>
      <rects>
        <_>
          21 6 1 6 -1.</_>
        <_>
          21 9 1 3 2.</_></rects>
      <tilted>0</tilted></_></features></cascade>
</opencv_storage>
