<?xml version="1.0"?>
<opencv_storage>
<stage5>
  <maxWeakCount>42</maxWeakCount>
  <stageThreshold>-8.3350086212158203e-01</stageThreshold>
  <weakClassifiers>
    <_>
      <internalNodes>
        0 -1 133646 2.3065011948347092e-02</internalNodes>
      <leafValues>
        4.2682927101850510e-02 5.6974583864212036e-01</leafValues></_>
    <_>
      <internalNodes>
        0 -1 12457 2.3085545748472214e-02</internalNodes>
      <leafValues>
        -1.0807789862155914e-01 5.2952110767364502e-01</leafValues></_>
    <_>
      <internalNodes>
        0 -1 178591 6.4388345927000046e-03</internalNodes>
      <leafValues>
        -2.1777309477329254e-01 3.1280130147933960e-01</leafValues></_>
    <_>
      <internalNodes>
        0 -1 135141 4.6550542116165161e-02</internalNodes>
      <leafValues>
        -1.3084504008293152e-01 4.8324549198150635e-01</leafValues></_>
    <_>
      <internalNodes>
        0 -1 108451 -6.5800234675407410e-02</internalNodes>
      <leafValues>
        -4.8554635047912598e-01 1.1239003390073776e-01</leafValues></_>
    <_>
      <internalNodes>
        0 -1 143209 5.5421038996428251e-04</internalNodes>
      <leafValues>
        -2.3955982923507690e-01 2.0929658412933350e-01</leafValues></_>
    <_>
      <internalNodes>
        0 -1 143445 2.0569346845149994e-02</internalNodes>
      <leafValues>
        1.1101426929235458e-01 -3.5165238380432129e-01</leafValues></_>
    <_>
      <internalNodes>
        0 -1 145669 5.2962638437747955e-03</internalNodes>
      <leafValues>
        -1.9148823618888855e-01 2.3168517649173737e-01</leafValues></_>
    <_>
      <internalNodes>
        0 -1 178751 -3.1546540558338165e-02</internalNodes>
      <leafValues>
        4.2155101895332336e-01 -8.6149640381336212e-02</leafValues></_>
    <_>
      <internalNodes>
        0 -1 182664 -8.3150551654398441e-04</internalNodes>
      <leafValues>
        2.5912785530090332e-01 -1.5170291066169739e-01</leafValues></_>
    <_>
      <internalNodes>
        0 -1 77564 6.4705298282206059e-03</internalNodes>
      <leafValues>
        -1.4272995293140411e-01 2.6660898327827454e-01</leafValues></_>
    <_>
      <internalNodes>
        0 -1 50021 4.6631358563899994e-02</internalNodes>
      <leafValues>
        -9.4754837453365326e-02 4.5549878478050232e-01</leafValues></_>
    <_>
      <internalNodes>
        0 -1 151585 6.1359209939837456e-04</internalNodes>
      <leafValues>
        -1.3427922129631042e-01 2.4243707954883575e-01</leafValues></_>
    <_>
      <internalNodes>
        0 -1 76186 -1.7074920237064362e-02</internalNodes>
      <leafValues>
        3.5915952920913696e-01 -1.1406764388084412e-01</leafValues></_>
    <_>
      <internalNodes>
        0 -1 118297 1.0713428258895874e-02</internalNodes>
      <leafValues>
        7.3395848274230957e-02 -4.4842278957366943e-01</leafValues></_>
    <_>
      <internalNodes>
        0 -1 178865 5.4985624738037586e-03</internalNodes>
      <leafValues>
        4.9562074244022369e-02 -6.4552825689315796e-01</leafValues></_>
    <_>
      <internalNodes>
        0 -1 91279 -8.0738943070173264e-03</internalNodes>
      <leafValues>
        4.3472012877464294e-01 -7.8314229846000671e-02</leafValues></_>
    <_>
      <internalNodes>
        0 -1 130061 -8.4908241406083107e-03</internalNodes>
      <leafValues>
        4.3382045626640320e-01 -8.6674749851226807e-02</leafValues></_>
    <_>
      <internalNodes>
        0 -1 142860 6.6747758537530899e-03</internalNodes>
      <leafValues>
        7.2169192135334015e-02 -5.5427199602127075e-01</leafValues></_>
    <_>
      <internalNodes>
        0 -1 129911 1.2718511745333672e-02</internalNodes>
      <leafValues>
        -1.0797323286533356e-01 3.0605402588844299e-01</leafValues></_>
    <_>
      <internalNodes>
        0 -1 76439 -6.4079269766807556e-02</internalNodes>
      <leafValues>
        -5.7415586709976196e-01 6.2851324677467346e-02</leafValues></_>
    <_>
      <internalNodes>
        0 -1 167134 -1.8670873250812292e-03</internalNodes>
      <leafValues>
        1.9479629397392273e-01 -1.7239519953727722e-01</leafValues></_>
    <_>
      <internalNodes>
        0 -1 91029 3.7839617580175400e-02</internalNodes>
      <leafValues>
        -5.9475671499967575e-02 5.2945011854171753e-01</leafValues></_>
    <_>
      <internalNodes>
        0 -1 182725 -1.8038719892501831e-02</internalNodes>
      <leafValues>
        2.9563274979591370e-01 -1.0363582521677017e-01</leafValues></_>
    <_>
      <internalNodes>
        0 -1 128522 -3.9562704041600227e-03</internalNodes>
      <leafValues>
        4.1941320896148682e-01 -7.9283729195594788e-02</leafValues></_>
    <_>
      <internalNodes>
        0 -1 120714 3.2191248610615730e-03</internalNodes>
      <leafValues>
        4.4315859675407410e-02 -7.6371127367019653e-01</leafValues></_>
    <_>
      <internalNodes>
        0 -1 170058 -4.7028603148646653e-04</internalNodes>
      <leafValues>
        2.5883364677429199e-01 -1.1948633939027786e-01</leafValues></_>
    <_>
      <internalNodes>
        0 -1 141018 -1.4334557577967644e-02</internalNodes>
      <leafValues>
        -8.6349934339523315e-01 4.2247008532285690e-02</leafValues></_>
    <_>
      <internalNodes>
        0 -1 129984 3.4617692232131958e-02</internalNodes>
      <leafValues>
        3.3071260899305344e-02 -6.9039893150329590e-01</leafValues></_>
    <_>
      <internalNodes>
        0 -1 129979 4.9221981316804886e-03</internalNodes>
      <leafValues>
        -1.6697493195533752e-01 2.0457233488559723e-01</leafValues></_>
    <_>
      <internalNodes>
        0 -1 49943 -7.8793969005346298e-03</internalNodes>
      <leafValues>
        2.1977378427982330e-01 -1.5551295876502991e-01</leafValues></_>
    <_>
      <internalNodes>
        0 -1 170304 8.4055797196924686e-04</internalNodes>
      <leafValues>
        -1.9584037363529205e-01 1.9183656573295593e-01</leafValues></_>
    <_>
      <internalNodes>
        0 -1 178982 6.4927907660603523e-03</internalNodes>
      <leafValues>
        5.1134742796421051e-02 -6.5305697917938232e-01</leafValues></_>
    <_>
      <internalNodes>
        0 -1 66163 -6.3274830579757690e-02</internalNodes>
      <leafValues>
        -5.6476724147796631e-01 5.3514339029788971e-02</leafValues></_>
    <_>
      <internalNodes>
        0 -1 143374 1.1435259133577347e-02</internalNodes>
      <leafValues>
        -9.7527220845222473e-02 3.5314267873764038e-01</leafValues></_>
    <_>
      <internalNodes>
        0 -1 54331 1.5193998813629150e-02</internalNodes>
      <leafValues>
        -9.0643212199211121e-02 3.6688801646232605e-01</leafValues></_>
    <_>
      <internalNodes>
        0 -1 90567 -5.8732402976602316e-04</internalNodes>
      <leafValues>
        2.0026919245719910e-01 -2.0343488454818726e-01</leafValues></_>
    <_>
      <internalNodes>
        0 -1 126921 3.7750808987766504e-03</internalNodes>
      <leafValues>
        7.5947009027004242e-02 -4.4489434361457825e-01</leafValues></_>
    <_>
      <internalNodes>
        0 -1 76965 1.0277625173330307e-01</internalNodes>
      <leafValues>
        4.4575668871402740e-02 -6.4705461263656616e-01</leafValues></_>
    <_>
      <internalNodes>
        0 -1 34287 -9.1736121103167534e-03</internalNodes>
      <leafValues>
        1.8775674700737000e-01 -1.6643363237380981e-01</leafValues></_>
    <_>
      <internalNodes>
        0 -1 133537 1.1257957667112350e-02</internalNodes>
      <leafValues>
        4.4462613761425018e-02 -7.2717273235321045e-01</leafValues></_>
    <_>
      <internalNodes>
        0 -1 181894 2.7698932681232691e-03</internalNodes>
      <leafValues>
        -8.1447556614875793e-02 4.1014611721038818e-01</leafValues></_></weakClassifiers></stage5>
</opencv_storage>
