<?xml version="1.0"?>
<opencv_storage>
<stage11>
  <maxWeakCount>83</maxWeakCount>
  <stageThreshold>-7.5573140382766724e-01</stageThreshold>
  <weakClassifiers>
    <_>
      <internalNodes>
        0 -1 32082 3.2635033130645752e-02</internalNodes>
      <leafValues>
        2.1264368295669556e-01 6.8726593255996704e-01</leafValues></_>
    <_>
      <internalNodes>
        0 -1 49309 -1.2316271662712097e-02</internalNodes>
      <leafValues>
        4.1478341817855835e-01 -7.1058720350265503e-02</leafValues></_>
    <_>
      <internalNodes>
        0 -1 13383 2.6354935020208359e-02</internalNodes>
      <leafValues>
        -1.3148464262485504e-01 2.6858252286911011e-01</leafValues></_>
    <_>
      <internalNodes>
        0 -1 57981 3.3981248270720243e-03</internalNodes>
      <leafValues>
        -1.1491429805755615e-01 2.6833260059356689e-01</leafValues></_>
    <_>
      <internalNodes>
        0 -1 48700 -1.1398013681173325e-02</internalNodes>
      <leafValues>
        1.5667071938514709e-01 -1.7440597712993622e-01</leafValues></_>
    <_>
      <internalNodes>
        0 -1 70968 -5.9275637613609433e-04</internalNodes>
      <leafValues>
        1.7819285392761230e-01 -1.2496921420097351e-01</leafValues></_>
    <_>
      <internalNodes>
        0 -1 53284 -3.8861449807882309e-02</internalNodes>
      <leafValues>
        -5.2601677179336548e-01 3.2985534518957138e-02</leafValues></_>
    <_>
      <internalNodes>
        0 -1 44717 2.8602294623851776e-03</internalNodes>
      <leafValues>
        9.4154134392738342e-02 -2.7856525778770447e-01</leafValues></_>
    <_>
      <internalNodes>
        0 -1 71056 -3.8906377740204334e-03</internalNodes>
      <leafValues>
        2.7440693974494934e-01 -8.1767849624156952e-02</leafValues></_>
    <_>
      <internalNodes>
        0 -1 10986 5.3031448274850845e-02</internalNodes>
      <leafValues>
        4.9684386700391769e-02 -4.4900226593017578e-01</leafValues></_>
    <_>
      <internalNodes>
        0 -1 4512 9.8657347261905670e-03</internalNodes>
      <leafValues>
        5.7721633464097977e-02 -3.5515511035919189e-01</leafValues></_>
    <_>
      <internalNodes>
        0 -1 31718 2.3426033556461334e-02</internalNodes>
      <leafValues>
        -7.0760637521743774e-02 3.2327574491500854e-01</leafValues></_>
    <_>
      <internalNodes>
        0 -1 52814 9.4282738864421844e-03</internalNodes>
      <leafValues>
        -1.4665803313255310e-01 2.4456731975078583e-01</leafValues></_>
    <_>
      <internalNodes>
        0 -1 49565 -6.5270862542092800e-03</internalNodes>
      <leafValues>
        -2.5601020455360413e-01 8.7956234812736511e-02</leafValues></_>
    <_>
      <internalNodes>
        0 -1 43548 -3.4652168396860361e-03</internalNodes>
      <leafValues>
        2.1391554176807404e-01 -9.1529190540313721e-02</leafValues></_>
    <_>
      <internalNodes>
        0 -1 26767 3.7938705645501614e-03</internalNodes>
      <leafValues>
        3.4393966197967529e-02 -4.9850693345069885e-01</leafValues></_>
    <_>
      <internalNodes>
        0 -1 65436 -1.1344149243086576e-03</internalNodes>
      <leafValues>
        1.9535841047763824e-01 -9.1080211102962494e-02</leafValues></_>
    <_>
      <internalNodes>
        0 -1 68523 5.3579630330204964e-03</internalNodes>
      <leafValues>
        4.0317714214324951e-02 -4.7261723875999451e-01</leafValues></_>
    <_>
      <internalNodes>
        0 -1 48285 5.0560049712657928e-02</internalNodes>
      <leafValues>
        3.0712245032191277e-02 -4.9963685870170593e-01</leafValues></_>
    <_>
      <internalNodes>
        0 -1 43621 3.8852490484714508e-02</internalNodes>
      <leafValues>
        -7.3089085519313812e-02 2.5419971346855164e-01</leafValues></_>
    <_>
      <internalNodes>
        0 -1 57824 1.9025567919015884e-02</internalNodes>
      <leafValues>
        4.5478366315364838e-02 -4.2754507064819336e-01</leafValues></_>
    <_>
      <internalNodes>
        0 -1 25821 8.3181476220488548e-03</internalNodes>
      <leafValues>
        -7.5442381203174591e-02 2.4437978863716125e-01</leafValues></_>
    <_>
      <internalNodes>
        0 -1 19674 -1.0002532973885536e-02</internalNodes>
      <leafValues>
        1.7780090868473053e-01 -1.0062453150749207e-01</leafValues></_>
    <_>
      <internalNodes>
        0 -1 61298 -3.3914275467395782e-02</internalNodes>
      <leafValues>
        -7.0595961809158325e-01 2.8601465746760368e-02</leafValues></_>
    <_>
      <internalNodes>
        0 -1 67675 -1.4369638636708260e-02</internalNodes>
      <leafValues>
        3.6898845434188843e-01 -4.8895776271820068e-02</leafValues></_>
    <_>
      <internalNodes>
        0 -1 48505 8.4955906495451927e-03</internalNodes>
      <leafValues>
        2.1097769960761070e-02 -7.0753920078277588e-01</leafValues></_>
    <_>
      <internalNodes>
        0 -1 19925 1.2410706840455532e-02</internalNodes>
      <leafValues>
        -6.5405629575252533e-02 3.0022153258323669e-01</leafValues></_>
    <_>
      <internalNodes>
        0 -1 52932 4.1380644688615575e-05</internalNodes>
      <leafValues>
        -1.7948628962039948e-01 1.1263034492731094e-01</leafValues></_>
    <_>
      <internalNodes>
        0 -1 37314 5.7377897202968597e-02</internalNodes>
      <leafValues>
        4.2258374392986298e-02 -3.9460852742195129e-01</leafValues></_>
    <_>
      <internalNodes>
        0 -1 21724 -1.3066621497273445e-02</internalNodes>
      <leafValues>
        3.4591352939605713e-01 -4.9440346658229828e-02</leafValues></_>
    <_>
      <internalNodes>
        0 -1 28040 -2.6065483689308167e-03</internalNodes>
      <leafValues>
        -3.0219894647598267e-01 6.1716388911008835e-02</leafValues></_>
    <_>
      <internalNodes>
        0 -1 35635 1.9790357351303101e-01</internalNodes>
      <leafValues>
        -4.3512932956218719e-02 3.8502261042594910e-01</leafValues></_>
    <_>
      <internalNodes>
        0 -1 49436 4.4948784634470940e-03</internalNodes>
      <leafValues>
        -8.6522758007049561e-02 1.9774046540260315e-01</leafValues></_>
    <_>
      <internalNodes>
        0 -1 58149 -2.7102597523480654e-03</internalNodes>
      <leafValues>
        1.9407239556312561e-01 -9.3554519116878510e-02</leafValues></_>
    <_>
      <internalNodes>
        0 -1 58317 2.1599892526865005e-02</internalNodes>
      <leafValues>
        3.8874130696058273e-02 -4.8197761178016663e-01</leafValues></_>
    <_>
      <internalNodes>
        0 -1 9894 -8.6575336754322052e-03</internalNodes>
      <leafValues>
        1.0619706660509109e-01 -1.5776760876178741e-01</leafValues></_>
    <_>
      <internalNodes>
        0 -1 53389 -6.1677690595388412e-02</internalNodes>
      <leafValues>
        1.8579284846782684e-01 -9.9957011640071869e-02</leafValues></_>
    <_>
      <internalNodes>
        0 -1 78402 6.4622878562659025e-04</internalNodes>
      <leafValues>
        -8.5313037037849426e-02 2.2273489832878113e-01</leafValues></_>
    <_>
      <internalNodes>
        0 -1 57001 -6.0480376705527306e-03</internalNodes>
      <leafValues>
        2.1840322017669678e-01 -7.3284395039081573e-02</leafValues></_>
    <_>
      <internalNodes>
        0 -1 32122 9.0574380010366440e-03</internalNodes>
      <leafValues>
        1.5178711712360382e-01 -1.1220772564411163e-01</leafValues></_>
    <_>
      <internalNodes>
        0 -1 52538 -3.9771579205989838e-02</internalNodes>
      <leafValues>
        -2.2299212217330933e-01 8.1261016428470612e-02</leafValues></_>
    <_>
      <internalNodes>
        0 -1 65547 -1.2029042700305581e-03</internalNodes>
      <leafValues>
        1.3857999444007874e-01 -1.2176768481731415e-01</leafValues></_>
    <_>
      <internalNodes>
        0 -1 58363 5.5744526907801628e-03</internalNodes>
      <leafValues>
        5.9779122471809387e-02 -3.1530922651290894e-01</leafValues></_>
    <_>
      <internalNodes>
        0 -1 54366 -8.2593718543648720e-03</internalNodes>
      <leafValues>
        2.4633190035820007e-01 -7.5896874070167542e-02</leafValues></_>
    <_>
      <internalNodes>
        0 -1 43876 1.0847039520740509e-02</internalNodes>
      <leafValues>
        3.3380206674337387e-02 -5.3111445903778076e-01</leafValues></_>
    <_>
      <internalNodes>
        0 -1 59654 -8.1377045717090368e-04</internalNodes>
      <leafValues>
        1.6969305276870728e-01 -1.0044949501752853e-01</leafValues></_>
    <_>
      <internalNodes>
        0 -1 38994 7.8173717483878136e-03</internalNodes>
      <leafValues>
        -9.4979599118232727e-02 1.7004519701004028e-01</leafValues></_>
    <_>
      <internalNodes>
        0 -1 27141 3.4348800778388977e-02</internalNodes>
      <leafValues>
        3.4265004098415375e-02 -5.4045361280441284e-01</leafValues></_>
    <_>
      <internalNodes>
        0 -1 31170 6.7825731821358204e-04</internalNodes>
      <leafValues>
        -7.8652314841747284e-02 2.1514220535755157e-01</leafValues></_>
    <_>
      <internalNodes>
        0 -1 37068 4.0717488154768944e-03</internalNodes>
      <leafValues>
        2.5753546506166458e-02 -7.2515821456909180e-01</leafValues></_>
    <_>
      <internalNodes>
        0 -1 41748 -4.1271166992373765e-04</internalNodes>
      <leafValues>
        1.4183174073696136e-01 -1.1961272358894348e-01</leafValues></_>
    <_>
      <internalNodes>
        0 -1 51947 4.6682797372341156e-02</internalNodes>
      <leafValues>
        -1.0183697193861008e-01 1.6868510842323303e-01</leafValues></_>
    <_>
      <internalNodes>
        0 -1 31076 -1.6437705606222153e-02</internalNodes>
      <leafValues>
        1.7728511989116669e-01 -9.8325319588184357e-02</leafValues></_>
    <_>
      <internalNodes>
        0 -1 6796 5.3203981369733810e-02</internalNodes>
      <leafValues>
        -6.3080608844757080e-02 2.5803297758102417e-01</leafValues></_>
    <_>
      <internalNodes>
        0 -1 21380 -5.5829707533121109e-02</internalNodes>
      <leafValues>
        3.5862997174263000e-01 -5.3126163780689240e-02</leafValues></_>
    <_>
      <internalNodes>
        0 -1 78429 -1.1411457089707255e-03</internalNodes>
      <leafValues>
        -2.0175386965274811e-01 8.8649764657020569e-02</leafValues></_>
    <_>
      <internalNodes>
        0 -1 31951 9.8261106759309769e-03</internalNodes>
      <leafValues>
        -1.0170805454254150e-01 1.6820564866065979e-01</leafValues></_>
    <_>
      <internalNodes>
        0 -1 31583 -4.8559298738837242e-03</internalNodes>
      <leafValues>
        -6.0284376144409180e-01 2.6942674070596695e-02</leafValues></_>
    <_>
      <internalNodes>
        0 -1 53479 -5.0065666437149048e-03</internalNodes>
      <leafValues>
        3.0387389659881592e-01 -5.5210571736097336e-02</leafValues></_>
    <_>
      <internalNodes>
        0 -1 57592 5.1542399451136589e-03</internalNodes>
      <leafValues>
        3.0106315389275551e-02 -5.5969613790512085e-01</leafValues></_>
    <_>
      <internalNodes>
        0 -1 48980 -7.0250063436105847e-04</internalNodes>
      <leafValues>
        1.9904452562332153e-01 -8.3476796746253967e-02</leafValues></_>
    <_>
      <internalNodes>
        0 -1 64542 1.3438131660223007e-02</internalNodes>
      <leafValues>
        3.6034554243087769e-02 -4.9731171131134033e-01</leafValues></_>
    <_>
      <internalNodes>
        0 -1 57870 1.7929505556821823e-02</internalNodes>
      <leafValues>
        2.8460839763283730e-02 -6.2745940685272217e-01</leafValues></_>
    <_>
      <internalNodes>
        0 -1 66465 1.4041382819414139e-03</internalNodes>
      <leafValues>
        -1.0420470684766769e-01 1.6376596689224243e-01</leafValues></_>
    <_>
      <internalNodes>
        0 -1 72082 -2.9165488667786121e-03</internalNodes>
      <leafValues>
        2.4210377037525177e-01 -7.2726555168628693e-02</leafValues></_>
    <_>
      <internalNodes>
        0 -1 75118 5.0709210336208344e-04</internalNodes>
      <leafValues>
        1.1095391213893890e-01 -1.5659490227699280e-01</leafValues></_>
    <_>
      <internalNodes>
        0 -1 25191 6.0299746692180634e-02</internalNodes>
      <leafValues>
        3.0611595138907433e-02 -5.8038771152496338e-01</leafValues></_>
    <_>
      <internalNodes>
        0 -1 54514 -2.9977620579302311e-03</internalNodes>
      <leafValues>
        4.3124452233314514e-01 -4.0584124624729156e-02</leafValues></_>
    <_>
      <internalNodes>
        0 -1 10954 1.0171721875667572e-01</internalNodes>
      <leafValues>
        2.7036285027861595e-02 -7.0536929368972778e-01</leafValues></_>
    <_>
      <internalNodes>
        0 -1 31625 9.8313158378005028e-03</internalNodes>
      <leafValues>
        1.7846381291747093e-02 -7.0289242267608643e-01</leafValues></_>
    <_>
      <internalNodes>
        0 -1 37163 1.8244002014398575e-02</internalNodes>
      <leafValues>
        1.9180683419108391e-02 -7.0964837074279785e-01</leafValues></_>
    <_>
      <internalNodes>
        0 -1 47256 2.6598600670695305e-03</internalNodes>
      <leafValues>
        -9.0202637016773224e-02 2.0930060744285583e-01</leafValues></_>
    <_>
      <internalNodes>
        0 -1 46879 9.0244486927986145e-03</internalNodes>
      <leafValues>
        2.3711547255516052e-02 -6.2768143415451050e-01</leafValues></_>
    <_>
      <internalNodes>
        0 -1 44068 6.2090903520584106e-04</internalNodes>
      <leafValues>
        -8.7920308113098145e-02 2.0033122599124908e-01</leafValues></_>
    <_>
      <internalNodes>
        0 -1 38728 -1.7891218885779381e-03</internalNodes>
      <leafValues>
        1.8248091638088226e-01 -1.1621742695569992e-01</leafValues></_>
    <_>
      <internalNodes>
        0 -1 61442 4.6440456062555313e-03</internalNodes>
      <leafValues>
        3.4186977893114090e-02 -4.6327230334281921e-01</leafValues></_>
    <_>
      <internalNodes>
        0 -1 11731 -3.9621150493621826e-01</internalNodes>
      <leafValues>
        6.5596187114715576e-01 -2.4578865617513657e-02</leafValues></_>
    <_>
      <internalNodes>
        0 -1 33451 2.8449459932744503e-03</internalNodes>
      <leafValues>
        -7.5036235153675079e-02 2.0284999907016754e-01</leafValues></_>
    <_>
      <internalNodes>
        0 -1 70967 -7.8800832852721214e-04</internalNodes>
      <leafValues>
        1.6723993420600891e-01 -9.7799636423587799e-02</leafValues></_>
    <_>
      <internalNodes>
        0 -1 57989 2.8376462869346142e-03</internalNodes>
      <leafValues>
        -1.2774151563644409e-01 1.2722447514533997e-01</leafValues></_>
    <_>
      <internalNodes>
        0 -1 37064 1.3085168600082397e-01</internalNodes>
      <leafValues>
        -7.1937941014766693e-02 2.3505005240440369e-01</leafValues></_>
    <_>
      <internalNodes>
        0 -1 31410 8.1647709012031555e-02</internalNodes>
      <leafValues>
        1.8905783072113991e-02 -8.9812374114990234e-01</leafValues></_>
    <_>
      <internalNodes>
        0 -1 40589 -1.0518521070480347e-01</internalNodes>
      <leafValues>
        7.4802488088607788e-01 -2.5417227298021317e-02</leafValues></_></weakClassifiers></stage11>
</opencv_storage>
